solver_type L2R_LR
nr_class 6
label 2 4 3 1 0 5
nr_feature 20212
bias -1
w
3.190065038521249 -3.253504060907307 -3.285484665618383 -3.331638661577335 -3.252291526885891 -3.277051385514158 
-0.04321393252351741 0.05570673269302306 -0.04559379570024257 -0.04556542186318366 -0.04506461579133148 -0.04561161387662738 
0.9973986103211607 -1.25369502257916 -1.262840940072328 -0.9659397798651305 -1.262144332954386 -1.251096310515193 
0.4957954872658394 -0.4951076454490477 -0.3731661764936903 -0.3497639055450942 -0.3726086593338503 -0.3465566233270745 
1.654286853485277 -1.63672399919956 -1.617562677428212 -1.594050750023362 -1.614033528332414 -1.607698531666617 
0.4506674938944786 -0.2730441257760917 -1.120060271389313 -1.149701157628115 -1.399228395772921 -1.164454953248548 
0.1262226031701727 -0.0699428814814472 -0.1323465129742992 -0.06341591556442698 -0.06225251447651845 -0.07181331459048702 
1.624429486150833 -1.583181745455891 -1.610138670631317 -1.567871377498342 -1.568945390886101 -1.571320601359744 
0.2721789823959071 -0.2623456194186557 -0.1913131957184065 -0.174246842269432 -0.2105585676093679 -0.147449090969731 
0.8514805616358258 -0.8600718758145099 -0.8606980863597878 -0.8390792409911004 -0.8546016539733455 -0.8639120704351562 
0.04364583604310938 -0.04621655316657595 -0.04559722612033554 -0.04560122141777224 -0.04518399629229469 -0.04561225570786479 
1.160010925929361 -1.172677046449444 -1.144045480263544 -1.127463115949216 -1.141130129258528 -1.132073199737103 
-0.5086963690882588 -0.2873476476737823 -0.9656497100724358 0.3899228167430549 -0.1879704314992362 -1.369098387064686 
0.4199645538787177 -0.4272656182364974 -0.3310730138134853 -0.2993760760089915 -0.3467822661295365 -0.2840883101373428 
1.078639743691383 -1.008863283066938 -0.9699168154504307 -1.011861238542848 -0.9956733307187728 -0.9688915343450267 
0.7850500270076439 -0.8032402159978402 -0.7916625266375141 -0.8098080078711171 -0.8075084868298253 -0.8090687052954676 
0.7790536981050843 -0.4917956372896212 -0.3968146782801951 -0.5459293437178475 -0.5446223436840436 -0.4356203611482701 
0.0001873882143473594 -0.001984229589174946 -0.0003507624014316003 -0.002187544059374959 -0.001381989881188959 -0.0002017651316885198 
0.6367815466426431 -0.1255590566141297 -0.5380619799755956 -0.7101635512109018 -0.4485191159876488 -0.440284008501603 
0.2620400497868676 -0.3259639368751047 -0.06489904548404611 -0.05113537572884844 -0.05175057583233541 -0.04585494235608173 
0.0001873882143473594 -0.001984229589174946 -0.0003507624014316003 -0.002187544059374959 -0.001381989881188959 -0.0002017651316885198 
0.9853927544643006 -0.9686798355970072 -0.9645301738390467 -0.9701778537673904 -0.9697920959084272 -0.9685454520468525 
-0.2323498651605833 -0.2113793236146948 -1.643308402606794 -0.5734411260616525 -0.5458108824135274 -1.956806193479482 
0.2091208456762372 -0.2192071171905458 -0.2255159453086188 -0.2209865152793852 -0.2227876696726708 -0.22693563908744 
1.170862431364009 -1.172977231960581 -1.140566519947523 -1.12456277095207 -1.141810017539435 -1.1290839519696 
0.508971948751851 -0.2360611414873462 -0.1600194653211197 -0.4339673170570059 -0.3491435610160669 -0.1265902432541121 
2.029309998104599 -2.12143516361603 -2.008625066190844 -1.972487558039409 -2.016801433758883 -1.986550109768797 
1.100815020378648 -1.01543957194777 -0.7297939249090134 -0.7801903138260775 -0.8376424432672113 -0.72856070030957 
1.459057388905942 -1.570701293457996 -1.615604264758393 -1.573480858752408 -1.573305981998966 -1.601175739879978 
0.03568924173490698 -0.03497359433462437 -0.04838717999074633 -0.04967635839156913 -0.04584268498476024 -0.05014954711463623 
0.8551811727161878 -2.25933705928299 -1.494241699368497 -1.357385315761254 -1.722511479234471 -2.446933059147325 
2.526197882927845 -2.208848110371636 -2.729682784594097 -2.046119899717679 -2.556892335814888 -2.069991720168205 
2.146320545745416 -2.16304780906793 -2.149127675514974 -2.15132037728106 -2.134082654715804 -2.162263496702229 
0.9889337985233874 -0.9864798530407123 -0.9933533839464513 -0.9922761391433929 -1.000362588341438 -0.9869485627018109 
1.622439609694682 -2.180387737492405 -1.834294017450818 -2.416507911615595 -2.433744069457915 -2.174436666485581 
0.5306969496419799 -0.5173646485444414 -0.4946502406176359 -0.4826140230322821 -0.4822669525644001 -0.4876175878554885 
0.9436810285822729 -0.5809801041423592 -1.327186367981812 -1.021347060373651 -1.016436955682855 -1.14044698184814 
0.531766183697098 -0.5175193745980833 -0.4946219034263504 -0.4825850736675937 -0.4824248894275074 -0.4876030281956977 
1.58767222179204 -1.557705290865924 -1.544263244150232 -1.524168170313875 -1.535563067343715 -1.508192384615131 
1.285603094188955 -2.039054489386031 -1.219806927806752 -2.008118789331405 -1.874603089728037 -1.981085485735596 
1.091725278940319 -1.110062614801328 -1.071632266302343 -1.063944159288094 -1.101558614028017 -1.085514182630409 
0.3126290969405036 -0.3264932454547931 -0.4509028706019216 -0.3041037726427002 -0.06530376875282924 -0.2919516124717774 
0.4401687758469374 -0.4402115639280414 -0.4401508808719241 -0.4401369736961324 -0.4401553069380861 -0.4401480102334284 
0.4401687758469374 -0.4402115639280414 -0.4401508808719241 -0.4401369736961324 -0.4401553069380861 -0.4401480102334284 
0.4401687758469374 -0.4402115639280414 -0.4401508808719241 -0.4401369736961324 -0.4401553069380861 -0.4401480102334284 
0.4401687758469374 -0.4402115639280414 -0.4401508808719241 -0.4401369736961324 -0.4401553069380861 -0.4401480102334284 
1.214744053383781 -1.214594734295941 -1.214598500429252 -1.214598108424174 -1.214539044638958 -1.214598356521957 
1.214744053383781 -1.214594734295941 -1.214598500429252 -1.214598108424174 -1.214539044638958 -1.214598356521957 
0.3569307459812708 -0.3563502660601099 -0.3364644464583242 -0.3467875444821165 -0.3564761174606992 -0.3373035346729061 
0.6825385813369649 -0.6825142174142738 -0.6535963704074685 -0.6550505709052779 -0.7279853484578763 -0.6535433088373538 
1.041892667686388 -1.003088179876544 -0.9777510806741447 -0.9894725029230239 -1.006222598529963 -0.9771819733782114 
0 0 0 0 0 0 
0.1086179573432433 -0.1112356805774768 -0.1179917116901159 -0.1174341366699017 -0.1084805670338033 -0.1185576679025342 
0.1626987360492727 -0.1707158093663994 -0.1442230887929397 -0.1373250784675935 -0.1565234257864284 -0.1383135536452285 
0.7634959034753831 -0.7779573507768743 -0.7793661744370014 -0.7724952218617607 -0.7697607204925052 -0.7812727480909418 
0.1086179573432433 -0.1112356805774768 -0.1179917116901159 -0.1174341366699017 -0.1084805670338033 -0.1185576679025342 
1.436760758148253 -1.265909264774974 -1.172222430842581 -1.215760977048107 -1.272824031283212 -1.179334488041442 
0.1096842846263838 -0.2644069790558869 -2.328192577311663 -2.152625096653584 -0.007695327038391681 -2.296120752380518 
0.01595302968536294 -0.01623251139898739 -0.002543462722885617 -0.002845530554489098 -0.02079749086863541 -0.002616543531099282 
0.6611967891664069 -0.6753018163044194 -0.6748885256271445 -0.6714611881506198 -0.6772077537411242 -0.675350019525402 
0.3578895640856403 -0.3557610303714896 -0.336364897414439 -0.3467031998592763 -0.3566028663405154 -0.3371653054320848 
0.04156063340609768 -0.04337069580366061 -0.04758013256225808 -0.04682861031480968 -0.04534268961829433 -0.04809876618908129 
0.7651219312207431 -0.7241136140107086 -0.7145104189562004 -0.6844688388806133 -0.6686981986856587 -0.6920878461835762 
0.1654315944804612 -0.177522181367201 -0.1782224286493452 -0.1857614045633736 -0.181909011757924 -0.1866918323791402 
0.04156063340609768 -0.04337069580366061 -0.04758013256225808 -0.04682861031480968 -0.04534268961829433 -0.04809876618908129 
0.4146978520420818 -0.4246837841781625 -0.3771657241909478 -0.4055195141865316 -0.3784855136554151 -0.379488869066454 
-0.09682734689685238 0.4196432531634321 -1.213286273372126 -1.020498472327759 -1.41389318635907 -1.387681746724864 
0.4146778157612643 -0.4205754890478296 -0.3363058542851244 -0.3432288350954603 -0.4296319266077064 -0.338711471795896 
0.09701388887848875 -0.09942862558529639 -0.1111659183658841 -0.109398726011374 -0.09496597257797341 -0.1110122154487617 
0.8086155535687729 -0.8573938438392855 -1.378185775309649 -1.185887663012464 -0.8784322085627452 -1.350318881517869 
1.225807030432792 -1.235695166895703 -0.8785676795993214 -0.955099189668886 -1.062865338321064 -0.8849396960279901 
0.4841350241833143 -0.5260439422429236 -0.2571781448717951 -0.2742973046572612 -0.2644688128414513 -0.2527275558115042 
0 0 0 0 0 0 
-0.01020720868451956 -0.2232326032221838 -0.001325207662078447 -0.007590230566891828 0.2133384238163855 -0.001207459767031029 
0 0 0 0 0 0 
1.600394281709359 -1.73918092169422 -1.648983611502315 -1.451173270671611 -1.74244187075597 -1.619268786119258 
0 0 0 0 0 0 
0 0 0 0 0 0 
0.6679084857119044 -0.6660296329002886 -0.6562791362524606 -0.6748652719464455 -0.6657986161962112 -0.6841047133702036 
0 0 0 0 0 0 
-0.009112106438812814 -0.1863112531049773 -0.001314434025466388 -0.002160916499253843 0.09226041661700708 -0.00119848049478154 
1.081022807881933 -1.03547080132248 -1.038457875207131 -1.008368369919305 -1.052305053656232 -1.024104924858744 
0.02788030222917996 -0.02887081255125824 -0.02932118576693474 -0.03014049399040281 -0.02855873849603206 -0.02966774347298055 
0.7427821352713433 -0.7411406384805771 -0.750859560431587 -0.7457726329840485 -0.7454725546510923 -0.7571982911194719 
0.8590913475434213 -1.287682976658421 -1.031787311418781 -1.250096240308204 -1.219700656798971 -0.8105132195554944 
0.5348051596543308 -0.5273359093237399 -0.5368872637610256 -0.5319701107608424 -0.5313309188699094 -0.5481871170936182 
0.2172338246875219 -0.1826324851931102 -0.197355644359147 -0.1804286754536188 -0.1958190057922455 -0.1967295270277032 
0.7264178230396036 -0.7242845368644367 -0.7323845817890763 -0.7266876727061023 -0.7277452051436339 -0.7386596401994471 
0.3542573347628929 -0.2835500850968729 -0.3029293679466596 -0.2331085027731242 -0.2340658517742651 -0.287318295960102 
0.9156575952375634 -0.9200562978797623 -1.258763090124019 -1.037806145190268 -1.216936913742187 -1.268824481048361 
1.158825959046167 -1.115268229572902 -1.046945986562254 -1.031408607448741 -1.101155376829587 -1.048397434854854 
0.9211878772030281 -0.8351294539579682 -0.6554527343029294 -0.7935687476711123 -0.7085914558409871 -0.6631056746045964 
0.2095183201952398 -0.1983847792651169 -0.1104810373149663 -0.1154340036328825 -0.2168477518088253 -0.1145964290456513 
0.330253363198141 -0.3293822772108466 -0.3277749412315518 -0.3291534454723081 -0.3292446106462019 -0.3266457443734139 
0.1269440219853608 -0.1274318203158646 -0.1259819734521672 -0.1269171119827567 -0.1266632988666007 -0.1248430265808548 
0.5184355865803443 -0.4851303313493578 -0.3983178905689169 -0.4521505567612737 -0.4690371100087767 -0.4064447788669748 
0.8901883875476931 -0.8550818621064805 -0.8463861925714175 -0.8763358900328824 -0.8666153593671954 -0.8457647043973644 
1.924626343026098 -1.967489577639173 -2.718128070458392 -2.187529576793905 -2.75189523524309 -2.716286491537646 
0.1623055555111168 -0.1787414175340573 -0.1303431125840465 -0.1261663966079586 -0.1152424074308322 -0.1257401188016537 
0.3572998743511947 -0.3299196985224717 -0.2858771581030193 -0.354073293827377 -0.2922617536980669 -0.2940082005766263 
0.02091712209174108 -0.02128150614561259 -0.01223953911618596 -0.01773346829585169 -0.0110854622869286 -0.01212485280073127 
0.2054055720491522 -0.209351834249881 -0.2112586233786538 -0.2301474569947202 -0.1981447607242123 -0.2113174947765636 
0.138711709285974 -0.1442575949514932 -0.1412577500573241 -0.1419467809646131 -0.1436344036099987 -0.1405053372317541 
0.8757798474635182 -0.8410965042744609 -0.8129615954337034 -0.819168042350373 -0.8676037703023958 -0.8135782337337495 
-0.04291871798519464 -0.7290878876313777 -0.6996723783150093 0.06467183422808793 -0.7541627700655913 -0.7254793795580273 
0.3901047178673431 -0.3739365495277736 -0.3670593568483657 -0.3722373344222355 -0.4045945190229593 -0.3677030752320994 
0.8399524760027984 -0.8386377239552734 -0.3168547879738731 -0.432265906756819 -0.6848771869121044 -0.2958938270141139 
0.1402061181476699 -0.1443216678377963 -0.1457222017584395 -0.1460475737898804 -0.1442774418647583 -0.1457773395977646 
0.1402061181476699 -0.1443216678377963 -0.1457222017584395 -0.1460475737898804 -0.1442774418647583 -0.1457773395977646 
1.247619990519775 -1.201702049524141 -1.185639459010433 -1.18165174797553 -1.201843448548167 -1.185003113966756 
0.1402061181476699 -0.1443216678377963 -0.1457222017584395 -0.1460475737898804 -0.1442774418647583 -0.1457773395977646 
0.1402061181476699 -0.1443216678377963 -0.1457222017584395 -0.1460475737898804 -0.1442774418647583 -0.1457773395977646 
0.6331796379560444 -0.3749746933905757 -1.381467457486771 -2.006444749748908 -1.510615513707139 -1.952908945938434 
0.4357519084109583 -0.3623604502010439 -0.2748982889452439 -0.2869693418726812 -0.3559264228721506 -0.2778096992764913 
0.07129018997483404 -0.08713355898652546 -0.03565681754207911 -0.02656060757480077 -0.03751205392820966 -0.02852527175729327 
0.9423359545212083 -0.9367717897014993 -0.9347252676322354 -0.9312715575097933 -0.9688074117790443 -0.9316357223928665 
1.568385735819279 -1.652385613575826 -1.796829248320682 -1.482142798882583 -1.54644089399176 -1.456717432435806 
0.187558198435921 -0.2045850606432164 -0.1371503925090595 -0.1277085226462853 -0.1302246221234548 -0.1416028243783256 
0.01965737424577635 -0.01827700128407378 -0.01600510173341379 -0.016097511169179 -0.0160099228537612 -0.01445711574142296 
0.01965737424577635 -0.01827700128407378 -0.01600510173341379 -0.016097511169179 -0.0160099228537612 -0.01445711574142296 
0.5503196846837651 -0.5476828810645009 -0.4422619585776668 -0.5068239331937009 -0.4565274999793887 -0.4358718164282429 
0.06649310928849006 -0.06532842689107884 -0.07280761539535828 -0.07459983526544993 -0.07279279727134733 -0.07210210673919064 
0.2074235980228084 -0.5790751676514814 -0.5092704023954668 -0.492160991536439 -0.5295642489776735 -0.1126399948656228 
0.8431953499884813 -1.046597499233034 -1.045554172533937 -1.070861784909266 -1.03652208828333 -0.7514651727704609 
0.680800037407492 -0.5793048964770865 -0.4994714709438104 -0.4920960154121932 -0.5302049197565273 -0.6320501468997777 
0.3243646324892843 -0.2421536793625423 -0.2469197826086868 -0.2541017408575588 -0.2411875797911472 -0.3383708777230193 
1.45296982234789 -1.367514177145009 -1.302811273363298 -1.369167960406438 -1.382579903170058 -1.283573148278456 
1.035022695698308 -1.054131701905908 -1.065765620399481 -1.0408710112514 -1.010417754113939 -1.074675392415424 
0.2089334574618898 -0.2172228876013709 -0.2251651829071872 -0.2187989712200102 -0.2214056797914818 -0.2267338739557515 
0.491496531506957 -0.4914489886600344 -0.4914193457057082 -0.4914123866706153 -0.4913958919101732 -0.4914179646631767 
0.491496531506957 -0.4914489886600344 -0.4914193457057082 -0.4914123866706153 -0.4913958919101732 -0.4914179646631767 
0.491496531506957 -0.4914489886600344 -0.4914193457057082 -0.4914123866706153 -0.4913958919101732 -0.4914179646631767 
0.491496531506957 -0.4914489886600344 -0.4914193457057082 -0.4914123866706153 -0.4913958919101732 -0.4914179646631767 
0.3322747180311791 -0.3332547565431684 -0.3403753258601164 -0.3101741260872297 -0.315289978418227 -0.3019333416555535 
0.4692434587295339 -0.2892165809168089 -0.3811059872173281 -0.2288556282102385 -0.2478445486635515 -0.2603637846101007 
0.3395746202183742 -0.3334686583630192 -0.3392825842028862 -0.3077144267918721 -0.3152351179580155 -0.3013306590921171 
0.5283975277621028 -0.7965038996165577 -0.2985228313278402 -0.7222458436380549 -0.7311806084871685 -0.8133180318213167 
0.9179101271964217 -0.675863357721763 -0.7281650081682914 -0.720223911081261 -0.6622665687256718 -0.5181257615231563 
1.137186515607518 -1.150766279647689 -1.115791073252566 -1.118745039986196 -1.123394839771227 -1.151168406786007 
0.2690182685374777 -0.3152159136083333 -0.3221308731749157 -0.3221532560485634 -0.3324513536580471 -0.3526188737108781 
0.537822870646271 -0.5563381073043899 -0.5094199902907238 -0.5133012394077631 -0.5196783995788696 -0.5567503312900993 
1.350201621527983 -1.372540612747268 -1.323937641854002 -1.322972816456113 -1.323074145196929 -1.324351205059088 
0.2578269286052047 -0.2556508838369908 -0.2607935654988524 -0.2610688009085587 -0.2604869219049853 -0.2607093798109352 
0.8102220246722913 -0.80085472904813 -0.817371153541656 -0.8166264561878541 -0.8200669514350304 -0.8174750450433312 
0.2578269286052047 -0.2556508838369908 -0.2607935654988524 -0.2610688009085587 -0.2604869219049853 -0.2607093798109352 
0.6339548240370051 -0.5990517157933397 -0.6154003677571063 -0.6012897373235877 -0.5906360686006435 -0.5893441069867741 
0.9561444701823869 -0.9623638859207129 -0.9576818415286634 -0.9637490633630414 -0.9629766542868594 -0.9638165052374429 
0.3480142852663358 -0.3393694717590719 -0.3290587855376267 -0.3515123319543014 -0.3320904269789171 -0.3327075191504935 
0.290835207050853 -0.2990328003494101 -0.2989555196574606 -0.2958980158277068 -0.3019994566400406 -0.3024209642861574 
1.430524008878437 -1.432567711923255 -1.433160703919613 -1.432471044814506 -1.430366634579228 -1.435026072907016 
0.9374187080149881 -0.9367764017452487 -0.9385407328708435 -0.9362374243537113 -0.9352872951793688 -0.9385635916978364 
1.267657811327927 -1.264768066543489 -1.264231487508229 -1.264737088890302 -1.266040042200635 -1.26322004508338 
0.07277629933386186 -0.07305051750798711 -0.07202634946360914 -0.07224203794753155 -0.07227313731279034 -0.07195003312685018 
0.5786314646948489 -0.4809252419804008 -0.3949261004144468 -0.4672845924886684 -0.5251376389941321 -0.3811757174656574 
0.2633484820548719 -0.5178154861897061 -0.9717233675774047 -0.599643306071882 -0.751425467203457 -0.9770051467174856 
0.3856638734203717 -0.2676049224427682 -0.2570223529223303 -0.3477599049862272 -0.3071691832893074 -0.2637064051914383 
0.5786314646948489 -0.4809252419804008 -0.3949261004144468 -0.4672845924886684 -0.5251376389941321 -0.3811757174656574 
0.1098386149195135 -0.5748518807318198 -0.3486615300958989 -0.151901328815049 -0.05746035305450952 -0.3364595842003376 
0.8145118078852013 -0.811620407912752 -0.7633639647047213 -0.7605555885820413 -0.7514835084907192 -0.7496130968242983 
1.273942580369808 -1.284209363820032 -1.059450571827096 -1.256208976989189 -1.248872626760752 -1.283367561353257 
0.1851143865752947 -0.1817925963001673 -0.2178866838423678 -0.1970767461658773 -0.1985859539178162 -0.1949067934824481 
0.6653911504972773 -0.6633882452522409 -0.7019025994510383 -0.6856089654822443 -0.688459875453085 -0.6859398553907428 
0.3200610100145649 -0.3363929183445329 -0.3461098585093474 -0.293649988485806 -0.2970355523290226 -0.2910710062673685 
0.1822452892033366 -0.0971706960235259 -0.0925561386679086 -0.1052384697241809 -0.1225942911176003 -0.07346757831692535 
1.724178000761297 -1.585280252685718 -1.889668743591993 -1.928782600261568 -1.908351724885011 -1.880236004169988 
0.4974186075055003 -0.6021439414981045 -0.2884961602118457 -0.2903548647401608 -0.3019939748047845 -0.2899117793074617 
0.05083492323351037 -0.05216883521904032 -0.05953882050667349 -0.06586388179986377 -0.05054460191067429 -0.0637391758862545 
0.5279185242086298 -0.4846264318205936 -0.4392754092006524 -0.4733613015063916 -0.4617707062521809 -0.4228402757011143 
0.3961370402414711 -0.4101105742199456 -0.455437212921004 -0.446992575927889 -0.4372860792657847 -0.4555137731057331 
0.5541616127579121 -0.5785963965368147 -0.659729213974022 -0.6468759196737167 -0.6311532542730365 -0.6606512646288046 
0.3961370402414711 -0.4101105742199456 -0.455437212921004 -0.446992575927889 -0.4372860792657847 -0.4555137731057331 
0.9707260093412327 -0.8571137705512771 -0.6146091527936909 -0.6171075692138305 -0.9093223679901532 -0.591888607392954 
0.4718701279528366 -0.3576774359323271 -0.6175436109468357 -0.629345166418496 -0.7977902645380192 -0.5884065420909917 
0.2247371668843457 -0.5208542876346646 -1.672750380171886 -1.69934392639879 -0.5069572512825028 -1.996896297824218 
1.715197768442747 -1.684274677766085 -1.574967416775224 -1.5830799030159 -1.634525220807266 -1.562177284757386 
0.7716659976782091 -0.7064810824018418 -0.5405267987052947 -0.5453471770578254 -0.7690431564339935 -0.5128656280770428 
0.7170644333735425 -0.7152811701835761 -0.5148653011029664 -0.5154425097505139 -0.5809073970365667 -0.4973789015663402 
0.6981072975554108 -0.7149915666206039 -0.6068391257848275 -0.5946728139571024 -0.6019102726985834 -0.5544110815326142 
1.738901373242971 -1.691770028316951 -1.600172928246119 -1.625642391776003 -1.670893160174602 -1.590664317009723 
0.1816122796916027 -0.1561876926975841 -0.1278945060988602 -0.1019659873680784 -0.137606068455674 -0.09397226795048194 
0.5846792426456627 -0.424201702650885 -1.286607741839767 -1.463232834094063 -1.532775447665863 -1.490874317122906 
1.651798483766503 -1.555198515535267 -1.574456247106383 -1.535753478898478 -1.600543016422156 -1.522513162535454 
-0.5319750562240021 0.3638352197155983 0.1934054575648733 -0.4133738131661058 -0.360068343750622 -0.826183935761586 
0.6828864213536879 -0.6825500351790597 -0.6686706026856472 -0.6579227534001988 -0.6568710681715457 -0.6539470186203612 
1.358642949286471 -1.457068398476031 -0.9179199200538107 -0.8463609588363914 -0.8724714936718975 -0.8387022475563327 
0.3565401690808123 -0.3651812926411893 -0.3440794430901253 -0.3412927856329458 -0.3575347926948964 -0.3426764840445085 
0.2666923363230674 -0.1762913744966308 -0.2562359819024219 -0.1818718984551342 -0.2258221616187783 -0.18581510977949 
0.4994723526829272 -0.3639098640238883 -0.5005963421755028 -0.3718300755181705 -0.4223224535916241 -0.3801877544486412 
0.2676177229543626 -0.1755159748554995 -0.2557991404424252 -0.1813901629747639 -0.2256083281707635 -0.185345119752416 
0.3668002450349407 -1.656397806807665 -1.477712532317659 -2.013456872169829 0.7599779648686261 -1.476166902189121 
0.4516876353082908 -0.144428501950013 -0.2698380385744861 -0.2421043383359033 -0.5866647662645972 -0.2730900259052725 
1.128178327032 -1.362946264577205 -1.395693818677363 -1.246432415443429 -1.966653863183583 -1.395424155497366 
0.4625189712103043 -0.2203882915281846 -0.1747696479441189 -0.1290872303227516 -0.4741447105103798 -0.1745791967142948 
1.520277452977096 -1.415518697915085 -1.303701123180365 -1.488514113662117 -1.407747656653868 -1.258239371022023 
0.7372058386059623 -0.7800472146053383 -0.8252680179465858 -0.7494193321444528 -0.7824023974326173 -0.8442064640070567 
0.0751898841558335 -2.197289884882756 -1.474557758932088 -0.1478669781516518 -1.373523954422817 -2.332257279776736 
0.58340172032838 -2.12566560921674 -0.9482517849767411 -0.7791243711413219 -1.064598168745423 -2.248288907949358 
2.415581252867206 -1.597203293905233 -1.499004569344173 -2.098236622297311 -1.693712420450754 -1.459426360572925 
-1.574517011168267 -1.85406219675829 -2.132724706973416 1.947675833453534 -2.366491954147854 -1.576314291819513 
-0.4251855894674682 -0.5283883865001648 0.5287937674603165 -0.4502226597143904 -0.8556438849818306 -0.4836131634957633 
0.816679067730536 -0.8169201888160771 -0.8167598628788756 -0.8167236938418703 -0.8168122160149793 -0.8167523169726991 
0.816679067730536 -0.8169201888160771 -0.8167598628788756 -0.8167236938418703 -0.8168122160149793 -0.8167523169726991 
0.816679067730536 -0.8169201888160771 -0.8167598628788756 -0.8167236938418703 -0.8168122160149793 -0.8167523169726991 
0.816679067730536 -0.8169201888160771 -0.8167598628788756 -0.8167236938418703 -0.8168122160149793 -0.8167523169726991 
0.454225302600677 -0.4513819001666579 -0.4568894956225623 -0.4602487408782019 -0.4602245468540985 -0.4565903338083318 
-4.905187351497524e-06 -0.002724746195036731 -0.003160881604305902 -0.001653240791376476 -0.002465449867054948 -0.003266029959216166 
1.067583384324988 -1.224465226321927 -1.203480336505525 -1.194864353991564 -1.195192003797264 -1.2193196607042 
0.134469003747465 -0.1005811969035197 -0.1408318888546848 -0.1020812972165407 -0.1094124596403418 -0.1049164525150067 
0.450931013737399 -0.4225068701222724 -0.4567390441265831 -0.4238546597595148 -0.4299619537122102 -0.4262600944679439 
1.35210983039422 -0.9959470989763366 -1.352201579779576 -1.006489791840457 -1.046363525092213 -0.9971246779678204 
0.134469003747465 -0.1005811969035197 -0.1408318888546848 -0.1020812972165407 -0.1094124596403418 -0.1049164525150067 
2.023983147092258 -2.010692532481903 -1.953137503565018 -1.934965662028989 -2.011826807668692 -1.923868559630874 
0.05772551229756293 -0.0412873441514919 -0.03044453979321018 -0.0157930545783897 -0.02053451344299279 -0.0395781267986165 
0.913056620100517 -0.8818482386701578 -0.7838992844079392 -0.7285722207207145 -0.7339775107680823 -0.8145310527823774 
-1.02676199251279 0.4826527726202579 0.07637958927684672 -0.8363332476644664 -0.4471495644123261 0.4307581541258028 
0.4057754706871062 -0.3421615821204709 -0.2246368334841692 -0.1432373702181117 -0.1761725848795411 -0.2637126199467012 
0.440628933286806 -0.3724646841678956 -0.5401546478026209 -0.4651587748142558 -0.5044197941119759 -0.550724369292241 
1.355958075756998 -1.358021336108674 -1.384202683880771 -1.388165857388038 -1.347124732670473 -1.404486432197275 
0.05772551229756293 -0.0412873441514919 -0.03044453979321018 -0.0157930545783897 -0.02053451344299279 -0.0395781267986165 
0.5719454540261918 -0.4948423352012071 -0.9209066914391675 -0.8591949700901182 -0.8769164377686918 -0.9534006452976963 
0.3480499583895433 -0.3008742379689789 -0.1941922936909591 -0.127444315639722 -0.1556380714365483 -0.2241344931480847 
0.3480499583895433 -0.3008742379689789 -0.1941922936909591 -0.127444315639722 -0.1556380714365483 -0.2241344931480847 
0.3480499583895433 -0.3008742379689789 -0.1941922936909591 -0.127444315639722 -0.1556380714365483 -0.2241344931480847 
0.6501083869906781 -0.587673654587241 -0.4935064852899373 -0.4845596712003166 -0.4836467990326936 -0.4371155860358087 
1.389222155572792 -1.35643964139203 -1.630874680913095 -1.615193857828574 -1.644936982590606 -1.636477954706111 
0.4981429014381307 -0.4105155048051334 -0.3870671097909297 -0.3716504386161296 -0.3733920987881592 -0.3273811264257437 
0.3937886674596051 -0.4393662878011393 -0.3412867538892886 -0.3340453445490627 -0.3088601623443347 -0.3330869739963788 
1.104929164184932 -0.6224812616409579 -0.509143870559849 -0.7155252007818428 -0.666159906289536 -0.3922147284870782 
-0.07963896071239657 -0.9516891164755865 -0.3253047326859642 -0.7380600935462636 -0.2467075395517238 -0.8298970539974477 
0.5056495983072189 -0.05599603092877743 -0.1674874260903013 -0.4237912838495856 -0.1576305675917075 -0.07443774296521043 
0.3207569086787631 -0.4302777850982454 -0.6540536781306751 -0.1069293377438141 -0.7554830661572201 -0.3366013346780619 
0.3441561950089605 -0.315087020654286 -0.6627447506022459 -0.6702584154343272 -0.6396252405708455 -0.6601812301939851 
0.7495026159154048 -0.7625088544587543 -0.6407380385884157 -0.6387860002853405 -0.6498080834247054 -0.6415955608799215 
1.313787859892463 -1.062931209111756 -0.9712935348528046 -1.047631554278549 -1.00257325125376 -0.859797797730299 
0.03993821457449764 -0.01755514907962495 -0.03427975829492546 -0.03195472156009192 -0.02501436768797379 -0.0166103152092929 
0.9481301032591803 -0.6834164294184649 -0.8043718492200308 -0.943576467563045 -0.8990159272712041 -0.7410415733521268 
0.03993821457449764 -0.01755514907962495 -0.03427975829492546 -0.03195472156009192 -0.02501436768797379 -0.0166103152092929 
-0.1880679518957996 0.1468077208502361 -0.1630592428228167 -0.1331003739147731 -0.2155411735983755 -0.1486774072214786 
-0.07533561131731563 0.1184894158255217 -0.1630624175981454 -0.1346926896365195 -0.2411747689491711 -0.1487274527694386 
-0.4432975085719676 1.069157289066321 -0.4650937105010421 -0.8923847270297418 0.09582100826406027 -0.6747128789631489 
-0.023926152636015 -0.104526438467018 -0.1924329288303281 -0.1780544184441658 -0.06392542426041947 -0.177843814225472 
-0.1638369510983336 0.0903013579732289 -0.1630576107030982 -0.1331934599959587 -0.2148828180956131 -0.1486772426015204 
-0.1880679518957996 0.1468077208502361 -0.1630592428228167 -0.1331003739147731 -0.2155411735983755 -0.1486774072214786 
-0.1880679518957996 0.1468077208502361 -0.1630592428228167 -0.1331003739147731 -0.2155411735983755 -0.1486774072214786 
-0.1880679518957996 0.1468077208502361 -0.1630592428228167 -0.1331003739147731 -0.2155411735983755 -0.1486774072214786 
0.08116905618231 -0.1315944355835698 -0.1449452202050873 -0.08890212055853976 -0.1145850348016961 -0.1386969827676127 
0.8485662039305094 -0.6995355734300139 -0.6691415871338104 -0.7063219306707551 -0.7606296136217164 -0.6585904143136796 
1.153447696087438 -1.192608969517437 -1.165560996695377 -1.142155358501057 -1.142280802583117 -1.16291817612935 
-0.1619461084119238 -0.05873702035351875 -0.05521127756054424 -0.02788634120261463 -0.07925362803531473 0.3552297827509684 
0.08116905618231 -0.1315944355835698 -0.1449452202050873 -0.08890212055853976 -0.1145850348016961 -0.1386969827676127 
0.4175625526121725 -0.2901776709104243 -0.1853773229691618 -0.2698229553780099 -0.1483377110742614 -0.1654983628806861 
0.03888712460250997 -0.01231887688741296 -0.003313983098563683 -0.008394435858583738 -0.006462979094460675 -0.001486451741976816 
0.2204748782235193 0.1728981398684346 -0.2706834368973539 -0.6086794784321929 -0.3891986873139814 -0.201470806546287 
-0.163120216238632 -0.09692956558086416 -0.9237969489286778 -0.6160467392226933 -0.1645717019196325 -0.8734001285071101 
0.4279602552128921 -0.6458378652512755 -0.5083469962319648 -0.09270408554889548 -0.5520942547995521 -0.4694689787095599 
1.024994731996779 -0.7649850567752792 -1.414655917184814 -1.864042903213455 -1.440234051143007 -1.602665934709743 
0.2594664312031391 -0.2651655346349701 -0.1364649780343012 -0.09498159178037599 -0.1469057962496063 -0.09473741797314615 
0.5528881847619699 -0.2412146860293128 -0.7669907058727 -0.7733651741638012 -0.7695575923797094 -0.7628859210535806 
0.03888712460250997 -0.01231887688741296 -0.003313983098563683 -0.008394435858583738 -0.006462979094460675 -0.001486451741976816 
0.7266379431921121 -0.3351273583171386 -0.2060846507185662 -0.5603534692157413 -0.2078356704706412 -0.1700274401968489 
1.135830489283041 -1.086599556115141 -1.046170024797081 -1.002476879178668 -1.120145379115816 -1.00936889698787 
0.7984859447233558 -0.7205837101031147 -0.6360769562538018 -0.6193115058574198 -0.7435877197028404 -0.6414892634565733 
0.3129255594051283 -0.2177538690489491 -0.2519460734081175 -0.2043807327566794 -0.366944852600037 -0.2052938838444091 
0.8647417591631764 -0.7700499788042285 -0.5002380865562879 -0.4554913891803468 -0.5393735729638515 -0.4574853164808421 
1.545156579607126 -1.546247482883556 -1.418439711495562 -1.403629914360252 -1.412896899233843 -1.407369500942399 
1.182525774722446 -1.161217233952761 -1.248747614636488 -1.225568892359127 -1.222084437296025 -1.228561466090489 
0.2567037341290591 -0.2591877082682368 -0.5107819802164054 -0.4108999931494725 -0.6261655463572114 -0.4800365740607647 
0.816679067730536 -0.8169201888160771 -0.8167598628788756 -0.8167236938418703 -0.8168122160149793 -0.8167523169726991 
0.816679067730536 -0.8169201888160771 -0.8167598628788756 -0.8167236938418703 -0.8168122160149793 -0.8167523169726991 
1.592254230223076 -1.59358731174662 -1.598310697971208 -1.593338480945816 -1.594552854142074 -1.593578676977846 
1.363091177466159 -1.358284476834141 -1.366798484196922 -1.36301988152987 -1.363640195776827 -1.362338789950724 
1.606355432708108 -1.394308976083128 -0.8705944337502287 -0.8531573281872387 -1.296829952221153 -0.7389117300183913 
0.5210544969111875 -0.2839155745611075 -1.208769309815714 -0.6788852764093313 -1.260059936492351 -0.4916196260837785 
1.004609497694917 -0.8490908256624731 -0.8351272402414065 -0.7995936440001773 -0.9791575896763095 -0.8406726884243929 
0.4347876181748916 -0.3096103319244395 -0.3206520658085152 -0.2893352405862593 -0.4464684132763135 -0.3403380050217217 
0.2121634713993598 -0.1162960675757724 -0.2147990525102478 -0.1023739414872044 -0.100477877638831 -0.1154138123683951 
0.2121634713993598 -0.1162960675757724 -0.2147990525102478 -0.1023739414872044 -0.100477877638831 -0.1154138123683951 
-0.1434821625901992 0.1817755377257399 -0.08680621453855082 -0.08460952902326634 -0.1209141516476831 -0.09067134209245135 
1.22618143163245 -1.266931547990937 -1.026041587008953 -1.012697849308783 -1.02634167203176 -1.030010940319747 
0.08622197168589064 -0.1009530911400405 -0.08154980450951549 -0.08044981047577252 -0.07842734032116802 -0.0859129811014093 
-0.0008952879932674902 -0.008984238338082217 -0.005156140381624607 0.00223285794420962 -0.004908048937087298 -0.003487119110527262 
-0.0008952879932674902 -0.008984238338082217 -0.005156140381624607 0.00223285794420962 -0.004908048937087298 -0.003487119110527262 
0 0 0 0 0 0 
0 0 0 0 0 0 
1.051724727096638 -1.048007612311952 -1.149452479093533 -1.134181056310404 -1.09719431437605 -1.108279531493972 
0.4059152613163233 -0.3146266059915063 -0.3311588207790953 -0.3154893146132611 -0.2876039981130695 -0.2573443402576974 
0.15197605762454 -0.0549502100196286 -0.09464397221878278 -0.1073367647297296 -0.08475311118377854 -0.04666676126792688 
0.6240211929510352 -0.556316583871422 -0.5559521217492173 -0.5692506701943284 -0.5631728127690531 -0.5333850071504017 
0.15197605762454 -0.0549502100196286 -0.09464397221878278 -0.1073367647297296 -0.08475311118377854 -0.04666676126792688 
-1.038955656211798 -0.002949224316109529 1.282951372324818 -0.01458689319856429 -0.006652100907036615 -0.002381413326470125 
-1.388121046306496 -0.0448112916372289 1.62839699333906 -0.05910334242994984 -0.03230371680040497 -0.03296209469680646 
-0.6346085577991329 -1.475191031827117 0.01438608421819227 -0.3208367371696122 -1.099136153422647 -1.804964924142377 
-0.4781789945463246 -0.4927134982666257 0.8132665707239125 -0.7977034746566894 -0.5004022279787268 -0.4905591337453613 
-1.038955656211798 -0.002949224316109529 1.282951372324818 -0.01458689319856429 -0.006652100907036615 -0.002381413326470125 
-0.1552495005876296 -0.02550202422970908 -0.04123318368768197 0.151472902234296 -0.06361598884845583 -0.02717520102671982 
-0.2258053593993246 -0.05228755514263264 -0.07581017397057534 0.2385734846348429 -0.1440366227190234 -0.04951973045668893 
-0.3131632499106786 -0.0502765745798169 -0.08190566675562905 0.4206394230907446 -0.1104648784964325 -0.048370745484752 
-1.517108636419116 -1.630069156611832 -2.123848001658823 1.745222730249528 -1.908299946266782 -1.362081569930393 
-0.1552495005876296 -0.02550202422970908 -0.04123318368768197 0.151472902234296 -0.06361598884845583 -0.02717520102671982 
-1.326847052339253 -1.522233018462144 -0.9603322067760155 1.241650812702068 -0.6519652231608688 -1.358397566950127 
-1.019574483753437 -0.5568843373322964 -0.7569281951811935 0.793784461641718 -0.3414854506568108 -0.7353948218298351 
-0.949024847948717 -1.177038317307876 -1.321810161748367 0.7176376836351123 -0.199240902257834 -1.419204475623646 
-0.9327127853641815 -0.952159527056062 -1.112458173813681 1.064150044416832 -1.575897614368847 -0.9397628955782993 
-0.9733358148114626 -0.8822080201202411 -0.7314276959004291 1.062259585515768 -1.171435934395764 -0.7090334915132364 
-0.5071861530492031 -0.5959622062379267 -0.859256793235778 0.4262767964811017 -0.8278002101736283 -0.8597942797834988 
-0.7098086027045889 -0.3016371034238752 -0.5383689412864793 0.5177914670346997 -0.09534412473449613 -0.4702097345591652 
-1.012752612952893 -1.041005543150086 -1.214231593714106 0.8341848278227223 -0.3377376841670758 -1.228139733647981 
-1.319033115011352 -0.8854039480390502 -1.0551191283923 0.9768003853308723 -0.4584777487031911 -1.178572897043888 
-0.2438973570057694 0.7028941414170128 -0.04206107057169269 -0.01605141495082233 -0.1964433889010652 -0.03152856570730511 
-0.02810106933383453 -0.02746226992559361 -0.01978706611087296 0.02690442993166009 -0.02684221839217746 -0.0148814753709405 
0.1367494122689519 -0.2534624674993399 -0.1446630217205718 -0.1150224873899043 -0.1573462022277939 -0.09541547001337373 
-0.6706392434065894 -0.5991596875567687 -0.5927087715482201 0.5565078079784671 -0.3670046700599542 -0.8844536993860366 
-1.248593693546824 -1.279703545059662 -1.139519139736024 1.471599521364611 -1.573734385905217 -1.047587082861077 
-0.8923472347551089 -0.6673039664149606 -0.8500104833218778 0.9792377704218774 -0.6540140280970907 -0.8300158092547091 
-0.1383668408425179 -0.2029232024565225 -0.0780931757097455 0.02337966691273999 0.1148518479989839 -0.05675362022242468 
-0.4984855122919259 -0.2892864952537574 -0.212617507794182 0.3807951553374601 0.2088477656548374 -0.1069129361995419 
-0.7614610850819976 -0.9618782890731777 -0.7843491428402208 0.8393761539242641 -1.124379673608505 -0.796643107011161 
-0.8263374965562948 -0.1960234027665672 -0.5612857516721045 1.447997663497945 -0.6697995750640275 -0.4105202668057034 
0.004330902451938315 -0.5184917710666453 -0.4433082945686737 0.2692521108878793 -0.2604228909138479 -0.3734749467247551 
-0.2316131249929966 -0.815953707824576 -0.7336730823033456 0.2757601825077097 -0.6519423899074823 -0.7041712285332149 
-1.328737970761437 -0.5740914582293064 -0.4902637916234268 1.224969514306247 -0.7854020958356682 -0.395189191077246 
-1.111474698390592 -0.5842238696356519 -0.9702073484215655 1.365785681849207 -0.7147289070859492 -0.8282380221928193 
-0.2067300193358587 -0.5284934479440732 -0.706587486733907 -0.02971729535344437 -0.007609222501238883 -0.3136728089691327 
-0.9950692399453926 -0.2677974661831898 -0.5246241781897866 0.7711094059155034 0.1585211964563992 -0.5521348121992348 
-1.001836005112525 -0.412383258391541 -0.4668495713029997 1.12637115608317 -0.6114156307418765 -0.3734394691054968 
-0.04761600976355649 -0.2513337571100864 -0.7003648213249866 0.03959854924570609 -0.4881055128456532 -0.5570521884292271 
-0.5330966950490255 -0.2200993999204414 -0.2941281763354546 0.3080226595259984 0.2408603386790408 -0.2248400235756602 
-0.8923453716396791 -0.3971335530129486 -0.4233576135595369 0.9699107093559003 -0.5701673870882197 -0.3546418807831606 
-0.7665975873761345 -0.532972953003694 -0.5389196834075884 -0.7045327752244774 1.273262335938644 -0.4882307009873171 
-0.7658498846644992 -0.3586959269766581 -0.580350781874952 -0.7248604661381215 1.009814360333402 -0.5104032426107848 
-0.04388853579010541 -0.04310055807302583 -0.04947978860577984 -0.03464841459248915 0.0163343099175421 -0.04051094445711177 
-0.3068427237931018 -0.1766273552566947 -0.158229572187461 -0.2312371472103531 0.2243513923147128 -0.1555611301764376 
-0.1518242114789533 -0.1701093879940682 -0.149106911910504 -0.1152853904802132 0.2703865230671492 -0.1513698968708824 
-0.04341359334271052 -0.04294279685998813 -0.04704251784194122 -0.03705080718645266 0.01728461632507665 -0.04032266079483283 
-0.04341359334271052 -0.04294279685998813 -0.04704251784194122 -0.03705080718645266 0.01728461632507665 -0.04032266079483283 
-0.04341359334271052 -0.04294279685998813 -0.04704251784194122 -0.03705080718645266 0.01728461632507665 -0.04032266079483283 
-0.06364225754852076 -0.9140019059296465 -0.7954409278024588 -0.6388849373051362 -0.2615863952455643 -1.106823078171828 
-0.1417534461740494 -0.06047121379426234 -0.05012343204024981 -0.07890246092081839 0.3899284882124572 -0.04149831326828314 
-0.3891500795574351 -0.3625199322195569 -0.272918986242758 -0.3099720810147552 0.6177535227226902 -0.2771457407591673 
-0.3390223825283925 -0.3638189949761655 -0.2729223793848428 -0.3100753013516783 0.4590802197608272 -0.2771470693782058 
-0.09283529742805398 -0.227705824955196 0.2812747059636563 -0.1656756084118733 0.09282060808484567 -0.03117928209423057 
0.2645369377674539 -0.127867617288441 -0.512264890227272 -0.6503460431096402 -0.4101089184427356 -0.4732314568639096 
-0.4014520758894383 -0.4560078476908777 -0.4789432438015766 0.3067826110568289 -0.1042992857168924 -0.4711338161961731 
-0.4173220400837509 -0.2641166351875883 -0.1204688310075192 -0.2208067839526071 1.393628213621583 -0.1205536982743499 
-0.1709137996499862 0.01983924807386539 -0.007919271300206004 -0.1694508072393283 0.1301139046389203 -0.003959946812522328 
-0.3695403712467729 -0.06514095253169309 -0.06721966579333603 0.1087618549970454 0.5029728164264096 -0.04740379986112549 
-0.007576470618674014 -0.002955708512543174 -0.0004342169836422597 -0.132429078778565 0.1246728960702613 -0.0002299479175206915 
-0.007486500327160021 -0.5774565845538662 -0.469103231777163 -0.8374767848285539 0.5640737013793079 -0.4347591736662993 
-0.007576470618674014 -0.002955708512543174 -0.0004342169836422597 -0.132429078778565 0.1246728960702613 -0.0002299479175206915 
-0.2798403679034867 -0.01987374393524032 -0.02197385723863597 0.157139261620858 0.09230841433636451 -0.01147326315393726 
0.2392771808320087 0.01111661209857115 -0.1137232430497929 -0.8995834914811124 1.211008039387961 -0.1135495327993637 
-0.01147707161516246 -0.008744109051933659 -0.001524224934017868 -0.1329206195486423 0.1272457657492746 -0.0002560563101427114 
-0.006389819854448519 -0.002620980998473212 -0.000438147973804043 -0.1324239531861701 0.12450660495585 -0.0002304332266014615 
-0.9050904295495324 -0.5280780730319359 -0.3104154620218884 -0.8076513136911408 1.27474480070884 -0.3059665811243959 
-0.4427038113480092 -0.02640440518247057 -0.08834983155975443 -0.2419231647004831 1.015488155934192 -0.0779677226276856 
-0.5661184743782179 -0.07915169398420241 -0.1452252170460363 0.1776139632163239 0.1543096529256089 -0.1131826486196833 
-0.1927713842417462 -0.3507338966008385 -0.1342601812393096 -0.2127561099463959 0.4295947486953007 -0.1753494201364492 
-0.2225502692459562 0.2505779714161487 -1.490955875862229e-05 -0.03469763996389021 0.2854205530608171 -8.417145134465841e-06 
-0.5390085241391941 -0.2899411701751446 -1.968375659698535 -2.111459972974584 0.6450323298060837 -1.625402869536634 
-0.4335154418413122 -0.3859116294405741 -0.08001278756936353 -0.5025269757024312 0.764555381573668 -0.1021805749899481 
-0.237672224015462 -0.1996347873982818 -0.2174886978309839 -0.4074858219031104 0.7011360636319601 -0.09699956458941422 
-0.5904102834179396 -0.7626268213426809 -0.2092810945117128 -0.6725861213375701 1.338199560258884 -0.1680669618174377 
-0.3113347872956075 0.01304533039366643 -0.01828866365154601 -0.0132224749276856 0.377001148768527 -0.01202328275105496 
-0.5359149897817927 -0.2653549678369281 -0.4547251894061799 -0.120419808002882 0.7793034534883347 -0.1206517373085042 
0.001076992570446616 -0.003069696606390221 -1.707754962921825e-05 -0.043606631905211 0.01681409824252361 -1.704200998999421e-05 
-0.2341631261248567 -0.08117780610627501 -0.0008197741990384568 -0.04210320105554263 0.443868708027966 -0.000841791743044165 
-0.049160808503847 0.0225800926387318 -0.02375088462537089 -0.0515398141542224 -0.0562224667535576 -0.02655557309304244 
0.00114465227827538 0.0001346519235124698 4.967701912198457e-07 -0.03417106741970603 0.01086441901057811 -3.428328351431351e-07 
-0.259777136608466 -0.3790113996157556 -0.2649505707922129 -0.4733261196817575 0.2601493780561214 -0.2703647906755355 
-0.08260373038024557 -0.07164377472533537 -0.06075230173353923 -0.2786159176068465 0.1358583542124402 -0.04951488437717941 
0.1424786411831073 -0.612047441837883 -0.444771582602729 -0.5350664483419227 -0.0278230168391344 -0.5218566665452723 
-0.06525098098419164 -0.01797296539356687 -0.003371200477054211 -0.0002444151113160618 0.02754874039202018 -0.001653411525040722 
-1.206717889367547 -0.4528061383324351 -0.4047506803016802 -1.007688453501679 2.284504642453361 -0.350078913278952 
-0.02021974130190446 0.1581525098393382 -0.004888451382252954 -0.01412749437499012 -0.09832176379071325 -0.00351062814329687 
-0.2816730348391872 0.1269771973201571 -0.005663891913202128 0.002859885315396308 0.1344089585771128 -0.001842380800988798 
-0.1737500990664609 0.1243885056759286 -0.008420657148241651 -0.006317107741953088 -0.01071986008114631 -0.008352901423444352 
-0.06395330966742227 -0.01685048116240288 -0.003630695444756377 -0.001369170039837471 0.05936901437224331 -0.001658782517821003 
-0.2431732546328936 -0.5344931144573882 -0.1653311025803968 -0.6122063857436751 -0.4049568762122461 -0.8310599147279358 
-0.4965639792393819 -0.3785354217626742 -0.1450722318886 -0.4005175057493111 1.575699855228425 -0.0362065671711442 
0.38617295539447 -0.3920907853033412 -0.3808815190950348 -0.3656792698390656 -0.2650069318704663 -0.347797529992794 
1.364932499586391 -1.612110667385428 -0.7791972068510463 -0.7492165137835554 -1.325376978448773 -0.6558378684482365 
0.06482699845705614 -0.4757491537505368 -0.04236124378178683 -0.3590551317571617 -0.4248881277633004 -0.4364470698437056 
-0.1993723614561098 -0.8165275223287313 0.4429507797487046 -0.7871659985414164 -0.7409271755993186 -0.697119326733091 
-0.3712322136597077 -0.1441684338360496 0.2564991540627637 -0.7241820380705823 -0.5995454386378075 -0.5152612346695798 
-0.3651820360751244 -0.5562909866884745 0.5191741548360099 -0.5554588171779236 -0.5558580711447935 -0.5555516424278344 
-0.2667587011171962 -0.183248959481843 0.3194265660660559 -0.1872239748450698 -0.1846142130277755 -0.1855769649298199 
-0.1884866158487362 -0.8349969175599523 0.6110095338433182 -1.096441269841963 -0.8673235348811431 -0.8316452443470435 
0.07658126756440123 -0.03869880680678533 0.3839851192475026 -0.2657423475318308 -0.04835019802407721 -0.02665299487510712 
-1.433250837132652 -1.325893977050921 0.2422896633209405 0.4490183093262611 -1.684422561195674 -1.469602859074424 
-0.3869694930807214 -0.4461689990565547 0.5077099177880799 -0.4713509987307137 -0.456903641332932 -0.4493736241458354 
0.1106273091355312 -0.7858834785588962 -0.3042056070722219 -0.4425739486261264 -0.4054672561476388 -0.7090371527390606 
-0.8218029463538404 -0.9556084426657279 1.006491941708793 -0.9872593686228388 -0.9656720624267167 -0.9583518997333311 
0.3290280398149334 -0.5227204257134804 0.0945789297301483 -0.2449088608114117 -0.2866763427671343 -0.2352744177091612 
0.6254934117742191 -0.7519229373174889 -2.068545542579387 -2.047211309621388 -1.578709694124584 -1.978681835212649 
-0.2742062149317336 0.000551460562390593 0.5008325186442116 -5.581813024671062e-05 0.0005990048006360013 -1.395454038066446e-06 
-0.2742062149317336 0.000551460562390593 0.5008325186442116 -5.581813024671062e-05 0.0005990048006360013 -1.395454038066446e-06 
-0.2742062149317336 0.000551460562390593 0.5008325186442116 -5.581813024671062e-05 0.0005990048006360013 -1.395454038066446e-06 
0.06482699845705614 -0.4757491537505368 -0.04236124378178683 -0.3590551317571617 -0.4248881277633004 -0.4364470698437056 
-0.2998451536939727 -0.6821564576037751 0.4609102630483882 -0.6974461638967954 -0.6491687931461265 -0.6133096136135598 
-0.1831928686355395 -0.5320931875768221 0.2809429210426843 -0.5479805672222064 -0.5343521926647105 -0.5320791624609812 
-0.01387812242436646 -0.5319530370601786 -0.05502813580213255 -0.5242260295572637 -0.5306846929192611 -0.5319742625282051 
-0.1831928686355395 -0.5320931875768221 0.2809429210426843 -0.5479805672222064 -0.5343521926647105 -0.5320791624609812 
-0.01387812242436646 -0.5319530370601786 -0.05502813580213255 -0.5242260295572637 -0.5306846929192611 -0.5319742625282051 
0.1034341856330192 -0.3034433049583123 0.07668332423775059 -0.395941380996984 -0.3155868949078078 -0.2428341449689393 
0.4938826037371961 0.1110547108302982 -0.7791664674356834 -0.4431534780000649 -0.3739499224357203 -0.2906785237919462 
0.1034341856330192 -0.3034433049583123 0.07668332423775059 -0.395941380996984 -0.3155868949078078 -0.2428341449689393 
-0.09097582114339088 -0.5568424472508652 0.01834163619179829 -0.5554029990476769 -0.5564570759454295 -0.5555502469737963 
-0.2701907062766034 -0.1867763027648543 0.2486944809653915 -0.1850632955830343 -0.1862114369250864 -0.1851509516616289 
-0.5401579012693365 -0.6386765136423206 0.6711906326356849 -0.9408232806061974 -0.6648425501510573 -0.6474239052395697 
0.3507874824961348 -0.03925026736917592 -0.1168473993967091 -0.2656865294015841 -0.0489492028247132 -0.02665159942106905 
-0.1127632781489878 -0.4467204596189453 0.00687739914386825 -0.4712951806004669 -0.4575026461335681 -0.4493722286917974 
-0.4182762634961048 -0.1256125350873423 0.3282180418520149 -0.05006596426595463 -0.1714951396752254 -0.134006566668611 
-0.1793635839666239 -0.5093871507185763 0.1283730264331733 -0.5021323261573065 -0.5073345380097686 -0.5084402671861276 
-0.1773190486723392 -0.1018774301437153 0.1680503276133388 -0.1004264652314613 -0.1014669076019537 -0.1016880534372255 
-0.1793635839666239 -0.5093871507185763 0.1283730264331733 -0.5021323261573065 -0.5073345380097686 -0.5084402671861276 
-0.1773190486723392 -0.1018774301437153 0.1680503276133388 -0.1004264652314613 -0.1014669076019537 -0.1016880534372255 
0.09326212387808547 -0.1091107083882445 0.2034287941579157 -0.3305797657855062 -0.1040363664452514 -0.1003327546569266 
0.4141847462748248 -1.263762245567394 -0.8364170407340258 -0.5125450530924458 -0.4103370077995729 -1.236748412726068 
0.09326212387808547 -0.1091107083882445 0.2034287941579157 -0.3305797657855062 -0.1040363664452514 -0.1003327546569266 
0.5272462565066477 -0.7480889755852657 -0.3507665064223049 -0.8358048777176209 -0.751059917785683 -0.74651929050191 
0.7724925432383984 -0.8288106618353221 -0.4783543497091806 -0.9209355309617367 -0.8254557207846621 -0.8460272266379502 
-0.5074291917387213 -0.01644685851050655 0.9750238074149228 -0.2027396501486834 -0.02298771815985195 -0.01265729658119993 
0.5272462565066477 -0.7480889755852657 -0.3507665064223049 -0.8358048777176209 -0.751059917785683 -0.74651929050191 
-0.4270397094527722 -0.03854562554157776 0.9204015312277296 -0.2312813923506029 -0.04094310678205984 -0.04221843748715533 
-0.02540002213427065 -0.1327819012953396 0.7740396442596589 -0.8113145356794937 -0.1491149421414844 -0.1138711648785819 
-0.02540002213427065 -0.1327819012953396 0.7740396442596589 -0.8113145356794937 -0.1491149421414844 -0.1138711648785819 
0.4943544485499997 -0.4962701991934123 -0.4898901845630206 -0.4887224581426275 -0.4893092235054293 -0.4887189367184055 
0.3682535494832653 -0.3679118811956663 -0.3687802268403909 -0.3689380095959352 -0.3688357000023224 -0.3689439596843234 
0.3682535494832653 -0.3679118811956663 -0.3687802268403909 -0.3689380095959352 -0.3688357000023224 -0.3689439596843234 
0.3682535494832653 -0.3679118811956663 -0.3687802268403909 -0.3689380095959352 -0.3688357000023224 -0.3689439596843234 
0.3682535494832653 -0.3679118811956663 -0.3687802268403909 -0.3689380095959352 -0.3688357000023224 -0.3689439596843234 
0.3302566639636106 -0.334512477754662 -0.3322932159981971 -0.3329571938317124 -0.3359882573293692 -0.3364555263935098 
0.8710433587101991 -0.8637423167720545 -0.8664054286365516 -0.868144590188344 -0.8603932217833536 -0.8626662530165292 
0.4569471423062395 -0.4507345706667009 -0.457623098868222 -0.4544253739845713 -0.4505397787833801 -0.4528136443363363 
0.3279730757640349 -0.3311423016299213 -0.3282293488514095 -0.3292097569728288 -0.3318611506645929 -0.3303084749245092 
0.4298028869874064 -0.4246368518201138 -0.430193629477265 -0.4267513187576619 -0.422800402619875 -0.4255930875844386 
0.2967411041974415 -0.3282113389655905 -0.3569878448568867 -0.3568030237838344 -0.3314539196210161 -0.3642172339651691 
0.903722259806277 -0.8193344186260423 -0.6391161627723987 -0.6585641016300705 -0.7427214760732601 -0.6407647413215014 
0.2967411041974415 -0.3282113389655905 -0.3569878448568867 -0.3568030237838344 -0.3314539196210161 -0.3642172339651691 
0.5754303556937279 -0.4867250112264959 -0.4209295596819546 -0.4174025765191869 -0.4969675257499395 -0.4249964796471318 
1.064201108542993 -1.064042166547599 -1.06401845842573 -1.064012287669404 -1.06395059770379 -1.064017251325975 
1.064201108542993 -1.064042166547599 -1.06401845842573 -1.064012287669404 -1.06395059770379 -1.064017251325975 
0.6753340590759371 -0.633562187738698 -0.5521594237961783 -0.5648814301734824 -0.5991671877143102 -0.5285490298603646 
0.2205793066006291 -0.2528466577475571 -0.1331509949357376 -0.08658715592179225 -0.1404428171551456 -0.09325096623116934 
0.1410404367367635 -0.06765821087885811 -0.04763653330262392 -0.04008797072606714 -0.06609342841261402 -0.02044697920026899 
0.2553160592304503 -0.3543604484467812 -0.06071760665825104 -0.05488543799267616 -0.2093391173729233 -0.03311407689103949 
0.07275101337902824 -0.02966651785277313 -0.04475477822841255 -0.03956158276714916 -0.02503212717481601 -0.01975029899644955 
0.07275101337902824 -0.02966651785277313 -0.04475477822841255 -0.03956158276714916 -0.02503212717481601 -0.01975029899644955 
0.394713108092792 -0.3339980276073501 -0.1180744641547943 -0.1337381098874912 -0.1903319635783544 -0.1487934386005384 
0.2121722597972728 -0.3140726926312359 -1.358129747581299 -1.074726276178772 -0.8355373819072729 -1.317558917166342 
0.1167220356782285 -0.0359829503352032 -0.008087980528893639 -0.01457409000065942 -0.06682468609049239 -0.00849858362975045 
0.343215211158283 -0.1222096189437759 -0.03939144186233688 -0.04350872974590737 -0.08879005410070395 -0.01439332615706011 
0.07257825229321435 -0.02671578954401029 -0.008398362317412537 -0.009478639390202003 -0.01913978859370881 -0.003121856553930539 
0.1428733590137072 -0.1217345918967474 -0.06678958911879988 -0.06837197876494207 -0.1223709371135202 -0.05486652372693514 
1.664113138269057 -1.429832677049117 -1.468986968087877 -1.654364954920064 -1.471846021069909 -1.432615634804361 
0 0 0 0 0 0 
0.8383371376748137 -0.7064006422438036 -0.7708687524260415 -0.6599870388460473 -0.6939904643432823 -0.6516905650968345 
0.343215211158283 -0.1222096189437759 -0.03939144186233688 -0.04350872974590737 -0.08879005410070395 -0.01439332615706011 
0.7777121568894728 -0.5526713432192021 -0.3849575521906828 -0.8594404193803887 -0.9705993816443144 -0.82063591261216 
-0.3030023135538291 0.7166201953640069 0.05375569006870783 -0.3537429868003524 -0.3568601295008266 -0.2875058586730333 
0.1677435360212369 -0.2012987587869079 -0.1472742800383831 -0.253072374837969 0.03176310705116698 -0.1065803647451552 
0.3326046457229452 -0.6392369024742167 -0.06818963068044152 -0.0705545608130342 -0.1885708282818663 -0.05163074148731038 
1.113526290361796 -0.508402433751588 -0.172650012750075 0.1596505431514871 0.05114553888359051 -0.1236147413584168 
-0.1745691984908009 -0.1114882095801333 -0.9311623679537793 -1.044429931163605 0.2402378659691211 -1.094631346265124 
-0.2408405721549884 0.5108351046750429 -0.2003625966310577 -0.04040498970992937 -0.3592519239253548 -0.4200958918329527 
0.0487187146608756 -0.04594759395694745 -0.002441771293297305 -0.003980478753665392 -0.006985751640709757 -0.0003209234421074211 
-0.1538435849874034 0.4460675730138869 -0.2025848317695192 -0.2343723190113711 0.2453128571028403 -0.2247397498156919 
-0.06950303655820886 -0.02101699517152741 -0.002426057908909963 -0.003873302153537553 -0.009295250495986614 -0.0003236893485148533 
0.4137038498457936 0.2293922647248779 -0.05288324114628327 0.09481437720567373 -0.4427942543784926 -0.04879280444139786 
-0.5956293920750068 0.2638689787056137 -0.5362306806060633 -0.1441014825781947 -0.2128856707130006 -0.6664037971402251 
-0.2648503036825718 -0.228040962258451 -0.06848438463404372 -0.08478704976257602 0.2290077832540109 -0.02901599167193814 
1.361711659491462 -0.791867921168777 -0.2256754334131069 -0.3018237911639862 -0.3393511299140575 -0.1561404527978708 
-0.5058233597286296 -0.8872060372747379 -0.5457144616692162 0.2293991853884815 0.35187450956983 -0.4890894162370024 
-0.1328895799386851 0.2375534842416024 -0.009240923110132632 -0.02791114721728873 -0.1227712514756515 -0.004784005828075337 
-0.6304623028948819 -0.5976405776129226 -0.578818487041117 0.9891645390130828 -0.5990203208352928 -0.5013395133620013 
0.008851267216694214 -0.0004082217284926432 -6.411152609211919e-07 -0.0006154342877351779 0.0183460304380163 1.512955658032156e-07 
-0.2116176974498909 -0.02480681613109323 -0.4379065689365736 -0.4543147177812958 0.269587127444291 -0.4299370715982978 
-0.2697672321641827 0.5170091860405751 -0.6591279075851559 -0.3532842379663518 0.1695350561265503 -0.5541729046291967 
-0.01573690840806283 0.04662319612573616 4.951094468654647e-06 0.0001351248913882364 0.001753886405573501 5.304955752317795e-07 
-0.5294274021770806 0.9694823575240804 -0.08736860154899639 -0.07861031542081923 -0.2148958874789131 -0.0726062110536989 
0.008729244042259646 -0.0009455795217348928 1.117335987354224e-06 9.743501836848869e-05 0.0002653097146937686 1.391864259351164e-07 
0.08882016642501608 -0.1958125336768298 -0.3082204144301483 -0.3081020008628038 -0.3230114447839242 -0.2756930505109064 
0.2966869397336476 0.1534348935256817 -0.01757749002723813 -0.01400483481831087 -0.228374879954766 -0.014610674306843 
-0.1044996903598239 -0.5124808019068287 -0.4038582232452488 -0.260995386281724 0.3086032789282199 -0.395167802564923 
0.2211093359589572 -0.2527029167311939 -0.1305975998695663 -0.1843964645937834 0.5029308756462229 -0.1020267678937483 
-0.2844103760242764 -0.3053929866200187 -0.5276413523831985 0.02325790999284413 -0.5034082557655536 -0.7823107490784367 
0.009994111998906459 -0.0008290246435401025 1.61487412002411e-06 0.0001026972417995944 0.0003435169666583765 2.509070627823281e-07 
0.009994111998906459 -0.0008290246435401025 1.61487412002411e-06 0.0001026972417995944 0.0003435169666583765 2.509070627823281e-07 
0.5207642143439478 -0.2718434688818616 -0.09247109337613339 -0.07552787511294624 -0.3576746086621596 -0.05843760653559414 
-1.332056810686168 1.405780535221342 -0.3735978073833177 -0.3878953114637547 -0.1523813271866417 -0.3211453153164012 
0.6029748424892426 -0.2021381914487129 -0.4522878254010594 -0.6247991982549601 0.1720104481608772 -0.4030375389269056 
-0.523857566001087 0.0696731306827205 -0.4329311161513082 -1.071920430161698 1.306439741730996 -0.3900042821001882 
0.6151807603449236 -0.4558051165634491 -0.110247701268332 -0.1370018359249834 -0.0972056153692676 -0.09632004057358404 
0.1067767864942344 0.004453961089547808 -0.0004655010547256501 -0.000458781675484474 -0.08663035419553956 -0.0003821420359241402 
0.008729244042259646 -0.0009455795217348928 1.117335987354224e-06 9.743501836848869e-05 0.0002653097146937686 1.391864259351164e-07 
0.4805317306938447 -0.394295597895125 -0.1953808284257412 -0.1266078199902995 -0.2469844337496804 -0.1739785050477346 
1.332027963906778 -1.216966788899912 -0.7126957479024759 -0.7555686966491546 -0.9178558993562826 -0.6469260994016021 
0.3704943308521945 -0.2464375084381706 -0.07857927306535782 -0.0457796663158339 -0.1558534255091089 -0.0721336568427158 
0.433611000635995 -0.3470193367847669 -0.3212064472912388 -0.3100553588862908 -0.390662269582234 -0.3169685705800876 
0.3704943308521945 -0.2464375084381706 -0.07857927306535782 -0.0457796663158339 -0.1558534255091089 -0.0721336568427158 
0.5752851570448136 -0.4897586262025138 -0.256339967188707 -0.225404624740491 -0.3229672056712602 -0.2506422677547762 
0.5883129842059692 -0.8895065050647306 -0.1230732393680672 -0.6198121647898028 -0.8301364273758047 -0.627307462892428 
0.5389518959513495 -0.4990447932208994 -0.04477346809992965 -0.05106911294163996 -0.06972415539942599 -0.01146600854757857 
0.04209967986305644 -0.02575204564684061 -0.03556636852743848 -0.01746480648725874 -0.01866282892864185 -0.02491446112629922 
0.3835918996859479 -0.3418219932525692 -0.3274529050088467 -0.3546602741476324 -0.3092192369973015 -0.3034208714214572 
0.5844950023155153 -0.3789563158337097 -0.4515766488106043 -0.2510090562485213 -0.5226142508257321 -0.3978081617033325 
0.5167819733421499 -0.4221532463796009 -0.414951824634048 -0.5306284457517557 -0.3673705089407263 -0.3809028474831665 
0.01325689906608251 -0.02910503362607898 -0.02389830960245336 -0.01532585471178672 -0.02007129650333181 -0.02448887350355948 
0.3835918996859479 -0.3418219932525692 -0.3274529050088467 -0.3546602741476324 -0.3092192369973015 -0.3034208714214572 
0.1325202227445101 -0.2138551896647838 -0.04590258596919271 -0.04405030873090425 -0.04358006541867471 -0.0216627784402824 
0.0704578091086986 -0.02600109093667981 -0.007986423933065177 -0.008707937607857933 -0.01792600917947539 -0.002897938736885569 
0.09825530118232086 -0.09737110780692437 -0.08283886452829238 -0.08027891422274579 -0.08519307193140457 -0.07849534020798042 
0.002728449920926821 -0.001155843112438093 -0.0004322395290312833 -0.0004048285579250643 -0.0009953189513542383 -0.0001657162712939336 
0.002728449920926821 -0.001155843112438093 -0.0004322395290312833 -0.0004048285579250643 -0.0009953189513542383 -0.0001657162712939336 
0.2716813540412341 -0.4698142640677181 -0.1899572046650398 0.1865908941753495 -0.314111915633641 -0.243354312814252 
-0.1021925052523025 0.02112567919723028 -0.5423400578547968 -0.3554461493081125 -0.7801816073322763 -0.5450225570919406 
-0.07392793759932605 0.006643494274267062 -0.04706189446002852 0.1591253069266294 0.3680704126228747 -0.01346893364794617 
-0.5910368813926414 -0.1872950985148661 -0.7411803609254526 0.2733138168408961 -0.3790837168212245 -0.6589671471156295 
0.2322665994709221 -0.1033427960732646 -0.005260819409586413 -0.03409404597280259 -0.06914193836211463 -0.003012299901296196 
0.03705223784643373 -0.01427207403092412 -0.00282773982178077 -0.0284741000733461 -0.003414707037753743 -0.001017416339773043 
-0.5649588738888538 0.489240568439605 -0.08795010899895256 -0.2259860657101845 0.4299685497912373 -0.08414784388765462 
-0.2192198973450023 0.5957139247892453 -0.0222701828996261 0.2269117346287498 -0.1488943134190938 -0.007982137201136372 
-0.000867247427988385 0.07933622519327238 4.415334594680959e-06 0.0002776605913190084 0.0004342961779234778 3.725515286061893e-07 
-0.8268745781459023 1.249115029390465 -0.1422297737243745 -0.002624330985617346 0.1356116931516043 -0.09111697928948331 
0.03115174756839002 0.2644173273231655 -0.2663189814238928 -0.2701343375395166 -0.5150029950387116 -0.2646180305353895 
-0.0680416317914103 0.2411525367277237 0.1289536627122535 -0.2572846767006426 0.06434706095184949 -0.1759858405675583 
-0.300153630480622 0.07009213592808743 -0.01328139277974047 -0.03734890770886175 0.09299844332462917 -0.01307728847149081 
0.275361501474586 -0.1029036605629762 -0.03817019938154735 -0.0401920364699787 -0.2214064327736582 -0.03645702881916914 
0.2999015269921252 -0.1306472787857966 -0.6714673505338943 -0.8727181551858554 0.05196880266125778 -0.6469070447261773 
-0.9513621454048917 -0.3222344146926973 -0.8990129059402392 1.162212909194947 -0.6437538081409973 -0.7813398904761691 
0.000990786045772222 -0.0009995288611906955 3.542777594536213e-06 2.569104878679057e-05 0.0002566639152868303 2.5910017566759e-07 
0.8192343095441195 -0.7290915120284184 -0.5275993233090371 -0.7318734481608462 -0.6787768165491589 -0.4750665205957006 
0.09528664113933329 -0.3543945022196663 -0.02673188752969236 -0.1937870937426657 0.1735536245831673 -0.01090173045662011 
0.4924242636795025 -0.5617314228229653 -0.4774441394211137 -0.4520878732081935 -0.4553811265161335 -0.4487301648883242 
0.111658562664383 -0.3398328461831985 -0.3317971168349859 -0.2205441014060362 -0.2900968889731648 -0.3383987041784509 
0.03704064990681225 -0.006947959805591324 -0.0004345541796824981 -0.03164580420328221 -0.002580689830045426 -0.0004065208861107331 
0.04926876010526528 -0.01840443233792463 -0.005016880357873886 -0.005538772539262131 -0.01144740197083704 -0.001832022707802003 
1.24682113354795 -1.323232524166243 -1.028343289894825 -1.282699435786373 -1.35673683957448 -1.31159777035159 
0.00471253123602564 -0.001428569831972806 -0.0007261787379233184 -0.0006358296962371948 -0.001241153513351777 -0.0002019706459527016 
-0.2867893496672167 0.2646527210955306 -0.05011234087229838 -0.07012483793406267 -0.1185455183918526 -0.04799850573711985 
0.3360742272136543 -0.3433817832814662 -0.3788163458593072 -0.8878978544772169 -0.5746754725862466 -0.7583016043803619 
0.01397788224076243 0.03924597809883015 -0.006304126937456729 -0.0415739097226455 -0.1217115734232544 -0.001010983829568221 
0.5522720529419336 -0.1360914551558233 -0.1109612604226109 -0.1235447432851516 -0.2596935202242459 -0.1050178693571674 
0.2718302810283425 -0.1414800014370297 -0.1754768170555928 -0.06798384645384922 -0.2049177475029036 -0.1485602953267963 
0.3424175144669407 0.02518435617003761 -0.1694878225489113 -0.170534902266835 -0.2865117443815152 -0.1657807438682691 
0.4640594198876321 -0.182654482297254 -0.006023761027960838 -0.005827585564412735 -0.05336146813911451 -0.0008660720614232018 
0.7075429743615758 -0.6407596089221954 -0.6819122353996441 -0.6835904033396717 -0.7594396513269615 -0.6778599099836204 
0.001730566282385438 -0.3281699440943338 -0.2499747519973258 0.2536853781313351 -0.4636724589872249 -0.2350388911470582 
0.1524466473357778 -0.04558070994040751 -0.02752920729501508 -0.02494325782733465 -0.08973304572115752 -0.005052790873795832 
0.1969619583138444 -0.3778118291489659 -0.04933648149624613 -0.1872859776060848 0.1401370884004932 -0.0153382673439661 
0 0 0 0 0 0 
-0.2867893496672167 0.2646527210955306 -0.05011234087229838 -0.07012483793406267 -0.1185455183918526 -0.04799850573711985 
0.2840606807223633 -0.1658301068385215 -0.03641456486528449 -0.04023556206784838 -0.2999238090323706 -0.02572165094639387 
0.504484766600539 -0.721872680683542 -0.5543603560699646 -0.6227106869489226 -0.403465965886538 -0.6263137669890486 
0.4889324346185634 -0.7026306295117161 -0.6304610702007643 -0.609186183647688 -0.3832316567513506 -0.6093296161679789 
0.05139125952673809 -0.01111090009242313 -0.006097707442541267 -0.007482219221251465 -0.0533776034249988 -0.0008695776990605463 
0.01450707353831554 -0.01165068401367878 -0.005109860859698855 -0.004295769568717844 -0.01038525047682881 -0.003797073305130743 
0.004887278919212257 -0.001437734307087219 -0.0007257803344537665 -0.000635828295296769 -0.001239255380585765 -0.0002015260929972428 
0.2744363638443063 -0.3638049166637559 -0.02968724785728324 -0.01938428632152991 -0.04345384768645021 -0.007543765435470477 
0.1471468931899923 0.08625719025500189 -0.02152331410331142 -0.01682638938807443 -0.03708085048848666 -0.004195902916896995 
-0.7050618565257923 -0.2880225866158174 -0.1013843002391923 -0.3913653016461185 0.7323869069964011 -0.09998052247010532 
0.107911189354036 -0.02779200031603295 -0.02161221821853788 -0.01869712452723414 -0.1363846496912176 -0.004259839063544804 
-0.7710908133161152 0.5704171968638041 -0.3337133014508761 0.09806256397051859 -0.2801394709523781 -0.3275356508706527 
-0.2704865907485365 0.4217735022895109 -0.2233243766748155 -0.1076905316838522 -0.2229462974598299 -0.2085475987441521 
0 0 0 0 0 0 
-0.1533038035295339 0.1654674128766242 -0.0009970523048147934 -0.00963946304784642 -0.0009219829830694011 -0.0005860193481164686 
-0.02927258470934444 0.08417821032706241 4.385028077872051e-06 3.00605183680349e-05 0.0007792092971511929 4.702517254485798e-07 
-0.3570597638960612 -0.1634322872298642 -0.2923478968298626 0.4967100927776507 -0.04710500334455117 -0.2783099616704613 
0.03552558527337853 -0.0734474004256321 -0.004330119442665461 -0.005331027043349001 -0.005066094950038824 -0.0006129451670784665 
0 0 0 0 0 0 
1.186395771527084 -0.7960968564406978 -1.113877221957874 -0.709417614383776 -0.325097617777264 -0.5695569852568324 
-0.299676161612782 -0.2716464553468502 -0.2067036917585176 -0.3908454771279947 0.2107829905452672 -0.274293871283679 
0.1010553878090397 -0.03446980984798438 -0.02143149985247381 -0.01746103860608318 -0.03635544229615872 -0.004183213174735286 
0.1560104144385331 -0.1592550607686133 -0.1665404106915852 -0.1498153779633773 -0.1525346198133186 -0.1554855258568114 
0 0 0 0 0 0 
1.129103014003401 -0.9374990119045622 -0.9961753860454722 -0.9154483645005618 -1.022700722084358 -0.9004777310140407 
0.04629012754777666 0.1912241958761942 -0.2982591998350828 -0.3167719343147347 -0.4607622188255021 -0.2561768727929251 
-0.09809419930877898 -0.0940008725743087 -0.03984029882779985 -0.08268936426357257 0.3127269877897421 -0.03187544508493355 
0.003232210911576198 -0.001657942348802953 1.285442722983222e-06 6.908361579865052e-05 4.039209994297218e-05 1.680471031520765e-07 
0.02006312124802166 -0.02174809593028833 -2.074791845585741e-05 8.165200834399551e-05 -0.0001517775247922249 -6.912284235146532e-06 
-0.6046319157498241 0.5389645748224658 -0.5943339177731843 -0.3922249406204827 0.1379686364032543 -0.4831647668029415 
-0.5185412666766269 0.782439838811145 -0.05179128996067762 -0.09088506230048761 -0.003558887076204983 -0.03830935231031649 
0.0567005152280877 -0.2502264939032883 -0.007358587079019831 -0.01113510076172068 0.2010701917364082 -0.004716399277304225 
0.003232210911576198 -0.001657942348802953 1.285442722983222e-06 6.908361579865052e-05 4.039209994297218e-05 1.680471031520765e-07 
-0.3777351610851946 0.2008618817922445 -0.0334756593413142 0.1856952007996872 -0.01470539792661947 -0.02091621788561207 
0.1055228180223746 -0.09344386942895658 -0.04362728844777263 -0.08597312531197092 0.7069856839073043 -0.02108002585994467 
0.03048845958197331 0.6944200860005421 -0.002275535790558607 0.07924322545702213 -0.1048162890564797 -0.00081679983480272 
-0.1419996075692411 0.6714347383413184 -0.06464427669772069 -0.005072531944453017 -0.1169971123551375 -0.08243558122247863 
-0.274089498452076 0.3843048681927688 -0.0004432915861536622 0.0002115716010677908 -0.06664224440155973 -7.152896477160677e-05 
0.4133515778144534 -0.5117483183900514 -0.2847219225144532 -0.2673711271069554 -0.3341433786221192 -0.2941915524224306 
-0.1665090635730431 0.1691170850141254 1.160299983449443e-05 0.0001162925742086767 0.001095783279895969 1.18164828759742e-06 
0.005254231237674384 -0.02373288226011892 1.351059734707499e-05 0.0002133566592849435 -0.0009089128641445506 6.08012240500468e-07 
0.003232210911576198 -0.001657942348802953 1.285442722983222e-06 6.908361579865052e-05 4.039209994297218e-05 1.680471031520765e-07 
0.7848807961799762 -0.6648485379569675 -0.7265653798865408 -0.6035590778197462 -0.8180126173606712 -0.6249913993012792 
0.03721405992944025 -0.002423461705516765 -0.008949491264315775 -0.02976795688473675 -0.06586497995715825 -0.005010204276132173 
0.03846012330375342 -0.01328915411535205 -0.005222732900049523 -0.005741832966320188 -0.01173758024290628 -0.001902562955282589 
0.003007579046398463 -0.001279136628289915 -0.0004688630249848618 -0.0004398126587541189 -0.001092565880017023 -0.0001791423121654206 
0.08959306771484868 -0.1099835842343186 -0.04243565415286452 -0.0319422030467204 -0.02965581118354014 -0.02059044171676523 
0.6980643028561496 -0.482505654830409 -0.5548314372086293 -0.6273927023591661 -0.5994565101956352 -0.5323584324253358 
0.01897744471720744 -0.02208292957945114 -0.04241642490872293 -0.03178482935362066 -0.02825303400324897 -0.02058814223112858 
-0.05838984355928541 0.1812886384505768 -0.17668966507947 -0.201965790499552 -0.2528002138519937 -0.1434047112874972 
0.4360574736345631 -0.3144078955990594 -0.2646628423513551 -0.2756760488070981 -0.4687837233509692 -0.2382579642939854 
-0.3980045393008516 -0.3059686897127734 -0.1381445517987284 0.1821696491944014 0.4440374208410422 -0.07152622724075754 
0.08959306771484868 -0.1099835842343186 -0.04243565415286452 -0.0319422030467204 -0.02965581118354014 -0.02059044171676523 
-0.2938459799845314 0.3176407047650753 -0.02884808428852329 0.2598997971038329 -0.07050242360842401 -0.03173917931813759 
0.2410154332753339 0.02754657442862985 -0.1296333501665792 0.02757229178847843 -0.08393170128109285 -0.125613519781413 
-0.4136652098984305 0.1500776692794152 -0.03300441853994373 -0.3503203706521831 0.3935901242594164 -0.02659834055908252 
-0.1309940371941812 0.1061463532935248 -0.2619484841405866 -0.2434219212074557 -0.07047456382777596 -0.24616250947205 
0.8429275369899283 -0.848655076546648 -0.8536856072080621 -0.8506205959188292 -0.8525708274171739 -0.8512766800173112 
-0.2453781746059048 -0.07772369196876518 -0.08378232143566522 0.239147601595085 0.05570722830903403 -0.06532486115913601 
0.310435399100481 -0.3799498588603547 -0.2041477166142624 -0.2275257811295148 -0.2118065776091796 -0.2035841043226214 
-0.0004629637699793791 -2.672583729339143e-05 -2.953281354732878e-08 1.03877983069635e-05 7.779069666386657e-05 -1.245377486209433e-07 
-0.01073763449137279 0.01450853246909595 -0.0002549019939048728 -6.853260113604291e-05 -0.0009027099456233936 -0.0001352133239649731 
-0.0004629637699793791 -2.672583729339143e-05 -2.953281354732878e-08 1.03877983069635e-05 7.779069666386657e-05 -1.245377486209433e-07 
-0.0004629637699793791 -2.672583729339143e-05 -2.953281354732878e-08 1.03877983069635e-05 7.779069666386657e-05 -1.245377486209433e-07 
0.08959306771484868 -0.1099835842343186 -0.04243565415286452 -0.0319422030467204 -0.02965581118354014 -0.02059044171676523 
0.08959306771484868 -0.1099835842343186 -0.04243565415286452 -0.0319422030467204 -0.02965581118354014 -0.02059044171676523 
0.1676699316430697 -0.1600466012439777 -0.1227758958512644 -0.1173782084317724 -0.1619223816978472 -0.115724112241156 
0.00253394405515594 -0.001085137650824208 -0.0004153953157234455 -0.0003907319824471519 -0.0009224664224985888 -0.0001596586203351487 
0.1753610082127215 -0.09785875866326482 -0.01396216912905917 -0.03125106351417296 -0.01699432570427482 -0.005514962122231035 
0.1771760807752526 -0.223517274932934 -0.01800433874046308 -0.005774602305885125 -0.0179469686747177 -0.009060372316439726 
-0.1178198391289365 0.02799734097802321 -0.001067635041335067 -0.001295692558894957 -0.05167849521200079 -0.0009736714192041585 
0.0233522231374363 0.07677437382415032 -0.2670893423245679 -0.6609504035789093 0.08829289408325208 -0.2192728802345415 
0.2766505744281544 -0.3616736317404343 -0.00309365684048744 -0.003366396690677185 -0.004443655122542365 -0.003149296046953097 
0.2821818022528514 -0.2160902104310658 -0.3420983385481824 -0.3200730200439562 -0.898252638381819 -0.4003039308708449 
0.1259213563006069 0.2358317745023196 -0.5689553550219145 -0.6096309944493266 -0.7944636780117207 -0.5677074827326732 
-0.05796549366124049 -0.3233858371012968 -0.2327403581651979 0.2352416546251909 -0.474334173050716 -0.2153300757526563 
0.2319405563922979 -0.2214390650572413 -0.1884435873863852 -0.1289510396217291 -0.150192002667633 -0.1285749306401431 
0.004296376593537523 -0.0154062669962779 -3.437911688141201e-06 4.546682039105042e-05 0.0001339868662391371 -9.884038460489333e-06 
0.1295636449269064 -0.254946361450175 -0.000883166524566667 -0.000390014455154251 -0.001081771673878298 -0.000894638032504051 
0.4427152563490619 -0.7297383005729725 -0.1534058135314405 -0.7055081451750027 -0.4257440448518579 -0.7105884144659066 
0.5099912729705295 -0.614681691658064 -0.7816069457959715 -0.4115529690551128 -0.7527261979374092 -0.6242138116538817 
0.009481870648625847 -0.002928384366519019 -0.001265600873869324 -0.001251211946153743 -0.002505589995256134 -0.0004007529772800019 
0.004922994391155198 -0.001452318136291071 -0.0007288922717314358 -0.0006383642232104537 -0.001251700158517944 -0.0002022582387690704 
0.1521129984613165 -0.1155821860817776 -0.3318014089200958 -0.3284914860582294 -0.4584093259447627 -0.3185835991866622 
0.7528457061024529 -0.2388300841042756 -0.6956102683832165 -0.780431423189753 -0.9601387196169758 -0.6871187596854696 
-0.05144775237076574 -0.07522583694864725 -0.006928132456341623 -0.005667968306169022 -0.01455252304521689 -0.005084180286329893 
0.5667299891290905 -0.5945736256928204 -0.5063752258772053 -0.5037597416624062 -0.5586708645442323 -0.5089711140601361 
0.1197186120221107 0.0318826805032312 -0.2730507398328407 -0.2894378455641357 0.2873709575702278 -0.2149611590345112 
0.9486042404338666 -0.5283874261375616 -1.223680729360186 -1.33556972516915 -1.308138556923246 -1.207385505055121 
0.2425625987672089 -0.1619273718572898 -0.004147717664169902 -0.002640299805556514 -0.006782511294250287 -0.002075307927592931 
0.1613455842579261 -0.2295170127712051 -0.1833860200713614 -0.1700068731849951 -0.2826014441430066 -0.1672080938424922 
0.4650053014380406 -0.5316776599304225 -0.06337090839115396 -0.05736196225671232 -0.2028263248296741 -0.05245463315594739 
0.1044952984700117 -1.428632687406752 -0.8714593027995404 -0.1855858914225341 -0.6370970036350756 -1.439204755812021 
-0.1721196201131472 -1.252985649654962 -1.400570740072678 0.221717520371547 -1.13363298855495 -1.138927774153559 
0.009264171502276212 -0.003095446485613578 -0.001328762319420789 -0.001172874960187784 -0.002562034526366922 -0.0004505706182358913 
0.003296321136785563 -0.001316628145354795 -0.0004727998474646831 -0.0004433724400701812 -0.001110619670305692 -0.0001796932199198984 
0.003296321136785563 -0.001316628145354795 -0.0004727998474646831 -0.0004433724400701812 -0.001110619670305692 -0.0001796932199198984 
0.7946163525650866 -0.7797539775174469 -0.06259362533400231 -0.06382188380727619 -0.2514152426076872 -0.0452079293825829 
-0.5065799408456796 0.7655181298767472 -0.17520075563729 -0.1884845866959693 -0.3001555643224587 -0.1473686539742085 
0.8727543628004742 -0.5299188943271966 -0.4806738207802191 -0.4934816328018956 -0.5257819327670131 -0.4551513678858618 
0.3209306762609966 -0.3612465721556498 -0.03957248436115943 -0.0323643023037454 -0.1072890526213295 -0.0308588236709317 
0.2670746351207475 -0.1689592329660946 -0.03949217115267129 -0.03236746377409998 -0.09436669687300775 -0.03084303259958195 
0.005337711558711106 -0.05040972120599312 -0.04242366507509058 -0.03546952528228321 -0.09320991771542553 -0.03400079208240131 
0.2473454282611108 -0.3270461745558488 -0.03954318270715564 -0.0325951346254491 -0.08226873786493735 -0.03084510602247594 
0.2473454282611108 -0.3270461745558488 -0.03954318270715564 -0.0325951346254491 -0.08226873786493735 -0.03084510602247594 
0.1263361759352645 -0.09778913071712295 -0.1051555165273597 -0.06948159819929661 -0.0659287260306898 -0.06743277178191841 
0.002640597670664494 -0.001157889695282091 -0.0004231065362089239 -0.0004111254670121502 -0.001020983673876064 -0.0001676015247463359 
0.4119935329518757 -0.4731194735541056 -0.3447929400060472 -0.3519156870527511 -0.3447542354968577 -0.3436810811907806 
0.06737511146859806 -0.1551866935340315 -0.003423555369890679 -0.001554809383652756 -0.003999224121073831 -0.001475780649112569 
0.245028021502144 -0.3641671964162717 -0.003431707733888103 -0.00143501069231415 -0.002903184574033095 -0.00148180889246326 
0.3079687515078748 -0.1090517208284259 -0.04684271279928902 -0.04354165520419377 -0.1700963626635249 -0.01891439535118281 
0.7382955561952997 -0.4870235707270446 -0.553165938771543 -0.5924730501377836 -0.6186384793603513 -0.559227898241893 
0.04539880162416768 -0.1330260986898112 -0.005804897519516736 -0.008273344151753676 -0.01205857276044683 -0.002824577412378377 
0.01160413832252777 0.02136880359511613 -0.01170420028535014 -0.01382195327419407 -0.144159435401565 -0.006016851057812312 
-0.51214693198965 0.3951602576874587 -0.01007408562500661 -0.01778321470989177 0.4660603812229599 -0.006527389300364138 
0.4426174039339132 -0.1292488911195537 -0.2442101089874845 -0.170876433385957 -0.4893167559261242 -0.1967223475254942 
-0.4917912232645513 0.3599541558132256 -0.002332399515047362 -0.002606929290001194 -0.037891692650739 -0.001790785767475876 
-0.2328486382709601 0.2317327611797243 -4.810755489018788e-05 -1.950007195472255e-05 0.0002858460623743468 -2.080348682988198e-05 
0.2442004064494388 -0.3052013078724229 -0.1761850605528092 -0.1860738065436141 -0.1784599545061891 -0.1744857173638122 
0.06737511146859806 -0.1551866935340315 -0.003423555369890679 -0.001554809383652756 -0.003999224121073831 -0.001475780649112569 
0.06364546370752726 -0.1349601699679187 -0.003377381968158947 -0.00152472889729181 -0.004176427674927943 -0.001455222965021048 
0.2750636751159273 -0.3713758457230026 -0.0752818292206739 -0.0446994180375856 -0.1086733156379609 -0.0540087723771096 
-0.1040876858555226 0.1659052149920467 -0.02482278278105363 -0.01842996126791323 -0.2009700453761789 -0.0138158544099627 
0.1170218981986085 -0.1657123195410261 -0.677128378457988 -0.5439015957059109 -0.02894409252874237 -0.6369810953628087 
-0.04204967516933823 0.2689300951587588 -0.110459627202729 -0.1238127097746353 -0.2865079939368279 -0.1071801054999396 
0.1864080394820372 -0.05766953880848685 -0.002994611046068468 -0.0008505562801558739 -0.09422842934727728 -0.0007459956092884869 
-0.2268858588466448 0.6277335080754601 -0.2613728637181135 -0.273979359028669 -0.3710484227328325 -0.1962257127203883 
0.1811902572895654 -0.2162722993920284 -0.09273719138813409 -0.06885887268235309 -0.06359586684127787 -0.08874564999407716 
0.01148235177747116 -0.7093388213791649 -0.9278258581126224 -0.9239029535685241 0.1409293772526018 -0.9178353860433658 
0.044337141632903 -0.02774483503418846 -0.003827692716408663 -0.001162856748971356 -0.04531263873512597 -0.001198487216184999 
0.3661360859522658 -0.7679152534217639 -0.729632914491973 -0.7252133303760596 -0.1545405951044538 -0.9994588844338291 
-0.2339882067285803 0.6704500992735342 0.4751102407722023 0.3539831122002326 -0.2606384644530965 -0.00346283834727939 
0.2088039446396368 0.0425591296355524 0.05808422231446972 -0.3740055887832588 -0.4002247571367554 -0.1897008938759463 
-0.05794199653910696 -0.1058509582780154 -0.2721316481509355 -0.1427648262813739 0.02501759038925609 -0.2683435220752833 
0.06828942335773522 -0.03799169302608498 -0.002881755074211364 -0.0005263879589179759 -0.041061301237798 -0.0006966802038194343 
-0.8677340003370551 0.6025585193927856 0.06316886346481973 -0.4932743828571769 0.1552649582457111 -0.3850926096713125 
0.2703094251516829 -0.3619282893675933 -0.07478706487011304 -0.04439793525649995 -0.1078318699994937 -0.05371823094469853 
0.06828942335773522 -0.03799169302608498 -0.002881755074211364 -0.0005263879589179759 -0.041061301237798 -0.0006966802038194343 
-0.8816123496357978 -0.2208769369935595 -0.3284222004261583 0.9670518163957433 1.100570787031771 -0.1515799769940941 
0.3167076343705896 -0.1136415377401406 -0.1644022897023001 -0.3105818465356874 -0.1669544744330772 -0.1059520969782377 
0.3167076343705896 -0.1136415377401406 -0.1644022897023001 -0.3105818465356874 -0.1669544744330772 -0.1059520969782377 
1.69800699139785 -1.461860691022485 -1.428249949082877 -1.579538687391781 -1.484026633117832 -1.386029417366311 
0.3454512326144655 -0.4024034952478482 -0.4113176987236467 -0.3728556779232257 -0.3968987306278284 -0.4224615645176473 
0.7403634494029049 -0.7414619602127698 -0.7408018006571345 -0.7406709010481548 -0.7411873373840882 -0.7407709612626477 
0.7403634494029049 -0.7414619602127698 -0.7408018006571345 -0.7406709010481548 -0.7411873373840882 -0.7407709612626477 
0.5706660732211781 0.006965203933360288 -0.2253617912095364 -0.2580974700632619 -0.2575143757187407 -0.2456585300177086 
0.3114601880537616 -0.2766027984230978 -0.2363454998403287 -0.1956914849174856 -0.2889355002494126 -0.181966673006911 
0.3136556255561228 -0.2768756578711246 -0.236252783665392 -0.1956864460004865 -0.2892957777665462 -0.1819299215862907 
0.1721500966068509 -0.15929161012299 -0.1071292842810828 -0.09678585802458482 -0.09276607105717083 -0.1009422765441706 
0.4617108374359684 -0.4701432688365285 -0.4767280408109781 -0.4837596295179145 -0.4647516359357103 -0.4826260167993163 
0.7296774419195647 -0.7458229881557875 -0.759123807336761 -0.7733992275286133 -0.7351702738218637 -0.7711136107720671 
0.4617108374359684 -0.4701432688365285 -0.4767280408109781 -0.4837596295179145 -0.4647516359357103 -0.4826260167993163 
0.700013522520432 -0.7153545102077854 -0.626075719857203 -0.6353768372412056 -0.6297317633931956 -0.6283232617923897 
0.09849235154723598 0.01261920730221626 -0.3087421715731163 -0.3111011212214869 -0.3248013496121628 -0.3136246534606104 
0.2515039880340693 -0.3117428198363184 -0.3087494424498047 -0.3066506988896108 -0.3014252370228698 -0.313624418304426 
0.6491672741841342 -0.6830899593674636 -0.5963005628008714 -0.6175453601931006 -0.6124785768610985 -0.6062994673067499 
0.3550248126036771 -0.4827520412977697 -0.3997528351393622 -0.3609843619393237 -0.3569294548053867 -0.3871590184447352 
-0.06266000936192599 0.1328660091890521 -0.5710676811152671 -0.589815500312908 -0.6660984712482426 -0.5726386981694033 
0.05399288668667292 0.01387384627358499 -0.001183574321125335 -0.0004925464828619518 -0.04184593580632146 -0.0008342908577685498 
0.136001501087737 -0.03772282797760677 -0.0007375436938147303 -0.000524616441621612 -0.0125174925559025 -0.0005843051001252638 
0.07256050501565557 -0.01608546555252657 -0.0007087518101141112 -0.0003125840156813068 -0.0128109609935988 -0.0005733648634495321 
-0.1470863819703714 0.1641710724472483 -0.02439500635692005 -0.04612595780041773 -0.05978430439154504 -0.02197039227108935 
1.220411855059272 -1.013060237364944 -0.7456082391672415 -0.7748912317264282 -1.187132801875192 -0.7889214039762633 
0.6601319221465753 -0.6942699558593701 -0.588688392713014 -0.6504437996784699 -0.5645339841943104 -0.5758814406061314 
1.123621518128047 -0.9546328806937259 -0.7357235102508148 -0.7650793664683513 -1.106021248151708 -0.7750355230427705 
0.3479555623996743 -0.5416778042873063 -0.1413801898484748 -0.213611979665725 -0.1597854650215511 -0.1418076503562401 
0.4618877688755209 -0.4929058603268285 -0.3439903023311994 -0.3366873365430726 -0.3327212607533033 -0.3439031517344941 
0.2468390328151876 -0.4336629409387231 -0.3460847462387011 -0.3428500583742369 -0.1139455370260613 -0.3447429589492563 
-0.05629827450215546 0.4422647645360525 -0.6412718616384631 -0.696686856190637 -0.957284731846491 -0.643445819194858 
0.4618877688755209 -0.4929058603268285 -0.3439903023311994 -0.3366873365430726 -0.3327212607533033 -0.3439031517344941 
0.4618877688755209 -0.4929058603268285 -0.3439903023311994 -0.3366873365430726 -0.3327212607533033 -0.3439031517344941 
0.4618877688755209 -0.4929058603268285 -0.3439903023311994 -0.3366873365430726 -0.3327212607533033 -0.3439031517344941 
1.14551440909601 -1.07790942059706 -1.056293215475796 -1.05797906700648 -1.063616068729696 -1.022135601869764 
0.1300185595459517 0.1408264783929666 -0.24505482935386 -0.3612901357067972 -0.3665272294002211 -0.1659337601349218 
0.6137912997183794 -0.5667717194611762 -0.8335298690845357 -0.8375785736490966 -0.8737488140233811 -0.8330582947265034 
0.02235831415772404 -0.01586573232952345 -0.003301778038115069 -0.009894999014334582 -0.0155603116537366 -0.002038881883194757 
-0.01694435181251251 0.113156956265631 -0.003292876813375913 -0.009748731525704513 -0.02598130389679127 -0.002038296980383569 
-0.01749496692235586 0.04403271432630455 -0.003284497592153159 -0.00964995130497897 -0.01856200693060517 -0.002036860119466599 
0.01257226907150114 0.008722561409546553 -0.003298297254574002 -0.009873726972883535 -0.01489298749622613 -0.0020385717494886 
0.06681196006176882 -0.09092875059153319 -0.01146359077684963 -0.02158905149664724 -0.08312812179283498 -0.01206149388853003 
-0.02812302132655933 0.03242366650581227 -0.003263693696451856 -0.009740102946556044 -0.1142788856769456 -0.002037862661971959 
0.02235831415772404 -0.01586573232952345 -0.003301778038115069 -0.009894999014334582 -0.0155603116537366 -0.002038881883194757 
0.7106411637300734 -0.6954515827525208 -0.6954063718598598 -0.6676780342129207 -0.6797553813273752 -0.6746683319368478 
0.8713267058573421 -0.9886703903321959 -0.7058307763087029 -0.6875780378723887 -0.678745836707057 -0.7473895469519085 
0.3249186071430266 -0.3103402611362001 -0.3941473384362111 -0.3727561252626069 -0.3407464981253781 -0.3804021558225558 
0.170648657049583 -0.2173302474495328 -0.3096202275840686 -0.2940447244180581 -0.1825529304126209 -0.2978810681755665 
0.4256012242251309 -0.4252219487197596 -0.4115534627515132 -0.4168963047658327 -0.4126934780617122 -0.4148793941020693 
0.4263449334674092 -0.4281893306183993 -0.5193469065256272 -0.4835248733488207 -0.5112770303677319 -0.4970384580277136 
0.4256012242251309 -0.4252219487197596 -0.4115534627515132 -0.4168963047658327 -0.4126934780617122 -0.4148793941020693 
0.4256012242251309 -0.4252219487197596 -0.4115534627515132 -0.4168963047658327 -0.4126934780617122 -0.4148793941020693 
0.4256012242251309 -0.4252219487197596 -0.4115534627515132 -0.4168963047658327 -0.4126934780617122 -0.4148793941020693 
0.3109436582065974 -0.5230010659386521 -0.03604376756589477 -0.4384596663359484 -0.5107715064934012 -0.3071575772747936 
0.1778392470340171 -0.1359615527483186 -0.1074348414753021 -0.06569753373221691 -0.08048217508308812 -0.08205446487597669 
0.1793922846687752 -0.1368299536371169 -0.107446673240055 -0.06591426282171231 -0.08066182162023151 -0.08205591485122174 
0.1793922846687752 -0.1368299536371169 -0.107446673240055 -0.06591426282171231 -0.08066182162023151 -0.08205591485122174 
0.1793922846687752 -0.1368299536371169 -0.107446673240055 -0.06591426282171231 -0.08066182162023151 -0.08205591485122174 
0.1793922846687752 -0.1368299536371169 -0.107446673240055 -0.06591426282171231 -0.08066182162023151 -0.08205591485122174 
0.3023446231811007 -0.5156439879267865 -0.02501971764403608 -0.4308974287207938 -0.5046117922966089 -0.2960155031527248 
0.1793922846687752 -0.1368299536371169 -0.107446673240055 -0.06591426282171231 -0.08066182162023151 -0.08205591485122174 
0.103346483006064 -0.1030766866844915 -0.1116230028573327 -0.1102251320935838 -0.1057155649497775 -0.1139546459972376 
0.6784997642130389 -0.7180452742861282 -0.7571213088869017 -0.7792556810341373 -0.6637564684389066 -0.7297705961496092 
1.011190819252368 -0.9705319513234858 -0.9132068181204305 -0.9255244710876539 -1.06762871524887 -0.92099138365302 
0.103346483006064 -0.1030766866844915 -0.1116230028573327 -0.1102251320935838 -0.1057155649497775 -0.1139546459972376 
0.2568997043236275 -0.2682143900077367 -0.180712354352892 -0.1625136901402278 -0.1892045230696017 -0.1722921732926715 
0.2040063211639563 -0.270212043305386 -0.2681059082246294 -0.276975352278527 -0.1890482050127547 -0.2660695496714053 
0.9995746343498254 -0.9938277158511074 -0.9751051646209038 -0.9712706642215841 -1.006683938130206 -0.9728497633303874 
0.2040063211639563 -0.270212043305386 -0.2681059082246294 -0.276975352278527 -0.1890482050127547 -0.2660695496714053 
0.01565874288958752 -0.01297538021730768 -0.01469711455027265 -0.01211512938011169 -0.01385436397753744 -0.01193753032540942 
0.1497012352245238 -0.2714303707508025 -0.228826671353571 -0.1618599049731153 -0.1409618238673704 -0.2374698860407419 
1.896259447659296 -2.1491619197831 -2.120091235563676 -1.919743762572547 -2.164071220751205 -2.14027097774597 
0.7483365892985614 -0.6300511493088079 -0.7814903559458162 -0.6545462433408823 -0.622790537786279 -0.6387160119087597 
0.2069818819832619 -0.1935886581576185 -0.1592094129761123 -0.2117218552369198 -0.2227533496705256 -0.1985302617278285 
0.7428151852635041 -0.6737262072708182 -0.6723548648224413 -0.7468911998677031 -0.66146926038337 -0.6691052270031544 
0.6449910345848812 -0.6236109699686881 -0.7772378560420595 -0.625219240637057 -0.5866686686001699 -0.6206018362173604 
0.4862870626157393 -0.4676633710839225 -0.6464332428009036 -0.467773350052279 -0.4269584799294988 -0.4709525520564533 
0.57190091593416 -0.9719803977195065 -0.982459395479841 -0.9196329534155095 -0.6183323324074098 -0.9773501031031165 
0.5565049024929971 -0.5914930354649057 -0.6405299069860003 -0.6352764510846836 -0.6976220735074009 -0.6498650455510054 
0.6852051623775696 -0.6248828740240168 -0.626653738640228 -0.599514754374165 -0.6213334361141393 -0.6028139791965648 
0.920230642029045 -0.7561887804222801 -0.7509333094624253 -0.7755982120696705 -0.9000933636172559 -0.7528953745835957 
-0.3057405807592861 0.2885765352123014 -0.02407686549989032 -0.03055425994946995 -0.07486368392533757 -0.02084794192400363 
0.02784645541254464 -0.04202211021895729 -0.01360405311762209 -0.01407929529364269 -0.007683220186383762 -0.01331065037749522 
0.02784645541254464 -0.04202211021895729 -0.01360405311762209 -0.01407929529364269 -0.007683220186383762 -0.01331065037749522 
-0.1817937758388977 0.1379610217302591 -0.01369955360666669 -0.01434012215990845 -0.01322753559478495 -0.0133433276778905 
0.08115066191417362 -0.1200048780345266 -0.1179905751382392 -0.1004036215938222 -0.1069981330903081 -0.133737122070225 
0.08115066191417362 -0.1200048780345266 -0.1179905751382392 -0.1004036215938222 -0.1069981330903081 -0.133737122070225 
0.6458870041357522 -0.6464674363667012 -0.6462762313291889 -0.646239027046877 -0.6463994571862665 -0.6462689954265409 
0.6458870041357522 -0.6464674363667012 -0.6462762313291889 -0.646239027046877 -0.6463994571862665 -0.6462689954265409 
-0.4710207680354841 0.007040750121671531 -0.3195090821097429 -0.2031038683294586 0.5657304973819561 -0.2996623846590344 
-0.245263994650024 0.4709810343906382 -1.268556334523677 -0.8580298794630831 -0.1193075790174194 -1.214003923592285 
-0.8060598518244764 0.9985733931547305 -0.2008752596168883 0.0791903714557167 -0.2898234561188565 -0.166884752198168 
0.4971469219833029 -0.374484685024834 -0.02234688035185691 -0.08482408069366164 -0.1656523437965214 -0.01803831622164632 
0.5109641658858287 -0.4018695810763308 -0.02167753094424509 -0.08363803576079161 -0.1606465040094146 -0.01775988856612923 
0.7372758802232094 -0.8138829603213751 -0.2957544164457329 -0.391127470784235 -0.4455730621986805 -0.2836781110142991 
1.076783549020959 -1.097163418273903 -0.9342608977409027 -1.177311011221573 -1.407491351896465 -0.9511777739340688 
1.023039785001549 -1.045896547243038 -0.967583565828156 -0.9587824095741516 -0.9710634994341043 -0.9689346910589391 
0.09838075492006894 -0.08920485483850164 -0.07643585980089267 -0.0765521140960287 -0.08404549363624987 -0.07585561295709187 
1.879655562419968 -1.789048137197166 -1.977214350175804 -2.005344473120486 -2.004427135917767 -1.956507158982511 
0.06799534089342679 -0.0711649052202335 -0.06899012861262906 -0.06890604088396265 -0.06759279598251772 -0.07086121839499916 
0.1250849434513745 -0.1299218554687771 -0.1037180089046366 -0.0984723660185339 -0.1068059398630458 -0.09350804861821504 
0.7952594818830009 -0.8155719900002633 -0.7794314498201973 -0.7659226483273476 -0.7634918470495746 -0.7788970917825165 
0.06799534089342679 -0.0711649052202335 -0.06899012861262906 -0.06890604088396265 -0.06759279598251772 -0.07086121839499916 
0.2366533573395512 -0.1778790782402042 -0.07429526973380869 -0.06914991673762577 -0.2263381961144276 -0.09059702407560587 
1.227325871220545 -1.220353806834064 -1.092709900816485 -1.083672787391227 -1.189953296030344 -1.095888135927336 
0.2366533573395512 -0.1778790782402042 -0.07429526973380869 -0.06914991673762577 -0.2263381961144276 -0.09059702407560587 
-0.02378430955178809 0.08178865366718457 -0.07427628291657003 -0.06903238837134447 -0.2366532304883098 -0.09060151778529799 
0.2366533573395512 -0.1778790782402042 -0.07429526973380869 -0.06914991673762577 -0.2263381961144276 -0.09059702407560587 
0.2366533573395512 -0.1778790782402042 -0.07429526973380869 -0.06914991673762577 -0.2263381961144276 -0.09059702407560587 
0.2366533573395512 -0.1778790782402042 -0.07429526973380869 -0.06914991673762577 -0.2263381961144276 -0.09059702407560587 
0.2366533573395512 -0.1778790782402042 -0.07429526973380869 -0.06914991673762577 -0.2263381961144276 -0.09059702407560587 
0.2366533573395512 -0.1778790782402042 -0.07429526973380869 -0.06914991673762577 -0.2263381961144276 -0.09059702407560587 
0.4421142259387227 -0.3962447126099435 -0.3099692084444811 -0.2975745732079872 -0.4418504815518259 -0.3185821331283934 
0.06704752517133168 -0.06982338378391505 -0.06726192039916139 -0.06715143460085646 -0.06649972345358889 -0.06885202925547355 
0.3375284112382474 -0.3450744866082339 -0.3381658207613576 -0.3386334939092885 -0.3342725063408826 -0.3413956808116765 
0.09427970191859143 -0.0957826408866273 -0.08221947314309021 -0.0797379798108884 -0.08402449216120242 -0.07825426823893754 
0.009113369517554114 -0.01159866853536892 -0.01415813605131474 -0.01630960661881979 -0.01293026044500574 -0.01461923420376446 
0.9473223374176855 -0.8954018025707828 -0.783502733708648 -0.7966437711630464 -0.9116696604231909 -0.7818528330981526 
0.3512276642635277 -0.03020253112713114 -0.01419941165254737 -0.01627572380656997 -0.3585082944806263 -0.01462339251641994 
0.009113369517554114 -0.01159866853536892 -0.01415813605131474 -0.01630960661881979 -0.01293026044500574 -0.01461923420376446 
-0.25074632392826 -0.1158359105020255 -0.08454649137114864 0.06982761956425423 0.302531144122696 -0.08010264098762497 
0.009113369517554114 -0.01159866853536892 -0.01415813605131474 -0.01630960661881979 -0.01293026044500574 -0.01461923420376446 
0.009113369517554114 -0.01159866853536892 -0.01415813605131474 -0.01630960661881979 -0.01293026044500574 -0.01461923420376446 
0.1016094483446269 -0.1047499483411637 -0.08564632567629979 -0.08282653205135612 -0.09241239091743922 -0.0817651304911482 
0.06699391992045463 -0.06958904914435246 -0.0672355672232967 -0.06709541500005743 -0.06616215159727011 -0.06873066698098612 
0.08928328191845056 -0.09106797959871138 -0.07987954800571416 -0.07797748509364544 -0.08087566289848423 -0.07689954259946957 
0.4949456743932256 -0.6175961574107744 -0.5400784578952252 -0.3143279370105854 -0.6123415342216775 -0.5370013246265961 
0.005091599180021225 -0.005850517228713165 -0.0004893689748477469 -0.0006388812061642168 -0.001435712635766612 -0.0004837057440936689 
-0.4398393304324207 0.4673343681849095 -0.03495328565616419 -0.04504686408271127 -0.08636094001774283 -0.02937373630079505 
0.2011527065017561 -0.192590996021871 -0.1496734975248039 -0.1456724514155976 -0.1905161762307671 -0.1461419454992914 
0.04402762521436554 -0.1758318656981861 -0.1516436993094413 0.1137328836345465 -0.1985670721233928 -0.1114123344778044 
0.4962664404736472 -0.1934442796462755 -0.1910301751627625 -0.5564156671556444 -0.1955642271580048 -0.2151139307919838 
0.9493399108331596 -0.9112907351146013 -0.8787831655652105 -0.8857678342527497 -0.93712059528537 -0.8792326879727836 
0.1785024184507215 -0.1752076699453025 -0.1216441621494418 -0.08959355229974163 -0.1274397901798334 -0.09221976546343826 
0.0704121813710671 -0.531257597829855 -0.3339499926058742 -0.3168001777009999 0.1172159836511615 -0.3368185985355571 
0.6353200161854694 -0.5977320682078737 -0.4303138375065552 -0.3831107662079616 -0.6520047049502882 -0.2856018629267169 
0.1233221446996388 -0.1098026736834821 -0.09586487790051078 -0.09505149873334451 -0.1238437276709846 -0.09125946276539236 
0.06713939825277339 -0.07059972459319186 -0.06739067417062271 -0.06707320740329804 -0.06528790054921564 -0.06865321279498932 
0.06713939825277339 -0.07059972459319186 -0.06739067417062271 -0.06707320740329804 -0.06528790054921564 -0.06865321279498932 
0.4114465373051792 -0.3543078602057473 -0.7696552199812415 -0.7665925528805251 -0.7680281332158029 -0.7670639781371718 
0.4337224980518114 -0.4372096954935669 -0.3162000565330728 -0.3173585852364622 -0.3160123385845129 -0.3160267473006746 
0.4281108955792752 -0.4361102889828082 -0.3149804687705158 -0.3149840393244501 -0.3152494823871549 -0.3154178939446565 
0.4138887849348692 -0.4360422153991324 -0.7424845310320912 -0.7431840671830487 -0.7433999775022165 -0.7434771762747741 
0.4337224980518114 -0.4372096954935669 -0.3162000565330728 -0.3173585852364622 -0.3160123385845129 -0.3160267473006746 
0.05136119769015757 -0.05339670052463834 -0.05015290147858548 -0.05060322777043762 -0.05029469326482169 -0.05136280108875058 
0.08956564638089623 -0.09334144624561543 -0.087246463565192 -0.08809075756351904 -0.08748455606198141 -0.08963351798522488 
0.1079899084945142 -0.1252425771841806 -0.07806164438192237 -0.07056015130512011 -0.06533000734186806 -0.1295330628545723 
0.4144261535859384 -0.665424148452859 -0.9504681868596468 -0.9282680633418101 -0.9904233273544896 -0.325096677867711 
