solver_type L2R_LR
nr_class 7
label 2 4 1 0 3 5 8
nr_feature 8345
bias -1
w
0.7405978842565217 -0.3473598029686625 -0.2616733103315582 -0.3669372997330454 -0.100786292043842 -0.0440168218719272 -0.009127439661319731 
0.1417671899933348 -0.0948410565941762 -0.2036353552173405 0.2601359917702453 -0.2510605103034267 -0.06322975953703729 -0.05347471832514181 
0.2180941961159604 -0.1183627163143129 -0.01009787531938786 -0.2113233445953645 -0.01369501391787519 -0.0005205498392265803 -0.0001583674666311323 
-0.1980542449519042 0.2075533611368095 0.31565640269096 0.5720584658044665 -0.04266912734624095 -0.001570148802136154 -0.001122077773452405 
0.1942285974555475 -0.1650108486716892 -0.01102396262341132 -0.05950724625228538 -0.01436955297940832 -0.0005233520358394101 -0.0001585953384859953 
0.3965333600256651 -0.2720370538835327 -0.01195260039480983 -0.3137795120570068 -0.01554972626399644 -0.0005434386614928483 -0.0001748608378985742 
0.5550712701186451 -0.6645214666752776 -0.6740347101707155 -0.2386310397118662 -0.2942480568513876 -0.07567700844999929 -0.1387364892021172 
0.4119035463733591 0.7649420209114419 -0.6590360258104604 -0.908453493052167 -0.2180549560702262 -0.07777025679333663 -0.1635272087296866 
0.6811009471892838 -0.4114285810619114 -0.3032288242868891 -0.2438528799485514 -0.08145689143338988 -0.01656870075830689 -0.04978842241141623 
0.4533505642867232 0.02888687244778414 -0.07176540625643288 -0.7202782703230249 -0.1256133498033278 -0.0419032926127313 -0.02746065911984589 
0.3965333600256651 -0.2720370538835327 -0.01195260039480983 -0.3137795120570068 -0.01554972626399644 -0.0005434386614928483 -0.0001748608378985742 
-0.004538706581553149 -0.3861035297558382 0.02453684434005859 0.07037909613537613 -0.7220649616956341 -1.346312580760485 -1.159290593740227 
-0.1182009705571247 -0.2784506570605043 -1.635378473334387 0.4931622887201719 -0.2843148237464398 -0.8119351262603066 -0.6116926818593811 
-0.7184294274656602 0.4988006420605671 0.7416103864720059 -0.4414766688759144 -0.525665614974918 -0.3105800618050562 -0.2548855086323109 
-0.2960906062124276 -0.1315719395495513 0.5427505704278223 -0.342849708174354 -0.3848040312086174 -0.7554205519958904 -0.2371594147231229 
-0.5528512949945922 0.2140664438753266 0.2925758406731828 -0.3766862212847831 0.6329578785422922 -0.3866802754730912 -0.2474384925587762 
0.07156506698816587 -0.06582684839470743 -0.1483051202675346 -0.2180812407976533 -0.07070477639298857 -0.2647422720172304 -1.487918279825916 
-0.08978302600321639 0.2215494420906433 -0.463950614700009 0.2180175756797564 -0.6487998040105687 -0.4566510806745051 0.1933469068358954 
-0.2696859341933424 0.3973634108738895 -0.4813327147724282 0.2661418012553323 -0.1512328341345744 -1.011330523617779 0.02860072330496117 
-0.3075264639407907 0.6432445864050349 -0.1189244325135081 -0.2164787851325489 0.08089359590044862 -0.2519278441248936 -0.2007741062307355 
0.07325372874740962 -0.3969229879752545 0.1217712427584209 -0.1537880301251134 -0.2610183678832899 -0.6231665524485298 -1.296242934717474 
0.538293121686404 -0.2403335977568191 -0.2607446725601597 -0.112665033928324 -0.09960611875925386 -0.04399673524627376 -0.009111174161907152 
0.1511348889782214 0.3946020621414506 -0.2080820060134629 -0.3312015162818233 -0.05255689728111389 -0.007019634137448629 -0.02619901963365991 
0.08558681843240501 -1.857947808784546 -0.8248523910477257 -0.6327093341865583 -1.004880118026012 0.2671691315117387 0.3233501183588475 
0.9096031701198805 -0.01664743027428972 -0.8502955570763967 -0.958351154775808 0.2128452713591725 -0.1001567403849166 -0.1295515972231379 
0.02716156572688513 0.3395892422009697 -0.4925494897811484 -0.1380110809811529 0.1197063470344879 -0.03343146060091617 -0.041646555648396 
1.308334110337597 -3.935044772899852 -1.860177945764547 -3.51803520437304 -2.804671056494545 -4.028589636629778 -3.803385381865143 
-0.4921824931008683 0.1820826377573425 0.6779142659710971 -0.5068664116796747 -0.07912182063799808 -0.005545347932876164 -0.005683251684017743 
-0.2263384872625515 -0.1029263912572828 -0.4494899810469135 0.6788164434595904 0.3274118575272623 -0.02884139630753363 -0.02019599960842896 
-0.01294998458741283 0.5082898661514134 -0.03295007873225045 -0.5002507360009404 -0.0650934911870296 -0.02531460325136157 -0.02298727030114018 
1.052125234018199 -0.5628696719474906 -1.282585110594183 0.2292743882290842 -0.4753185392756592 -0.09843476089190341 0.2633018478815372 
0.4192688823105684 -0.2543183755265249 -0.1985651765874819 -0.3549494125230717 -0.2535961095994591 -0.06076464550147374 -0.0177890843893204 
-0.2584959815120263 0.147247769634662 0.8237122172640697 -0.2246681083993286 -0.2670851318279315 -0.0545270188866137 -0.02124046963946132 
-0.1689633367739388 -0.0152720398902521 0.3353316910189936 -0.4428647016545408 -0.267686673620734 0.2771345753447391 -0.08718760448608408 
-0.1406238572890918 -0.01947951353802964 0.2531569623177671 -0.245328243493911 -0.006205368614948735 -0.0003721484669904036 -0.0007279046439073531 
-0.006655449209819512 -0.000736737572724082 -0.000126681757888064 0.003884553601418666 0.0003280565504465676 -4.619621394723581e-07 -6.107948020689905e-08 
0.5856892817811317 -2.502652573922213 -0.9222541584742192 -2.212490860121952 -2.571838226209793 -1.928845117873722 -1.106311971818041 
0.9523243979962055 -0.5202959605894739 -0.5026209525990297 -0.3637259956670204 -0.0846827994942245 -0.009884782212255109 -0.03433554222041208 
0.5851755056165791 -0.08740188445839125 -0.4633048438294802 -0.1678504729426551 -0.06741188301297488 -0.006660762345333691 -0.01170478934705486 
0.2516138935025252 -0.05565687012284934 -0.227888684242447 -0.05834482583822995 -0.04263003704065021 -0.003833623959374044 -0.002887998829081777 
1.091519373043308 -0.2865260146699454 -1.43728047347175 -0.2864057118862564 -0.08588616921347969 -0.1196392011601872 -0.1664349244569937 
-0.278544751464826 -0.1276669126951094 0.5850787306464492 -0.2661750514220482 -0.2395049720494747 -0.0718843191361517 -0.01101632114007227 
0.06007597911463912 -0.1291984636163293 0.108471516810465 -0.1967781802511244 -0.004660689363862616 -0.001736079593641492 -0.001739376167481697 
0.02116038362847487 0.2240491394787015 -0.108840286178694 -0.1671023492903051 -0.007518120153283615 -0.0007752698875237414 -0.001476208719834882 
0.3497417990395733 -0.1078564601123477 -0.2834665826079253 -0.06483861403794682 -0.02281008111111457 -0.002123719516827514 -0.01795854756550071 
0.1737319267443734 -0.0292233832846475 -0.1943002305547283 -0.04194911588691959 -0.007691706635905972 -0.0007839834388977047 -0.001469082784265296 
0.4779754230950681 -0.2267932607458894 -0.1653466502479561 -0.09668423083039712 -0.0199016736195039 -0.0100557873397778 -0.00321205942750839 
0.08042869376598663 0.2305003171996776 -0.04242959293491459 -0.4427802977749825 -0.04427514925632695 -0.04244851610600549 -0.04583187565323971 
0.5340449040190174 -0.3739065869596162 -0.1276298558609119 -0.2081995758689082 -0.03122950293392455 -0.004306209881192624 -0.005128033222168915 
0.2265194435442822 -0.2708602329307926 -0.01206704122230158 -0.05404696981406451 -0.007218457423162419 -0.0009957524990563639 -0.0001435816105956492 
0.3936876705628949 -0.2076951066428795 -0.05930139545422693 -0.09213389063307834 -0.0192920019229812 -0.02693461115095021 -0.03073859271382719 
0.3448961851043055 -0.4156247052263623 -0.01219327750821246 -0.05392366599089155 -0.007142364817241819 -0.0009950500909703664 -0.0001434946709007263 
-0.1002595419708075 0.7706446101413037 -0.2180482012766868 -0.3821660636837361 -0.1082841567318146 -0.04466827791320178 -0.01591212919409079 
0.3309964738857799 -0.3590714369188266 -0.01324348353973665 -0.09347232879140466 -0.006417028370999336 -0.0009988479566852048 -0.0001439443116382521 
0.6062360436105997 -0.3907028731921217 -0.1493758862132759 -0.1292541842216471 -0.03671923173544247 -0.005400907584751876 -0.005534002181267814 
-0.3292341536621544 0.01587413136328743 -0.4412887415115132 0.1849189189635897 -0.4489762313319169 0.1531982670773524 -0.6798467723504473 
-0.1644091940866543 0.3748865712228967 -0.3337500947924074 -0.1062366614098585 -0.04434171761082583 -0.00911620514145243 -0.04276464393163984 
0.3027502275084173 -0.1094879045942471 -0.2990496238614239 -0.2160213332688779 -0.1590534731335702 -0.02458313221345105 -0.02104624792798582 
0.5302956157367911 -0.2341446759781994 -0.2752904428549768 -0.05866978413853143 -0.1073413796440792 -0.02273170638444772 -0.0281256178949403 
-0.03394072957813038 -0.08601051705907412 0.6311939058353152 -0.1877832380862971 0.0558516924382487 -0.0380830978465591 0.3468334542002163 
0.3066761900053824 -0.2281649621965145 -0.09050768035513203 -0.06622508904791272 -0.01426712554114065 -0.001341398328872266 -0.016489652290863 
-0.3798413979827523 0.6761166372711072 -0.2575187221398111 -0.1393709866425791 -0.03944367711672724 -0.008862738112395298 0.4146710124215818 
-1.129158002569444 0.1124949474531945 0.3735030991177488 0.7621066644506034 -0.0888034156418034 -0.01781439494696732 -0.01159448844161081 
0.06388923603684639 0.09204259090308081 -0.4327618040017133 -0.1133089513773782 -0.3080279213796854 -0.1042103839036074 0.2507744897218253 
0.2094729283559117 0.2499042062583435 -0.01051576841634847 -0.4321842769516209 -0.01221049050965758 -0.005201724023606749 -0.001118746241886367 
0.4639904182607564 -0.4761692546965544 0.05003990602990452 -0.2525046456587505 0.003212236302583266 0.0001259895744602754 -1.31427644583419e-05 
-0.8781566057439213 0.1358363350537512 0.3604929492327856 0.4189980090340695 -0.1086000573038829 -0.04387723371054109 -0.135174952302318 
0.3518998224575342 -0.4149483891262324 0.007431547129709178 0.1158522286152498 0.003968343009507214 0.0001013803449557998 2.120318391578323e-05 
-0.136438463035704 0.1890806263890825 -0.07564644950746219 -0.07770837193171454 -0.04587703740902337 -0.01346027498797264 -0.02089690680785738 
-0.2226160430831536 -0.1136351597847691 0.4317113624272482 -0.2056754895528405 -0.04579561605609622 -0.006547151531448283 -0.0003855830343044356 
0.211849132730645 -0.2023760185590468 -0.2896324672997029 -0.218441786595562 0.6340083499005859 -0.09465718175317418 -0.05164781540677033 
0.02618928736868484 -0.06132068138078028 -0.000164885984499956 -0.003910231919545345 4.9819881904869e-05 1.43320668638373e-06 1.751914150203766e-07 
0.5831228519263372 -0.4418697951132743 -0.205878971695238 -0.2234554225529035 -0.1349076416896762 -0.02370454030391163 -0.01390865021965168 
-0.3261056916683964 -0.3022006517778821 -0.154859935610122 0.6404406151388506 -0.05702399425861628 -0.0003870106527519402 -0.005721222446704078 
0.3321304787300594 0.1310309792103393 -0.5095294120565697 -0.2888359136509175 -0.1923135211255804 -0.06391610504145699 -0.1336428890238442 
-0.1874605839269004 -0.09528029636492515 0.0527481714840447 0.1965096159555978 -0.03755832784340041 -0.0001920407539585897 -0.0004907733706332601 
0.02618928736868484 -0.06132068138078028 -0.000164885984499956 -0.003910231919545345 4.9819881904869e-05 1.43320668638373e-06 1.751914150203766e-07 
0.776663676405858 -0.310472315765794 -0.06706622300124954 -0.1830851792147707 -0.03616694897651871 -0.01983744460849557 -0.008449091701498638 
-0.1803500328582886 -0.06553172989367971 0.1887663081636457 -0.01874564913423138 -0.003968980205856956 -0.0009771297009110837 -0.0001404324815990623 
-0.6195671527438644 0.2218569690789958 0.8343949757186917 -0.3996763092983323 -0.0117913630494103 -0.004339173588225454 -0.0001887837026688338 
0.1972128761959756 -0.006927316502230082 -0.2197126986638641 -0.1256444030519515 0.2169397948539856 -0.007245532650050545 -0.01791114164082763 
-0.1998032481843446 -0.214254669707133 -0.06241096510074044 0.1882113886880829 -0.01815568224263157 -0.01337957197939069 -0.009730172494798184 
0.02645957742171819 -0.03395113533853986 0.001856073979282297 -0.0002974901546393925 0.0002722969912191573 8.718320462613853e-06 1.012816196951391e-06 
0.2620663324589939 0.150078496311477 -0.1679672304489204 -0.5404174490508349 -0.06508936722319245 -0.0370039706023711 -0.05401787974522352 
0.05624348680058658 0.292818514795426 -0.02314053416511736 -0.05178844839578342 0.003584978028653743 6.901541306079034e-05 -0.0002315018107166413 
0.02618928736868484 -0.06132068138078028 -0.000164885984499956 -0.003910231919545345 4.9819881904869e-05 1.43320668638373e-06 1.751914150203766e-07 
0.2552520790308685 -0.3062359179379449 -0.01774546127892814 -0.04924368126897231 -0.008243249364084142 -0.008591806686259076 -0.002755825251520151 
0.02592437477947034 0.02459642396522799 -8.631764442979142e-06 -0.04696582538427638 7.445160413555247e-05 1.281146458186324e-06 1.331537665814628e-07 
0.02618928736868484 -0.06132068138078028 -0.000164885984499956 -0.003910231919545345 4.9819881904869e-05 1.43320668638373e-06 1.751914150203766e-07 
-0.9787999274207964 -0.3052878729382838 1.651681489624147 -0.6382998939342136 0.02464574331803743 -0.2411292964176888 0.2448636482518663 
0.02618928736868484 -0.06132068138078028 -0.000164885984499956 -0.003910231919545345 4.9819881904869e-05 1.43320668638373e-06 1.751914150203766e-07 
-0.1916345082607218 0.4539587616850901 -0.1511136062621453 -0.2251932073842036 -0.01752470238138133 -0.01558735876121411 -0.002355083115435051 
0.242513867250634 -0.09614811433821574 -0.06535713743846092 -0.04765974339470583 -0.002847557915053791 -5.198987121709545e-05 -6.974860558498794e-07 
0.2398716016409924 -0.0856827761804537 -0.06481457070469454 -0.1181431108252661 -0.002624004889726144 -4.780088954623043e-05 -4.797280671835445e-07 
0.02638828123180127 -0.06133641025191258 0.0004335664735143494 -0.003005580356728427 0.0001689594445074423 2.274010707950418e-06 2.745367751631205e-07 
0.02618928736868484 -0.06132068138078028 -0.000164885984499956 -0.003910231919545345 4.9819881904869e-05 1.43320668638373e-06 1.751914150203766e-07 
0.242513867250634 -0.09614811433821574 -0.06535713743846092 -0.04765974339470583 -0.002847557915053791 -5.198987121709545e-05 -6.974860558498794e-07 
0.242513867250634 -0.09614811433821574 -0.06535713743846092 -0.04765974339470583 -0.002847557915053791 -5.198987121709545e-05 -6.974860558498794e-07 
0.02618928736868484 -0.06132068138078028 -0.000164885984499956 -0.003910231919545345 4.9819881904869e-05 1.43320668638373e-06 1.751914150203766e-07 
0.8634412141874903 -0.1898899371306795 -0.05582645676540358 -0.2093619685088171 -0.0625902115303284 -0.009565744658092571 -0.008647474112094615 
0.1852583750364111 0.1961540316811225 -0.8492560976630157 0.1826240071813339 -0.857716863116187 -0.2917347649524017 0.367916218241142 
0.5806444738111355 0.290724252877114 -0.2557758988564702 -0.7059266161836547 -0.09764421342444719 -0.06298438560670759 -0.05349421343246246 
0.5083638876844219 0.03464282558408126 0.065072501169471 -0.7082159544642935 -0.4690137075196065 -0.3352796410397919 0.2605346824845882 
-0.3057897441861986 0.4222848847172617 -0.3970207569359893 0.09278789193001932 -0.06221797421884973 -0.1845588471636733 0.1864638241397899 
-0.1300237819395836 0.001603570016265903 -0.3147761994565858 0.02584920672088573 -0.7765108763529626 -0.4311607901621869 -0.5138191164178235 
-0.3795062765214354 0.1617618233619184 -0.07171550727252819 0.4727970505412648 -0.005763276730991519 -0.0009425287611031917 -0.00303359184672107 
0.5785116928581551 -0.1786739877892074 -0.3041995797704071 -0.08410077239775118 -0.1663006385249959 -0.06039075504899104 -0.122818622191032 
0.1689489866097043 -0.3984375441803987 -0.977838931913287 -0.119496589459142 0.369084130896398 0.002837808322324852 0.0001261028024071974 
0.5785531975775787 -0.02867370553779683 -0.232079451279345 -0.1739643440900964 -0.09034947502092169 -0.01623281797011923 -0.002439672492621107 
-0.6492763905842738 -0.2220963447027132 1.161621670166129 -0.3484210697230852 -0.2653537104337019 -0.08298585319282752 -0.008894395306353194 
0.461994100239797 -0.03556353057358454 -0.1655089515017826 -0.06338023230771761 -0.08751602118685053 -0.01615419714552802 -0.002436783035358899 
0.03679719601510633 -0.05045525136000824 0.2386946440820892 -0.0727783605605401 -0.1184247330522853 -0.02524143093174465 -0.003559534959319772 
0.5314369694553744 -0.3854668174796423 -0.2066937354398312 0.04086726342658482 0.2335392080765169 -0.1001780339306793 -0.06107759126458186 
0.2030484301332375 -0.01483515004078959 -0.1143863723211752 -0.1147272470775036 -0.0248124745629252 -0.003307361924507419 -0.004984088910530663 
0.2030484301332375 -0.01483515004078959 -0.1143863723211752 -0.1147272470775036 -0.0248124745629252 -0.003307361924507419 -0.004984088910530663 
-0.0744122003660338 0.6640783022662108 -0.1056820453375232 -0.5741939287683864 -0.0318020096053291 -0.06042775916990811 -0.01427406084326928 
0.2595656600296333 -0.2358400421156553 -0.01805448919578825 -0.1450264861771215 -0.007456470437049089 -0.008594169596711504 -0.00275615312668582 
0.03418038497698474 0.03279337418798298 -0.004699370926809695 -0.0490640211129146 0.0005790686515498155 -1.366227817325465e-05 -1.052373281142871e-05 
0.1193982124144202 -0.2128573535896099 -0.002869012995312877 -0.06765768005946741 0.0006352270619540717 -2.985890675862295e-06 -1.562329847635028e-06 
0.573811653782541 -0.2383888112798624 -0.4880206678149761 -0.1513621538389425 -0.1279927009353391 -0.03170174805609845 -0.06596348356591758 
0.8388387996542325 -0.3550450879857755 -0.05875627185456553 -0.6603220034996263 -0.03874772440070443 -0.002066753708064292 -0.0002029553697387521 
0.1704498566353861 -0.09499327782364489 -0.001929089396294551 -0.04615463819601418 0.001072600193738341 -1.43587825433116e-06 -1.548329311832551e-07 
0.1044968607509336 -0.08736765706322649 0.01527669136911486 -0.03925570526535078 0.0008547214069570409 -1.404539784662349e-06 -1.512665748579823e-07 
0.1105057621455013 0.5347508440748043 -0.6835395831585599 -0.4866347710464232 -0.4133164896538487 -0.1709381502796197 -0.1764991274496954 
0.1044770303414977 -0.08821120398803402 -0.001176442317435075 -0.03942535897734015 0.0008014290521630836 -3.095457628841143e-06 -3.627010426028826e-07 
-0.267948828071122 -0.3283713693637166 -0.2181116880905124 0.9622496675187109 -0.1083177051899516 -0.01748477353949781 -0.0417451409800289 
0.6741888031291712 -0.06492148146121671 -0.07772449154679092 -0.5235866328765356 -0.05507102997833993 -0.006350751714984178 -0.009432659247658319 
1.038702913736842 -0.1737330034479174 -0.2534784158843257 -0.6029883028243941 -0.104947316591616 -0.01955422829120744 -0.02509030561575458 
-0.2226279532172608 -0.3487747357239094 -0.2147260708423764 0.5671704335403656 -0.09376267954358203 -0.01294409383748199 -0.02710330923599599 
0.7227356978417778 -0.07014511507278717 -0.07750681236258185 -0.5235284860220486 -0.05496065670869463 -0.006356657270175469 -0.00943283794964953 
0.2658498673128264 -0.01867531408349231 -0.006000948400190765 -0.249987496458668 -0.004561706374308019 -0.0002232735637608134 -0.0008302241618711149 
0.2011127198115041 -0.06796543832123099 -0.115347954093413 0.1149786107474154 -0.02907764497076343 -0.007048097587726962 -0.01522271639804628 
1.210360705271722 -0.6178692537409179 -0.4253659830279582 -0.6406228357699447 -0.1354339912910387 -0.04449111201832533 -0.03486687545131083 
0.1018709882175849 -0.0220977341944769 -0.04292631350531211 -0.03940217976523201 -0.0275262562517166 -0.006433166997237268 -0.01502297247376016 
0.2286728282558947 0.101313181364218 -0.1664003680518323 -0.2727409905831488 -0.05426085837745689 -0.02118784451221244 -0.02236801554639321 
0.3909212753261744 -0.05696165625722686 -0.1464040133292176 -0.1520771891400554 -0.02609703830446482 -0.001037179949043946 -0.05090988085752274 
-0.6185331069113343 -0.1645754842001561 0.9854969216863622 0.1637037660991411 -0.3294316374387103 -0.2161181314703168 -0.314186360233755 
0.4798151851280871 -0.06458819044644236 -0.139957989313547 -0.1588845487914604 -0.1470145444497884 -0.02988033334452353 -0.04432547943362512 
0.08564939980464728 -0.01617571867054734 -0.05118978170931215 -0.02317876949777186 -0.02005181346701138 -0.0006007244433542639 -0.0006236417151484383 
0.7583568158119025 0.2729880623666383 -0.6035082522150276 -0.5030123319705269 0.4553870394636145 -0.01785727433417352 -0.0263530831507624 
0.0613377146106084 -0.03778215541797286 0.2725925867501376 -0.2189712894709225 -0.05071686110375878 -0.009888155559968546 -0.007987937532411648 
-1.518297505840373 -0.4511577276343446 1.281219227324105 -0.3966143309794317 -0.3170345233935835 -0.7124530081170279 -0.3005384416885483 
-1.362425628313903 -0.2564744467657604 1.112523501905444 -0.4759261874508896 0.1025712810236599 -0.6070329714159881 -0.1881996761482505 
-1.379007729245866 0.2166696386404933 1.001232810275775 -0.6232391170774907 -0.5876972887329637 -0.205428636951091 -0.1553971058472079 
-0.7869126458830134 -0.1894532890234227 1.419111973892932 -0.4059130967223019 -0.6592373119055351 -0.3662560980319893 -0.09860646564995713 
0.2159116852732376 0.295469664241112 -0.02143786826176304 -0.4123678649512819 -0.2012740824713755 -0.1443273498141165 -0.04448983835529107 
-0.6321447801326787 -0.09677160520308221 0.04552347124221919 0.6045079697931632 -0.08437055384842347 -0.05010863442077989 -0.02227978959755227 
-0.04745708208689474 -0.02697554889310459 0.4018245238245793 -0.190224205258248 -0.01726130142873939 -0.002461995268292598 -1.884330323566436e-05 
-0.117806072726995 -0.0572965626595783 0.3979621699368396 -0.009036823331903376 -0.01843687067859427 -0.002566724473127459 -0.01176466810359352 
-1.65296786175227 -0.3041377794528952 1.974400023688524 -0.2733024345620955 0.05590213213827604 -0.03903489344961334 -0.006935689397758049 
-0.6063079914504587 0.2970566719632074 -0.2193077151613027 -0.04008057886259229 0.7883747275983207 -0.05785401744822598 -0.005992611717716645 
-0.6061524535173617 -0.2590375946289574 0.6207714409690167 -0.179427027314287 -0.007348695238106211 -0.07245055243748071 -0.006896663299567406 
-0.208074685567396 -0.04826855458577389 0.1159615064645496 0.1999879428663127 -0.02335740456351742 -0.004284568806583467 -0.001053504570713471 
-0.1280626056236756 0.2393476734453534 0.03544746049096077 -0.1381987145065697 -0.1118816525381375 -0.02009138298705514 -0.01360125409200287 
0.2178778219780621 -0.2819754798964813 0.1078881629613771 0.2299637120939412 -0.06072673926365832 -0.01116781416418693 -0.004098866303455875 
-0.09025774547568005 -0.0250431414645788 -0.01073439004308141 -0.0146936119993055 -0.04779315206047097 -0.009634564516146436 -0.006670176160494744 
-2.064348972857571 -1.645633160943833 3.313593262685144 -2.035202383544519 -1.655737258881944 -0.5752344777598812 -0.2766857088814542 
-0.326599249512019 0.5326399308503204 -0.158027521087397 -0.04159302498982222 0.1160365012007453 -0.02060944961937494 -0.001208174650921793 
0 0 0 0 0 0 0 
0.1356879915726483 -0.1436793630411793 -0.06550531863176015 -0.001037958607794147 -0.0003102331533258394 -4.431993621031761e-05 -4.684039288107218e-07 
-0.01014803222472196 0.06082097830154655 0.0007681235475409821 -0.0184853957551389 9.594013616714975e-05 3.617773116466602e-05 2.744005059163699e-06 
-0.001583448695439205 0.1112425077148491 0.001020192833608531 -0.03497994966756731 0.0001060644394839915 2.139953214754748e-06 2.705578149838814e-07 
0.06568197653012359 0.2746401574016235 0.1232187041840928 0.126680302252132 -0.05767515532240022 -0.007946891706626264 -0.008175396155206183 
-0.3800210081833758 -0.01608710693563266 -0.2273078569077127 0.4857928414265523 -0.00626385602141381 -0.001121325607394559 -0.001063383069526772 
0.2507741042145736 -0.02948513956813063 0.2789431410018805 -0.2824223444887348 -0.466696179386086 -0.04763107381670281 -0.001694193490813084 
-0.04555629073718945 0.1227867031369651 0.0868132255367251 -0.1282654846775628 -0.01781292611034551 -0.004790712914554155 -0.0008213293294259765 
-0.2756381180303545 -0.05755945253318481 0.4465996695313168 -0.151054688577241 -0.03223593901173213 -0.008318666218762049 -0.001822438615787173 
-0.04222118223962357 -0.5653686385873026 0.01269286173440759 0.3177151235164572 0.002461219315749044 -0.00185376751978889 -8.848045396311601e-05 
-0.2285439888893958 -0.137451866940488 0.005387754194070671 0.3566223377346107 -0.00173960462833904 -6.545065643694063e-05 -2.789535293386812e-06 
0.6761026083731528 -0.1602568275639543 -0.716686058247932 -0.07851716237793846 -0.3681899923508091 -0.1245911546053578 -0.08668793644603569 
0.2492751163287574 -0.1398294053814166 -0.02505736328636994 -0.09716820385710526 -0.03377262673305279 -0.013764061074557 -8.802189684109392e-05 
-1.432506923066704 -0.3461712175999526 0.8740414187654391 -0.470697832758311 0.6011455681167167 -0.3313534911033613 -0.1307705307151841 
-0.2180286695544317 0.3110332153895214 0.1631812469682539 -0.3168141284019443 -0.02667681641373638 -0.006329195578012031 -0.002561110823130013 
0.1932555292938317 -0.4269324740527339 0.05454268965194227 -0.5012582964923729 0.4348790425449381 -0.1474422739985242 -0.09346612776562582 
0.3941657853234398 -0.04841247177589501 -0.08876820760423484 -0.1357057792936886 -0.126962730982777 -0.02927960890116926 -0.04370183771847668 
0.9676959296103316 -0.3415222845128361 -0.5980658013218964 -0.313754998667125 -0.3087128711389098 -0.08740994646911582 -0.03067081808803111 
0.7038447672219433 -0.2834498871232022 -0.4870105366258535 -0.1899361928638621 -0.1994762042177012 -0.0322328609418376 -0.04205253394592708 
0.6512065674710154 -0.1309313437294156 -0.1755056973528379 -0.2272073501624608 -0.07274480462638387 -0.009616068874941484 -0.01486766991409301 
0.4225797654286451 -0.08613876720578954 -0.302104586894704 -0.09984346451728657 -0.1543702542478825 -0.04858100121562648 -0.01927963541347618 
0.6348822045115575 -0.1451201309503616 -0.4497010603306413 -0.186888228813427 -0.2229218659830014 -0.05851742708398884 -0.03578929368938341 
0.3816721706586645 -0.1088382979066427 -0.3321650870464232 -0.1117621286655402 -0.1772764161569081 -0.06060316793051076 -0.02510244939985344 
-1.036291264580174 -0.1241012373230003 -0.7206306195618899 -0.2136538723250537 1.459886656785703 -0.07506628725324588 -0.03741881096582532 
-1.28493066050399 -0.5197408684988442 0.2027915187598466 -0.04053819140478176 1.386579887406493 -0.1454934161913845 -0.02215585946295151 
-1.070235809353921 -0.160285599354983 -0.9543957204189321 -0.1376906481181859 1.783473193245951 -0.06124991537716086 -0.03376276120191985 
-0.1877522836364607 -0.06188486364078766 -0.5086527798407912 -0.01189651021387132 0.5061330170519714 -0.02603110064158116 -0.005906545365609988 
-0.08928443626144392 -0.4019172185089148 -0.4226029493298111 0.8034024854848257 -0.03951125782369495 -0.01137554750097567 -0.01221968244342153 
0.3979897393701253 -0.5439317895220496 -0.1781014557608427 -0.07065710880859731 -0.05738446269892418 -0.01264102361238821 -0.0287173378041781 
-0.1836687980861737 -0.1775015458657106 0.02279962488399829 0.00265726494702824 0.004105673102031568 0.0001674065245056834 -0.00299852316335192 
-0.2880611614764715 0.7551692910539654 0.0348151365619625 -0.8656914380069646 -0.02167656900061589 -0.01378430577119829 -0.00540549571571936 
0.04256169633641776 0.3700273197116521 0.5323241231594437 -0.3658361906699414 -0.5104101898243013 -0.03095080955617648 -0.009669310108831533 
-0.4772028010570433 0.2760995355062609 0.6405191524394495 0.3449663059311731 -0.01731402659865201 -0.003865646049345917 -0.006528546096301243 
0.1565299915307277 -0.1075138297158007 -0.1420470156204895 0.1769951987820776 0.2377628521760712 -0.009344788384136498 0.4320504673574396 
0.1112106049131123 -0.2682166042485528 0.004627692559688012 -0.05486086330145697 -8.749730090037056e-05 0.000127820909546822 -4.219033590346818e-05 
0.03167579809618386 -0.3148026214131995 -1.325576865705156 0.6526011307673074 -0.450326005125845 -0.07135244022825631 -0.2115083086082944 
0.03828267460647897 0.1330476039287684 -0.09197276778558749 -0.09672551810340359 -0.02183839658703021 -0.02228992256893016 -0.01586104558901071 
0.04841919040809858 0.1058438169096628 0.1221895945209516 -0.1146392196352722 -0.002922431399316706 -0.01344368797475231 -0.01342356113332679 
-1.037856265185849 -0.8415279794916539 -0.6520028622494703 1.204287125470663 1.197995717650453 -0.03784825829526447 -0.005955589605745014 
0.09628934991724844 0.2787511260747738 -0.1219126551467812 -0.1475077279396855 -0.3315333982022114 -0.1757822473535403 -0.1093780882445199 
0.1123264351859324 -0.07522608481149164 -0.0322475346611539 0.02708596911167644 -0.005907360905227948 -0.008060592044096882 -0.008949753529691486 
0.4298463231585387 -0.1534566615589177 -0.04178813099429161 -0.2560883332583954 -0.02820610908178671 -0.009805932142797628 -0.01071498418819127 
0.5172083614268637 -0.07510643697961319 -0.3807965586113342 -0.3125521659457646 -0.5641172694799803 -0.2008558890713659 -0.1427900111334161 
1.036618616534131 -0.2739612012085865 -0.8198656040176521 -0.3905960183033588 -0.4841110044529254 -0.1876572187394323 -0.1338076680443508 
0.4008961739913338 -0.4831922254407646 -0.6266871143986492 -0.4381309923379355 0.917470268293425 -0.1467380315603071 -0.08727984104310473 
0.8875004176950092 -0.3887409339029952 -0.6780460488905314 -0.2640589047063647 -0.2634403568595163 -0.06035415398975942 -0.0872839203786907 
0.7725437724725464 -0.1186902403079255 -0.6766480684359224 -0.2637414061542042 -0.2637521154541193 -0.0603546850239609 -0.08728381647094884 
-1.415360154435692 -0.5504151658666343 1.020823114973264 0.5053719005785227 -0.3288556450508814 -0.184719969374211 -0.04528273653261358 
-0.4134584711372121 0.6140607265544492 -0.1105995181537571 0.1914395411520589 -0.02415215261991464 -0.01076513215341436 -0.001305453992479968 
0.2153332682707179 -0.1539498967305676 -0.250267013724383 0.2386036929666304 0.01753991416865847 2.805128519947327e-06 1.018106467567264e-05 
-0.5408104155907124 -0.07071950876801339 -0.1601439488313227 0.7064125745820646 -0.07153877380927999 -0.01119681168400919 -0.003942695772057046 
-0.9438768491369327 0.1126196158702595 0.9615819555488241 0.1276584991322788 -0.1982428576456852 -0.02121523022806248 -0.01799755926809866 
-0.1074382076288266 0.4222109624428996 -0.004903082246809234 -0.205372843759582 -0.01626537169984368 -0.0006587735715761259 -0.001664847202141434 
-0.02719954477754839 -0.3694699168432518 -0.6278642367906004 0.8812365800264758 -0.02427784459621491 -0.007094517160085165 -0.1113785382808028 
-0.7290071361768532 -0.08263473127705508 0.2709327701969336 0.03137553094131315 -0.104504279951857 -0.03220454121227132 -0.008904211794516843 
-0.0007114578081898748 0.1686037619291856 -0.4285425256377795 -0.008260779763816124 0.3099129901558209 0.2483083832765353 -0.0003130555434829581 
-0.319927733086017 -0.3042531161809537 -0.7573400589819888 0.4194484706323285 1.375412606257304 -0.003416937188994544 -0.01083472358529584 
-0.6736486123259222 -0.3501059685346494 -0.7838701694453776 1.421802315916977 -0.06521752577718617 -0.007613264627640452 -0.006724684075418371 
-0.03787344063472288 -0.07250358369248081 -0.1334562681989537 0.1743087746127206 -0.005983914207037347 -0.003595542587977926 -9.224505334444867e-06 
-0.7646704384771562 -0.2710853381694154 0.9118576241575331 -0.1033334986918095 0.5662422232729336 -0.09998664543458038 -0.0513962990704154 
0.305157393614771 -0.2432863396441387 0.3307138414770615 -0.1859644326085127 -0.301038045444618 -0.0989548152451801 -0.01404701495013922 
-0.312763511070038 -0.6273030062229132 -0.2033193841224892 0.6637760929060871 -0.01483722402630685 -0.00400097343902603 -0.01443148217773325 
-0.4944719756600027 -0.3552316550143601 -0.2563538767570968 0.7889450257841264 -0.04271890355620996 -0.001119995462162497 -0.01747905467775603 
-0.03360860775344116 -0.07087811165392169 -0.046933978113003 0.02474210181536591 -0.03821566676199924 -0.0001161703949937078 -2.320140057561097e-05 
0.1164402756207742 -0.4060420221688221 0.08328164765164789 -0.1158179493381325 -0.03673315843560088 8.040680712325201e-05 -0.002857502059391209 
0.07877419483401321 -0.1210041022169593 -0.02521385078647774 -0.1800854289617584 0.009016270740347349 -0.003663370616832108 -0.0001065756230816145 
0.07681673531067772 -0.01011121631977242 -0.004952054092601357 -0.02713735121074894 0.002477107262503314 -1.922329261235998e-05 -9.701637582042242e-05 
-0.128049648134464 -0.2661760292016533 0.05448185321144386 0.09198102579791823 0.319562944840043 -0.1136013562094466 -0.01964408688955157 
-0.1703092411832409 -0.4241116628747706 -0.1871111634174765 0.3727614328257848 0.003984022364379083 0.000104203427501489 -0.0006870206739967756 
-0.0258660475583715 -0.03511589748925411 -0.0002662869138336427 0.006024518240049351 -0.0001145686982606439 4.54581103225438e-05 -8.126922336899428e-05 
-1.02408693996781 -0.269221161611425 0.9547075473542966 0.630692919773478 -0.1642622277538626 -0.09596533776899821 -0.01910099509204672 
-0.1485248110619044 0.3672407846345462 -0.7104358219833399 0.3775965426577499 -0.005451304848872789 -0.002051060852909105 -0.003078272218870322 
-0.9084545741047159 -0.2062711885494751 0.7268832652710564 0.1379892767727412 -0.288790784211283 -0.1313472377776915 -0.03037245265181315 
0.5310166093609219 -0.06351206191977919 -0.4139578411503749 -0.1496517789987923 -0.1246999035015065 -0.02189083563192197 -0.0277585333558983 
0.4441925743046494 -0.05469516371491755 -0.3677854724202982 -0.1248289992724879 -0.1157074323174734 -0.02008810559221824 -0.02510095775224132 
-0.5351666725082763 0.005331501470698744 -0.2271236486348938 0.3152898993507159 0.8278792016387494 -0.000468578792232523 -0.0001334397427712686 
-1.024120870055681 -0.03322996228333977 0.6279314976589634 0.6450903992243787 0.207848514000814 -0.01156510420613654 -0.02807468089775721 
-0.3507390470511244 -0.06916426525345472 0.3309299473538539 -0.03900808995769919 -0.07535883470788143 -0.02342034226960981 -0.005527031761059535 
-0.02617339295470831 -0.007061289248690206 -0.09614693293276269 0.0002066678595948612 0.2977820071112232 7.154371124579899e-06 3.635093538428134e-07 
-0.3481678644848751 -0.02208730709718632 -0.6391036618759502 -0.1401585697680132 1.245873848980987 -0.1164722970950721 -0.03392728110954232 
-2.252235940737358 -0.252823924932126 0.628714645632129 -0.8671590865576999 1.690806445278907 -0.2627582063097027 -0.07638463641227257 
0.09501339493653252 -0.08523487406000919 -1.098708434529676 -0.06775544594276153 0.9094050197506587 -0.0634815049879961 -0.01556184007088879 
-0.2199529223792644 -0.02774296038655523 -0.4186448132866761 -0.007673214071726331 0.7243927153999459 -0.0115460536054502 -0.008378089089053554 
-0.9789445623849677 -0.06435660179593748 -0.3186095475322117 -0.1120610373342204 1.441740460759106 -0.02377363271473893 -0.009190676491637555 
-0.5344097371891515 -0.03564241374363423 -0.2306742585766553 -0.05303625050271175 1.010876759467459 -0.009799744087261381 -0.004597070856938538 
-0.001640971116810808 -0.001370885651892691 -0.01201957257322383 -0.0007213991562825812 0.00464707596726673 9.464240100901425e-07 1.102075530020276e-08 
-0.6529387907113727 -0.05665322646995998 -0.224929400496705 -0.07852685684745825 0.9895902872622281 0.3490733816913056 -0.006131477452015859 
-0.02577458610047042 0.005260076727017896 -0.001467193817338344 0.01282328351032243 -0.04452535697298628 7.608542608257931e-05 6.644232164190473e-06 
-0.1634924183525205 -0.02592686394082133 -0.6909506290716226 -0.02330936146945066 1.000481064751031 -0.006619042016132676 -0.004136188870690414 
1.178884156203728 -0.1455614245784049 -0.8115229271428551 0.08041695107170782 0.296783451172316 -0.014206393238588 -0.0007320880381367383 
-0.02617339295470831 -0.007061289248690206 -0.09614693293276269 0.0002066678595948612 0.2977820071112232 7.154371124579899e-06 3.635093538428134e-07 
-0.307795980761211 -0.03601065789451136 -0.8558560042367898 0.014137811189881 1.18749811352506 0.2417066393216741 -0.003994900685991143 
-0.6096794025243385 -0.5304460203057885 0.6221495093461279 0.4334011803056794 0.01880987971729448 -0.04431894447653711 -0.02310284946415055 
-0.3949453226842879 -0.1672747769131583 -0.8382708059883874 0.4545469722565396 1.248956794637882 -0.01011089867643002 -0.02799827784897962 
-0.01710400947460366 -0.006923336688881791 -0.03638283813655978 -0.002146856582149087 0.01432163152888931 4.437642659206184e-06 2.412555295374348e-08 
-0.09809129668512023 -0.03386979296509784 -0.1679102195664992 0.44311219964538 0.01197221043901333 -0.002667726711262022 -0.002632838447489389 
-0.9109257085040219 -0.0333495718143748 -0.142871765963031 -0.02013919204041129 -0.03315707184188337 1.644345139332928 -7.592685659637078e-05 
-0.04271923114117819 -0.02607521214524486 -0.1217449929292116 -0.01559911759121355 -0.01647520123073838 0.5629779415812669 -0.001818875346436106 
-0.09028449631213439 -0.1138842842135684 -0.01440774406184667 -0.2364326827388419 -0.03843664143484352 0.5983175790919526 -0.00397132297757793 
0.1551270023221218 -0.2126155610233897 -0.1114353227248888 0.04668266126149508 0.05778186253997283 0.3418144040300481 -0.007404261337820442 
0.843155556690892 -0.8461571871614154 -0.4243687939331549 -0.117935409770899 -0.154410234093893 0.4810620625776803 -0.03244014009786763 
0.07891792741515849 -0.09503985903644045 -0.1099999008206287 -0.08642857109946371 -0.09983299196755767 0.5580450299241816 -0.002234571622706528 
-0.920313193134247 -0.03335850464693242 -0.1411684761512164 -0.0194331594772551 -0.03436466616289313 1.644343385280973 -7.61521087760831e-05 
0 0 0 0 0 0 0 
-0.1618652676105387 -0.2684599341525173 -0.2279963754908466 1.056609895250093 -0.04085383591060579 -0.006450185098225184 -0.006814117172096167 
0.08438394956596318 0.07555064548717218 -0.06201743805959752 -0.4249885920260364 -0.001076448791658893 -5.389097981501256e-05 -0.009675226258141021 
0.06357700471277057 -0.05057710105358992 0.06576630673590278 -0.0271070874072958 6.427362289370233e-05 5.111590097289547e-06 3.720842272325773e-07 
-0.04293991749212185 -0.3133170846388653 0.3930474430491091 -0.2071619431980362 -0.04085529140277663 -0.004676338488717414 -0.0003265935327710602 
0.2083097994491542 0.3060023436494909 -0.1698057188169842 -0.2325755413367613 -0.007659925011417127 -0.001326076815022454 -0.0003457156001569064 
0.1927809053536558 -0.150029617682596 -0.1253047660790279 -0.005322809573564076 0.2834705360556592 -3.904369152145281e-05 1.889274344622075e-07 
0.06597282629388838 -0.006782073835610873 -0.0007526470788594759 -0.00672927921867403 0.0002711711415752589 1.659579374509989e-06 2.078681114196271e-07 
0.06597282629388838 -0.006782073835610873 -0.0007526470788594759 -0.00672927921867403 0.0002711711415752589 1.659579374509989e-06 2.078681114196271e-07 
-0.05355355745045623 0.0897694323409018 0.2590215759485294 -0.3925984389811925 -0.0301488445920399 -0.01593598487679302 -0.002513249718088888 
0.1210527555888566 0.004593077797420457 0.01969712721367378 -0.2099826742788659 0.0008396913183790226 -0.0004825906120029982 -0.0001539291205488857 
-0.117274501707105 0.4548085367349031 -0.001153995635020548 -0.4185046268565095 0.0006854045154831281 1.908648878596232e-05 2.06728889040058e-07 
0.06597282629388838 -0.006782073835610873 -0.0007526470788594759 -0.00672927921867403 0.0002711711415752589 1.659579374509989e-06 2.078681114196271e-07 
0.4524060090140838 -0.1776614162554227 -0.03652481920953498 -0.2361711748295706 -0.01202185765338499 -0.0005298046825152043 -0.009955804856358285 
0.06597282629388838 -0.006782073835610873 -0.0007526470788594759 -0.00672927921867403 0.0002711711415752589 1.659579374509989e-06 2.078681114196271e-07 
0.01238828100568962 -0.5981120947849334 -0.2649369429814816 0.6934854143962729 -0.2584929740830912 -0.09033867067408692 -0.09275208084395191 
0.3820378499711152 -0.0923487235608437 -0.1242745001283511 -0.1013861661637386 -0.03451272994001445 -0.003091814929428919 -0.0038134723022213 
0.2333259857136427 -0.2746879250401827 -0.04419390802395761 -0.007289348352681589 -0.005432892187716139 -0.001103293793188965 -0.0006036461750905763 
0.06597282629388838 -0.006782073835610873 -0.0007526470788594759 -0.00672927921867403 0.0002711711415752589 1.659579374509989e-06 2.078681114196271e-07 
0.07765805253798853 -0.1915454110884165 0.02312696807740223 -0.01091870762996726 0.002844295256352162 0.0001611526911517956 1.074968994329531e-05 
0.06613365162270277 -0.005952428650854123 -0.0001650113982529507 -0.006632681708094976 0.0004481050276619869 3.300354225917454e-06 4.046794170821121e-07 
0.06597282629388838 -0.006782073835610873 -0.0007526470788594759 -0.00672927921867403 0.0002711711415752589 1.659579374509989e-06 2.078681114196271e-07 
0.1471349107984537 -0.06748674328257145 -0.0008450202218820936 -0.08905189891261393 0.0006573894146085129 1.947240328652905e-05 6.893492168709423e-07 
0.5723677046618979 -0.01828342626402095 -0.1666610731051062 -0.2512681335891419 -0.06615550774976442 -0.01577675546112368 -0.01318461856073502 
0.06597282629388838 -0.006782073835610873 -0.0007526470788594759 -0.00672927921867403 0.0002711711415752589 1.659579374509989e-06 2.078681114196271e-07 
0.02530673504001784 0.001758354137757738 0.1080927192734255 -0.05684209288918531 0.008697746371193816 0.0001206459176304886 -1.677049030637226e-05 
0.2177259153983081 -0.05838812412403036 -0.005724023671837742 -0.2017635835791098 -0.001078034827194345 -3.08160037092956e-05 -6.514440505938057e-05 
-0.3195356552107869 -0.3277080905115198 0.9097074127879443 -0.2217174866721769 0.0006089617232653039 -0.001668753722947997 -0.000243018106085174 
-0.1678512542525915 -0.1177412282937267 0.7729760600512414 0.05078514894838304 -0.07897704299212455 -0.01272769961740225 -0.004138828545078598 
0.0657079137046739 0.07913503151039739 -0.0005963928588024999 -0.04978487268340506 0.0002958028638059424 1.507519146312584e-06 1.658304629807108e-07 
0.02580980786623823 0.001764464858275966 0.1417280369751206 -0.05499875163744881 0.009367236127313241 0.0001252859008451621 -1.625840362669896e-05 
-0.1530751484554118 -0.2002688801727921 -0.235710732527299 0.8753030458047568 -0.04104995794792664 -0.006436569500041562 -0.006789004199521956 
0.1205644868432674 -0.03737497434394957 -0.001216568567486973 -0.02025481479941692 0.0002819016426727604 8.636135877971123e-06 3.531160096924715e-07 
0.4659665619129584 -0.05559560520624585 -0.03633723586587546 -0.130929126292229 -0.1542878060259548 -0.01620491066187074 -0.007213044449928393 
1.095761976152702 -0.261817575962772 -0.4818767583751254 -0.3504832553703868 0.1062282526852518 -0.03667445271572078 -0.01879987945236365 
0.4174620740585963 -0.1515715706421988 -0.03640340856571217 -0.1137639478176026 -0.1544383065071709 -0.01621534331881146 -0.00721471349489783 
0.4174620740585963 -0.1515715706421988 -0.03640340856571217 -0.1137639478176026 -0.1544383065071709 -0.01621534331881146 -0.00721471349489783 
0.4174620740585963 -0.1515715706421988 -0.03640340856571217 -0.1137639478176026 -0.1544383065071709 -0.01621534331881146 -0.00721471349489783 
0.08580040249203827 -0.01277190810113675 -0.05117899863293944 -0.01195686655864462 -0.03313854757971191 -0.005921218388650729 -5.986597549556845e-05 
0.08580040249203827 -0.01277190810113675 -0.05117899863293944 -0.01195686655864462 -0.03313854757971191 -0.005921218388650729 -5.986597549556845e-05 
0.1804642306451679 -0.02692685346538121 -0.1107364585728447 -0.02550485876872985 -0.06904776387276054 -0.01356332973093073 -0.0003198178561634715 
0.08580040249203827 -0.01277190810113675 -0.05117899863293944 -0.01195686655864462 -0.03313854757971191 -0.005921218388650729 -5.986597549556845e-05 
0.08564447166854433 -0.01306948863049561 -0.05152595296950085 -0.01142349050907522 -0.03321516375999525 -0.00592173786268842 -5.992608971877373e-05 
0.08564447166854433 -0.01306948863049561 -0.05152595296950085 -0.01142349050907522 -0.03321516375999525 -0.00592173786268842 -5.992608971877373e-05 
0.5983694119990397 -0.05990477980886485 0.04175413869972055 -0.2362021357967611 -0.022216842476724 -0.03168971879643808 -0.01837852305337697 
-0.08599046112082667 0.1134056656355633 -0.08157209454100098 0.2506467386854744 -0.06320584741206779 -0.03175683104242651 -0.01332775863392808 
0.1929628152758037 -0.09859236332544774 -0.05319249080564662 -0.09435518443968942 -0.0240048497421825 -0.004650052052446283 -0.007321166214358151 
0.3057915090787171 -0.1943396233349379 -0.1567184413096559 -0.07863572862959457 -0.01159108602472883 -0.008879452787782108 -0.01252395858249362 
0.2004912766850624 0.3332793561438168 -0.08890078549666544 -0.1589926986243361 -0.00119635555006509 -0.00274906190779486 -0.007258790206656703 
-0.2920961684965059 0.03589975792540975 0.592904838543315 -0.06267087936476272 -0.1554386580043915 -0.02647671825228496 -0.04365747868951966 
0.2020351495273058 -0.03152182517260909 -0.07072665822019579 -0.05038466748698996 -0.001473438561067667 -0.002758519642251719 -0.007259685312601761 
0.253234865351304 -0.05402711032029685 -0.1102610481313988 -0.03019803791974763 -0.004403721678228725 -0.003836476459915626 -0.008161277336827085 
-0.8050081190524485 1.848719020091664 -0.07676131367717456 -1.496860955452936 -0.1724712246527099 -0.05084266799863181 -0.06713918298635518 
0.1104328631458503 -0.2240485913350572 0.02457195809846058 0.002097604772287816 0.001344460653625038 4.766914599025474e-05 4.015896741482212e-06 
0.1022034693202805 -0.1390378383769406 0.3564416565819833 -0.172574542604278 -0.01491775528582365 -0.003412269706502042 -0.002866355629167066 
0.0001559308234939301 0.0002975805293588621 0.0003469543365614115 -0.0005333760495693963 7.661618028334737e-05 5.194740376908098e-07 6.011422320528489e-08 
0.3243767230184078 -0.1964006179631198 -0.07297187230392241 -0.0956448525419353 -0.06320135070875864 -0.01343284323938981 -0.002938815053693975 
0.06630119142510901 -0.05206036265484395 -0.01804793674865508 -0.2287137079732501 -0.0258660691239632 -0.0001422470819347702 -0.009223921329255364 
-0.04211380336054071 0.08440949043185553 0.001107992368775043 -0.0137179135647808 0.0008690178478503174 1.825451582920484e-05 1.479687994439174e-06 
-0.3836109115221711 -0.09802166045391675 0.4564068176371104 0.2384209424770458 -0.05840924719174426 -0.01245505117251452 -0.01135412863661849 
-0.8343401797955078 -0.005618715063627043 0.9183315714664962 -0.04809104793854072 -0.1290995895747721 -0.0112950023452231 -0.002923391364309144 
0.03965893128560694 -0.1950446605202135 -0.963709438108151 0.9713753071048652 -0.002379950338994915 -0.0008467946857749024 -0.003706775675549 
-0.1022499850429038 0.180313956025368 -0.007001441758600525 -0.1027982865463926 0.0008175640847263269 3.931527144131669e-05 2.603694420997093e-06 
0.4368975172419233 0.1413869140466075 -0.2582807269893286 -0.431777606645145 -0.1304244021077325 -0.08431227168512741 -0.1275172570481096 
-0.4260478039866891 -0.3663297488925352 -0.1247706215020205 0.991321246442245 -0.0329270525597851 -0.01087241546841233 -0.008487730363363487 
-0.4326252028203696 -0.04344006476347433 -0.01560864496322539 0.5166465154491723 -0.01448283585207392 -0.004493331949854852 -0.000791929428295896 
-0.4409025039176062 0.006091695252984608 -0.04167665646130068 -0.004106448975078172 -0.01448969129390114 0.6294868707209261 -6.913859553987637e-05 
-0.08181131176417777 0.5206064900748082 0.005806232060320812 -0.2265662738920757 0.0007889748841966122 -0.0005300951397684265 -3.187983032294751e-05 
-0.4633574633822095 0.6952258157579849 0.1076180231227537 -0.4907338348442951 -0.06488618445496781 -0.03268571553570578 0.3947220540453575 
-0.04608605444045358 0.190334318056907 -0.0960894858083117 -0.1147258405326431 -0.01586540731669745 -0.0006584607484099997 -0.001043540380408542 
0.0001559308234939301 0.0002975805293588621 0.0003469543365614115 -0.0005333760495693963 7.661618028334737e-05 5.194740376908098e-07 6.011422320528489e-08 
0.125552594655399 -0.2277630297551801 0.0009826935869543174 0.1163769072864354 0.0007229907846952543 7.584791663632588e-06 -1.668799350653884e-06 
-0.1039709317188257 0.4882552947164335 0.001762955588961231 -0.1534830627498794 0.0003760786126639846 2.931996964772088e-05 3.421540317328077e-07 
-0.03768729004399415 0.07742844357510767 0.05368228442176311 -0.006301006647968413 -0.02029323884160943 -0.001767190188023572 -0.0002327133644075829 
0.5114214243056033 -0.3570822511666271 -0.01562423850072722 0.08330826414052164 0.001045057090311871 -0.0002760886774327277 -0.001463400114487048 
-0.01391288767417056 0.02516046139267672 0.0007274639295611505 -0.0004461249793857404 0.0002155292058403621 3.699284203953767e-06 4.655186899090641e-07 
-0.05561694866983881 0.07298295327428736 0.001684022050710283 -0.001380277697231175 0.0004009671316653172 6.35838049913359e-06 3.245316708357809e-07 
0.4491177717956657 -0.3726928634878165 -0.1803873397089534 0.2684007657775857 -0.02736801188847824 -0.002823241967971641 -0.002628711863819658 
0.01278534189837545 0.01852761581406836 -0.07861888836712455 -0.1895652553304734 -0.02369525771378378 -0.02428280938152452 -0.03146234820214023 
0.675105916371474 -0.5742299166467143 -0.1227227504664422 0.2004372913217022 -0.1068759908836687 -0.1012756280371533 -0.1120606355115068 
0.06631869163637549 -0.08911394219508208 0.02028412448117242 -0.01346066057519749 0.0005463149351491142 1.251817690841282e-05 1.072897555163269e-06 
0.2623510301299864 -0.2927791194911775 0.005747692891999232 -0.01305347450352272 -0.002477115272797488 -2.671473002930581e-06 -6.581246290779147e-05 
0.3600936950572191 0.03795828581919562 -0.06642075677881798 -0.9374172337558822 -0.0471349747648396 -0.02349318282702247 -0.03363841919569023 
-0.4209540771665924 0.3870850952399496 0.3098807335548212 -0.3160265072097759 -0.007092961023365769 -0.00685234471315879 -0.04463708802478834 
-0.09347443371748979 0.7315552106764083 -0.4294873091627369 -0.5178631757884378 -0.1136456351745883 -0.06351303223185874 -0.03029221203184183 
0.0001559308234939301 0.0002975805293588621 0.0003469543365614115 -0.0005333760495693963 7.661618028334737e-05 5.194740376908098e-07 6.011422320528489e-08 
-0.02228648514055111 0.02052983671281398 0.0210939655470656 -0.003525081697498057 5.778848651566995e-05 2.621037325000844e-05 2.200286331854846e-06 
0.3114409276040336 -0.2711897776362732 0.4354867448508634 -0.05090450866955396 -0.03030891111247292 0.0002990015937726448 -9.794536558170434e-05 
-0.0785173916925232 0.6377859156207949 0.3316984581433788 -0.655099339817698 -0.1265132634994172 -0.023633783679037 -0.003911603480975486 
-0.695283504620191 0.237111390643213 -0.01771786941833139 0.1190921053239711 -0.0008296926223321749 -0.001032078946820412 -0.009067218565005185 
-0.2396293274510879 -0.3537558564887541 0.07339917723917691 0.6667343405198313 0.001271429611628769 -0.001161291529830394 -0.02021336626791315 
-0.1396006013228681 -0.04810912277025349 -0.02496702295991668 0.280338080511323 -0.002887243465786042 -9.565613378972681e-05 -5.33650647611195e-05 
-0.25973667734835 0.005780095219900042 0.5636016953376896 0.1711009535344006 -0.0480973609401847 -0.01339122519038769 -0.05371410835630364 
0.2540780730206135 0.08388606309826921 -0.05679663890201561 -0.3154483830173578 -0.07064550679945421 -0.01874383955681228 -0.0151346687643514 
0.0001559308234939301 0.0002975805293588621 0.0003469543365614115 -0.0005333760495693963 7.661618028334737e-05 5.194740376908098e-07 6.011422320528489e-08 
0.4836773095648031 0.01504157892566821 -0.2656385818896378 -0.294280352423442 -0.3117717661296901 -0.1523366475456518 -0.09030229797151335 
0.0002992614493103194 0.0034768691693083 0.01063252694573658 0.0001214201215969531 0.0001345248731737455 4.498342260532354e-06 5.428460015522083e-07 
0.1646225464752102 -0.1229185460868745 0.03188013414354361 -0.05266522292529396 0.004188190179409336 -0.005072765776346142 -0.0304782070944717 
-0.8576871118737434 1.140245547799586 -0.04100834287191511 -0.6301056149558658 -0.01211797911047838 -0.002411453733879256 -0.001186807116901569 
-0.01111218212811271 0.04533046425723942 0.01411901535872207 -0.02694036502433692 -0.001501802675122588 -0.0002602999291140467 -5.028256326169284e-05 
-0.7643919503215617 -0.03483817300772384 0.5521706861807513 0.4276073222927976 -0.2937155528998275 -0.053811635656355 -0.02474240010197915 
0.2723205082121449 -0.13431261836929 -0.2093390231363743 -0.02816232476465275 -0.006402309425093684 -0.006549805903699966 -0.01009136139709495 
-0.2716989147440504 0.5237639916340732 -0.01963057444992733 -0.0952022346655656 -0.0003771287051914753 2.044740905491061e-05 -2.046660976167918e-05 
-0.03118169805424984 -0.008923543311196503 0.002552032573919059 0.1317318158709068 -0.005506793548767824 -0.001058088470545163 -2.490194392168468e-07 
-0.06081892925517226 0.3366460913405517 -0.03446287113279005 -0.3505665354929387 -0.000120102830755881 3.00738760106894e-05 -2.440501858103127e-06 
-0.1027144177843605 -0.2456423976682945 0.002462450711098792 0.3370410454926578 -0.03614878912394768 -0.006768801169382938 -0.001970460053339112 
0.09980195039221321 0.007017927330266024 0.05532356647589932 -0.1025149164467337 0.001748376041492104 6.787658094650626e-05 5.958675327514748e-06 
0.0001559308234939301 0.0002975805293588621 0.0003469543365614115 -0.0005333760495693963 7.661618028334737e-05 5.194740376908098e-07 6.011422320528489e-08 
-0.06229777463742311 0.1335236704372569 0.00229246607906403 -0.09749088214166549 0.000327925288298236 0.0001297655952820934 -3.17686380692101e-05 
0.1821985030674637 -0.06283722430573149 -0.106186000151775 0.07299984253977662 -0.02562565371886609 -0.009246488820907787 -0.0008885021224649088 
0.02689758581763775 0.3896520037133534 0.02332672586530599 0.09534963290319523 0.002785606458906293 -0.0005368323165872266 -3.060222336834294e-05 
0.1164325039522903 -0.1758755642579956 -0.08338515445386879 -0.1479718195253948 -0.02488293783124141 -0.02430109684626804 -0.03146415330948276 
-0.01254699007438101 1.017316379344755 -0.5240737047441422 -0.4762377294291843 -0.07700004887432982 -0.0123787120160984 -0.0189718653956174 
0.000337436198283196 0.001353396816295777 0.0007359209783600263 -0.0008577283533276099 0.0001495736904748492 4.603128305787979e-06 5.537333332473472e-07 
0.08663554535898789 0.01873108144522517 -0.06103757896882182 -0.1680867491904709 -0.02087471607171997 -0.009277493075706477 -0.01026257208176046 
-0.03226151235387315 -0.2195020313902237 0.1574561390800091 0.008852233407917146 0.0006131534418838922 -1.109938521744399e-05 -2.092451412084883e-05 
0.3264592953226632 -0.1816787513433481 -0.04457937304597792 -0.1601345232164551 -0.1001037540098689 -0.03376947862593089 -0.00529521132949769 
0.002441583024211154 0.0003164966567345077 0.004007941170978236 0.0004189727733620644 0.000358769337795078 1.057143299985073e-05 1.066705036348042e-06 
2.303533700635143e-05 -2.163393566149391e-05 0.001009348111447012 9.689608609588684e-05 0.0001527094229136435 2.792310116670463e-06 9.680634275510573e-08 
-0.1396034109806512 0.1448133705283959 -0.003455529419473287 -0.06246205043685323 -0.0009262431149996669 -0.0002316894915142563 -0.0001195572935554781 
2.303533700635143e-05 -2.163393566149391e-05 0.001009348111447012 9.689608609588684e-05 0.0001527094229136435 2.792310116670463e-06 9.680634275510573e-08 
-0.03119651436499025 0.0141655209027613 0.009116761308522327 0.004980438988803433 -0.0003060682434323428 -1.430957327003181e-05 -1.943152965956304e-05 
-0.5014733405293803 0.1485657480113215 0.6945720636478646 -0.4465023531558974 0.3313253111897663 -0.03331142402551268 -0.02205468394150935 
1.284812803596954 -0.6340809486893094 -1.048596363493748 -0.7459828229582726 -0.3300724239059417 0.4524089883229788 -0.104523251384411 
-0.02324752747798236 0.0632178192131865 0.01533388422780982 0.01429423369185224 0.0005792847880419769 1.395317436419131e-05 1.37422428756382e-06 
0.4108089869406905 -0.2560021446833931 0.2618882159032893 -0.3008605579005612 -0.005762004392290846 -0.0004909107883801151 -0.0004486514747250644 
0.3613142513197491 0.0271116476407821 0.1688440710660596 0.0306223321851606 0.3182775979084836 3.658593078720133e-05 1.577120419384774e-05 
0.0004710373813685327 0.001017184663740783 0.001979249770143176 -0.0001204753428828572 0.0003998732793509959 8.797454737426937e-06 8.230668458113793e-07 
2.303533700635143e-05 -2.163393566149391e-05 0.001009348111447012 9.689608609588684e-05 0.0001527094229136435 2.792310116670463e-06 9.680634275510573e-08 
0.5769615156580382 0.107117252358955 -0.1836010743481166 -0.2664747035752042 -0.07458772550141014 -0.02641679571963529 -0.01703167786873377 
0.2448709362284182 0.3314336391269425 -0.1083313801355075 -0.2534033535494593 -0.1201293181843497 -0.01334093125913837 -0.00737453880038091 
0.1639258993535647 -0.07554217790422722 0.0274119488681259 -0.07881228237134985 0.0003624118994078026 -0.0005626835342453036 -0.001018996042729013 
0.1309047646785213 0.1203878810648307 0.1090421284613587 -0.6976102668914419 -0.04163621641673561 -0.01030020779747189 -0.004132364045742113 
0.009326301030214706 -0.03651804381749273 0.0008901459739819442 -0.005892351971893257 0.0002064128502988531 2.52100454059234e-06 6.602044172450308e-08 
-0.01673583717958398 0.07008512415409682 0.002565542671277348 -0.03439546783449253 0.000297557714187322 2.656438147949071e-05 2.499630023321373e-06 
-0.006312082682886285 0.008993025271490899 0.0009887249149261471 -0.008398715872666133 0.0002690575917867808 1.891899795909626e-05 4.456385696157913e-07 
0.1328397848822552 -0.1121696526821598 -0.0249917620862892 0.04080273873304877 -0.0006370864828868566 -0.00127366349798781 -0.001621330702834798 
-0.209481577765077 0.2950816444380678 -0.117725797325301 -0.1156202424219044 -0.01328634659068077 -0.003321591844272968 -0.02028829182056185 
-0.01186871787579703 0.01563188657992254 0.03047080212807921 -0.03568473374162658 0.0006050942178693005 2.481884707767485e-05 2.201061592153566e-06 
-0.2469866000240312 0.07930766254653455 0.1947759825932492 0.1235249454809556 -0.05514353214953624 -0.02298271731765261 -0.0008306880052573135 
-0.4008041868317648 0.0506352934861303 -0.1173348337690137 0.1278624953991389 0.5557986714137977 -0.003863127326820131 -0.0003744137043784634 
0.2012098075636898 -0.3542165862123122 -0.2737472108654451 -0.05555147610209373 -0.04399824426755136 -0.003491794301352278 -0.02174945891751335 
-0.546654124836854 0.4749969370168309 0.01325891328782061 0.09524113753307453 0.003237948563742345 -0.007904268991091461 -0.01130323120210091 
-0.6103378489890907 -0.008883746807397765 0.7268601863042627 0.2065084495813029 -0.1451368955974616 -0.02036525049387673 -0.01319636637686297 
-0.1923077138274283 0.2746053203801091 0.111917888271578 -0.01979859676583243 0.002115002312167275 0.0001421228682973623 1.236512873670394e-05 
0.2418445441540228 -0.2381009641452816 -0.09347202450070885 0.2391997581723863 -0.003698899261149845 -0.00259371931866578 -0.01190697224227332 
-0.004139061108495034 0.07194769292310783 0.001078282715103742 0.01056014641630241 0.0002022028901179807 5.238209616883851e-06 2.034472382848047e-07 
-0.02609381512953545 0.208149694501636 0.002327683608720174 -0.002957057753808302 0.00067536801714535 1.519272479017093e-05 1.1963515266216e-06 
-0.5719833512189456 0.1764796559367302 0.7993347177866296 -0.6252242477715527 0.3254691985702945 -0.08128778872051999 -0.03753853208702319 
0.00209538451238883 0.0002905563151522182 0.003437327178245378 0.0003000976597580423 0.0001860905026904888 4.525678568555151e-06 3.087184129872342e-07 
2.303533700635143e-05 -2.163393566149391e-05 0.001009348111447012 9.689608609588684e-05 0.0001527094229136435 2.792310116670463e-06 9.680634275510573e-08 
-0.1398347428083238 0.147404753864178 0.001372946866508159 -0.1023769233567238 0.002135202114492331 2.323159845275981e-05 2.388657428820657e-06 
-0.01824766689019987 0.1217914536141757 0.003476429466702609 -0.3302903665667747 0.0009183078044864183 2.167772514674417e-05 1.788127680061975e-06 
-0.0003296156741305917 0.001385572022611329 0.000551502327316507 -0.07560073878624446 0.0002523865852585373 8.33364137934791e-06 6.931286967589874e-07 
-0.293678887691198 -0.37695538743207 -0.5817618890062242 0.6954908062859247 -0.003616241274223186 -0.003973408071851376 -0.004856806892672665 
-0.4659033499356947 -0.3468843303488268 0.00712420202209977 0.8110141886512539 -0.04951801527135574 -0.02095690722311687 -0.06662666010796751 
0.2271103884046528 -0.02701180315223429 -0.1218140570051667 -0.09649354076378525 -0.0418516749494408 -0.01222114392291818 -0.005726922489885502 
-0.1904303739646387 0.2855035009071052 -0.006333389862394598 -0.09353614987455285 0.0004376253981572454 1.719783223461203e-05 -4.002134155068585e-06 
-0.3202927345146824 0.4381436403902862 0.004881726235386302 -0.1121252341142473 0.001484467906128585 0.0002218206378935906 -2.175612310643038e-06 
0.2899026252180027 0.29276988434357 -0.08249567409115165 -0.4139222200276786 -0.1039344269660806 -0.0574107166381571 0.4266809232325903 
-0.1579420692872189 0.2626431489810342 0.007944768215205816 -0.08966940169379158 0.0007788280634593947 2.150300193632113e-05 -6.717634353266855e-05 
-0.1856072219076942 -0.07682271631396134 0.1338422934484957 0.06130134869481024 -0.01892896333147549 -0.009865441635398951 -2.880383841826406e-05 
-0.000649543133808133 0.001344741517943225 0.0009267836069179992 -0.07554673015977952 0.000259160289846504 6.012487683647249e-06 3.806269449831466e-07 
0.5119307612344958 -0.06867329811396503 -0.1091223034525968 -0.4329639982211803 -0.08439375892610097 -0.009177883721545953 -0.002746205415949994 
0.2993824936792467 0.2749136753706023 -0.08606989551151539 -0.3947807752775693 -0.05099015106500823 -0.003944473785952819 -0.02135474612624971 
-0.2256242721156387 0.1862729057762526 0.0435604427403552 -0.2237407858253698 -0.02009077827922525 -0.007495616411205095 0.467002814530648 
-0.09309203928249497 -0.5914263358683438 -0.1078763427430635 0.5024825792488081 0.2620484945009687 -0.0005946031069440494 -0.00401423905092271 
-0.6176901011698939 -0.5955511091009993 -0.4770017899492021 0.7639135457751191 -0.01895693924387117 -0.01789966059509247 -0.004510641211852047 
-0.0002252072318677316 0.0007283407482077039 0.0007391764873711572 -0.07570848008379405 0.000309814012804516 9.150823639458813e-06 7.884742459702871e-07 
-0.1072671872302805 -0.0505311178846184 0.001325861492038647 0.02945006280141738 -0.01849470034973381 -9.489663729444293e-06 -3.16305725510847e-05 
0.07161300387563478 -0.0002687574042299005 0.07543389290263866 -0.08999393990595093 0.0009968032975959428 7.850180967289462e-05 -0.0003966360502900157 
-0.008282007109988986 0.007616828356584266 0.0001975140873233932 -0.09929031555020744 0.0003766225979091896 3.074824440521721e-05 1.979178668368162e-06 
0.2848542432227887 -0.305360114295901 0.1886505658836591 -0.1347751566301583 -0.09019446756440569 -0.006757958824195864 -0.002932252363320151 
-0.0002968853205592738 0.001274431260527052 0.0001505044565343734 -0.07565845031719906 0.0001892685411103659 5.01316602328368e-06 2.798112440878178e-07 
0.286694236911652 -0.3503034132651149 0.0192780517462457 0.190504340214802 -0.001179571859908683 6.296734239219886e-05 -1.915810563389046e-05 
-0.0517639351891909 0.01374860854561697 -0.000249208127689883 -0.0007817092151538827 -8.109671362197652e-05 1.715784072619522e-05 2.973704443500819e-06 
-0.05460963290256231 0.1003905355907949 0.0009027124757223442 -0.02563062719739172 0.0001292728325667872 2.361995154961329e-05 3.741132528086219e-06 
-0.1020701851923676 0.04622819459227332 3.092158921768656e-05 -0.02261356881781815 3.984893682625503e-05 1.752778646788913e-05 2.935493381669123e-06 
0.2686630176274749 -0.1144918722698421 -0.2033660200688394 -0.1395803706317703 -0.02307449809266578 -0.02924065896337433 -0.005685727075544116 
-0.0517639351891909 0.01374860854561697 -0.000249208127689883 -0.0007817092151538827 -8.109671362197652e-05 1.715784072619522e-05 2.973704443500819e-06 
-0.0517639351891909 0.01374860854561697 -0.000249208127689883 -0.0007817092151538827 -8.109671362197652e-05 1.715784072619522e-05 2.973704443500819e-06 
-0.9150343391978719 0.8587966937281174 -0.03762838938650892 0.1510024640711394 -0.04779353794609495 -0.0396196522956925 -0.01972796984335606 
0.6057640540121114 -0.1547242431804551 -0.009467628894283847 -0.2059001912237484 0.005926836880156375 5.5778384427109e-05 -0.0001141252496200334 
-0.1774236646311057 0.06110328770407622 0.003740958525601474 -0.000847387589336544 0.0006302855209142999 2.519926564667583e-05 3.541096193189264e-06 
-0.0557121868640908 0.05449460580713435 -0.0003641481803233673 -0.01016786375764021 -7.024061249380285e-05 1.727524737889795e-05 2.969158207571614e-06 
0.06231183422586255 -0.0364222776866106 -0.1007607989056206 -0.01206999658395604 -0.03926959632651455 -0.005513622725253227 -0.003592948155376815 
-0.05712085116986075 0.07667243208332195 -0.0001693559489552574 -0.1072594712590443 -0.0001077834432611289 2.791635201098672e-05 3.857102647259955e-06 
-0.2614510910165955 0.2772267047325816 -0.002751975887820584 -0.0259752096862914 -0.001647042735786753 -0.000190225675525943 -4.135216473769225e-06 
-0.378353011333513 0.3020135228665896 0.2652014719918091 -0.0003355148006888471 -0.00381776812189866 -0.0001471281408824236 -0.002695273437333587 
0.1188994289205358 0.1562037219921235 -0.08753454853733772 -0.1767527056120665 -0.06414643232376181 -0.004934150936155977 -0.02135402548711545 
-0.2614510910165955 0.2772267047325816 -0.002751975887820584 -0.0259752096862914 -0.001647042735786753 -0.000190225675525943 -4.135216473769225e-06 
-0.2711246440424403 0.4194776634135202 -0.004374038773793839 -0.0570120175469741 -0.001550850959851169 -0.0001909463596031447 -3.795214074311481e-06 
-0.2614510910165955 0.2772267047325816 -0.002751975887820584 -0.0259752096862914 -0.001647042735786753 -0.000190225675525943 -4.135216473769225e-06 
-0.7127083988498228 0.2445482133882433 0.624277027352388 -0.06274405095864435 -0.02964654305188258 -0.004497371073061925 -0.001566527967629157 
-0.3172218469765098 0.3915838837774379 -0.01291857159895923 -0.02904274742597116 -0.001790748301399116 -0.0005120379506356469 -3.691029319134846e-06 
0.09481975897662358 -0.0138573648348856 -0.05921050560334386 -0.01408136825965462 -0.0358326001127653 -0.007641591868242307 -0.0002598917664446977 
0.09481975897662358 -0.0138573648348856 -0.05921050560334386 -0.01408136825965462 -0.0358326001127653 -0.007641591868242307 -0.0002598917664446977 
0.09481975897662358 -0.0138573648348856 -0.05921050560334386 -0.01408136825965462 -0.0358326001127653 -0.007641591868242307 -0.0002598917664446977 
0.09481975897662358 -0.0138573648348856 -0.05921050560334386 -0.01408136825965462 -0.0358326001127653 -0.007641591868242307 -0.0002598917664446977 
-0.05789788445884584 -0.01424419951113557 0.0517865544112009 -0.01228551400147323 -0.06814946610993672 -0.004695506800472106 -0.0003638232903175658 
-0.6160536164136212 -0.4877277594587842 1.080951080006428 -0.2964938296247101 0.02231304883348408 -0.08153710028242012 -0.01095226179377139 
-0.308870463669447 -0.4471105379496158 -0.167583317715743 0.2696964774201613 0.4043175519927689 -0.04004547514324684 -0.004399477937712051 
-0.006661114823285913 -0.004633951063067901 0.0146983271024234 -0.007181065683318322 -0.02306802121242942 -0.001898369256191841 -6.190212632299536e-05 
-0.573719069529813 -0.02259475510632419 0.4837673544611482 -0.02496205524686377 -0.05037730422895065 -0.003919010549771893 -0.001586544326803392 
-1.038489250107637 -0.09217973687261605 0.7175402242831959 0.06381127298888969 -0.4362190844419604 -0.1715492696567504 -0.04789262181224647 
-1.877374035008293 -0.3898315774795032 1.450145080458221 0.4228320187273911 -0.2815325830768613 -0.1371425497845578 -0.07851891796079395 
-0.07055417758312567 -0.03894668619038659 0.005682496517298396 0.03298060394493704 -0.00824424738121037 -0.001521440979686319 -0.0007133329939018619 
-0.691248619074822 -0.2437893009289242 0.3779056443121911 0.04327012861500193 -0.1034522353527216 -0.04392658171182789 -0.02502455138256982 
0.1592799715204156 -0.03129504374731183 -0.1666066901223206 -0.05850830352866477 -0.1256977758041464 -0.08379953520850342 -0.03547328834731635 
0.2204871811310258 -0.09218202671011463 -0.08150505914535119 -0.007358369735256148 -0.02895508575797063 -0.003434638142435732 -0.000959039543640763 
-0.7343840489817597 -0.1801266976070634 0.6218733997116406 0.1372659308297187 -0.09486490293318023 -0.01946123327498388 -0.006538691860584635 
-0.008309560300720768 -0.001579099163295473 0.00556250364602219 -0.002818830771909417 -0.000868812331220593 -0.0007096172562268392 -4.881007748903459e-05 
-0.6189981717674404 -0.09118630131051285 0.6458245671843803 -0.2479664765976161 -0.07461161062479015 -0.03975904847392922 -0.02354069700421647 
-0.0394451519739424 -0.08529709210534335 0.2256247908197556 -0.1596960618594219 -0.1086651117538051 -0.02292494427562151 -0.005496390604411014 
-0.00417308395800651 0.0142162004396677 0.01127131338459481 -0.001865102051636389 -0.0007636823037377922 -7.078516581930759e-05 -1.456029232976143e-05 
-0.9426601336561804 0.04595266734918936 0.9851136094549232 -0.30617302002223 -0.3482736412441211 -0.06878070951653799 -0.06259256018656779 
-0.1116917448047929 -0.107026841710768 0.3601078435129065 -0.134227118486432 -0.2059017306891866 -0.02460242638459758 -0.009551798666036579 
-0.7723894902723581 -0.08684638683709052 0.4828102983786506 0.4664228756666055 -0.125079149624335 -0.02445553810676238 -0.01373695739246599 
-0.4161167706809022 -0.09029424690057872 0.4534455055514669 -0.150958463913207 -0.06299614575904376 -0.02685146512381854 -0.01808572533646454 
-0.2732548028140973 0.1159082676479257 -0.1009150177534948 0.6171818382884016 -0.06555441557367778 -0.01048162071068307 -0.009967382569952683 
-0.3608813581758799 0.1192043044189406 0.2097569690105774 -0.1367078526324401 -0.02337074616905885 -0.002213175420518274 -0.002886375335311943 
-0.1249937852711644 -0.02538176261360196 0.1218469491639917 -0.009836670225505216 -0.05157028108440218 -0.004951852467580463 -0.0008490599723068046 
-0.01139902114231659 -0.0008847765823399928 0.01032026494686131 -0.001965648019713254 -0.001177962338347019 -0.0001758007753244055 -5.793279911043123e-05 
-0.6670964679417509 -0.1473107833933646 0.602277485423068 -0.03564385998672354 -0.2095418401574891 -0.05867128403493437 -0.01661297948100814 
-0.04704247753449526 -0.0571771498683941 0.08061305562234754 0.0107383553120564 -0.01937934157361287 -0.001465474010709365 -7.075681256517934e-05 
-0.05083870877828332 -0.007172471105201052 0.07603099380362019 0.005434845464280634 -0.0205656157925012 -0.00206473129069114 -0.0004282664808604021 
-2.57077327753561 -1.035559154473761 3.213572416106749 -1.383438265854232 -1.067050319696282 -0.3546011050324044 -0.08825019492644484 
-0.636314003298281 -0.1191404686510839 0.6592228461328568 -0.2163372178396527 -0.1717100225695351 -0.04936495807937165 -0.01471402105518625 
-0.02318357987917726 -0.04239865962328437 0.02200462130717028 -0.001407765297558269 -0.002907730895772509 -0.0006885580800037219 -0.0001919612750888767 
-2.477165072463722 -0.6554492263022617 1.66560613055739 0.4716355701984685 -0.2863301943001783 -0.1279213470305347 -0.1438632058189747 
-0.9264949492780303 -0.0923222344209939 0.5802209185411347 0.6419804723777613 0.1126658117838412 -0.02151393002154664 -0.009412368635361292 
-0.004652326871414909 -0.007784915759681713 0.00326619044758025 0.02323409665717592 -0.004345433443780218 -0.0007651852654460591 -3.970873311544431e-05 
-0.0038675815968658 -0.0009673194793268277 0.003431504578251287 -0.001717585185348795 -0.004394666432610542 -0.0007658789203150666 -3.974738191729928e-05 
-0.0038675815968658 -0.0009673194793268277 0.003431504578251287 -0.001717585185348795 -0.004394666432610542 -0.0007658789203150666 -3.974738191729928e-05 
-0.05396520542275721 -0.1051238116477471 0.4375485954794642 -0.07785395283262815 -0.03221406766138322 -0.009256730369087592 -0.02164626744933423 
-1.057095057061203 -0.3832389117490528 1.48830646040573 0.1979038817289401 -0.6251614435838215 -0.08939888035267611 -0.05547269503881194 
-0.4036976385350651 -0.1024744456944277 0.7231318681276477 -0.1262582979541823 -0.04604343733825079 -0.0118984506093944 -0.02530306264111932 
-0.1794029338140351 -0.01159023261743372 0.3989490014888761 -0.02798544419262774 -0.01662592760238919 -0.004057486529913234 -0.00881832837971263 
-1.292878617297568 -0.06686695050999504 1.713407625228283 -0.3975331466439683 -0.1250131240115793 -0.01106637929248371 -0.02276336177953043 
-0.4167854079491428 -0.06171898914170942 0.552295143279835 -0.01991743219440558 -0.04446174453681671 -0.003168014831250647 -0.003801273708096045 
-0.7817969834166399 -0.1039021755557643 1.174558617680485 -0.2918522144108351 -0.09100203226707168 -0.006052129036652821 -0.01469419280089858 
-0.4136692012344435 -0.04222589832190474 0.5524057494717513 -0.0469079837194039 -0.04465690827722192 -0.003170131347441869 -0.003801481386757313 
0.5076900089075235 -0.2344060905807807 -0.2238270360385099 0.05270805051170021 -0.1707549518236687 -0.1511817330753391 -0.04420245440356629 
-0.07252262681686089 0.1268556642304229 0.0652605946755264 -0.003276761275922823 -0.005891450706487932 -0.006592029699111377 -0.0002000018855074929 
-0.009227609373359268 -0.02183454065268322 0.01988186606081548 -0.009525877165561133 -0.007736886004595401 -0.004450484547005481 -0.0001283080376770569 
-0.09445384080230003 -0.04225867578243995 0.2152526489180222 -0.1362810732019893 -0.01661351849948824 -0.01207925115852589 -0.0003509163768661422 
-0.001019795432406931 -0.01328783614517028 -0.0003582120410933166 0.01526374749328005 0.0005744256462771592 1.284747565665555e-06 1.41829996408812e-07 
0.191310372063903 -0.2218257399784934 0.169435281602154 -0.1411340361720584 -0.1118657173440395 -0.06260782509109665 -0.04278820543848035 
-0.0207603354505947 -0.1176247810078808 -0.0008333557669527085 -0.1304296582650895 -0.0008255461879815007 -2.767589579639326e-05 -0.0001002499757072279 
-0.4923504938576385 0.169456956393964 0.1337121465110345 -0.00729271314780055 0.05896712193864226 -0.01916747023198294 -0.002658197950494472 
-0.0548893931175236 0.04832585763299624 0.0219518909925528 0.08862924746570526 0.001424883722566655 4.067185126891733e-05 4.103217946311698e-06 
-0.4085655691206383 0.109044463460249 -0.06603334642809786 0.3892597074719515 0.001104164127014387 -0.004438558079743596 -0.002773017319828177 
-0.437447463482511 -0.1151084340299516 -0.01600722981780736 0.8062153205787603 0.001287128744141328 -7.924961144688131e-06 -9.195778248181137e-05 
-0.0299166960181708 0.167797629059291 -0.1639484477740334 -0.006197539734007088 -0.01400622557006609 -0.01364940527416923 -0.002319070663805707 
-0.2609686275760455 -0.1712786116493178 0.576577666951124 -0.1154586582197726 -0.0380116203818952 -0.002859997845056856 -0.00210191221661136 
-0.002648952521251353 0.01385170255821944 -0.0002621965025677849 -0.0928584839357284 1.765375526918278e-05 9.246416351594916e-07 3.148024205316502e-08 
-0.2359392449283896 -0.2198132343759616 -0.02019727296088541 0.26733373898771 -0.006369926682950442 -0.0002548318057513294 -0.002842307532456353 
-0.03470655172794661 -0.09476380627336395 -0.001533313036571357 0.03950514092842828 0.0004630775130471283 2.310569494247651e-05 -2.663613953917014e-06 
-1.045535437782825 -0.1287056640258418 0.7438987154951372 0.3167155674305778 -0.1485970136695094 -0.0142899153293625 -0.01076506048104802 
-0.0002609766851541395 -0.009567955866862701 -0.0002902469801951842 0.01291629222276441 -1.511917453909988e-05 -6.322954915750067e-07 -9.419573683307943e-08 
-0.0002609766851541395 -0.009567955866862701 -0.0002902469801951842 0.01291629222276441 -1.511917453909988e-05 -6.322954915750067e-07 -9.419573683307943e-08 
-0.07094693939760822 -0.0380467171666875 0.1730011768300269 -0.002901321162333536 0.0005917291286450512 2.079757487004439e-05 -6.856887230721932e-06 
-0.07450177762626503 -0.108008654997054 -0.02648342627720602 0.4004345105458096 -8.123492220361449e-05 -0.0001529315999948602 -0.002208227541876751 
-0.6057476498646316 -0.1947903137247756 0.1709882694734339 0.776138215979281 -0.04866016308224894 -0.03567268122330882 -0.0183277659463264 
-0.02855430080597735 0.3172161237774602 -0.05576717092096096 0.1487282882702018 -0.04360728322452957 -0.006311036978284956 -0.0146635321735691 
-0.0163510726454867 0.3391791015916325 0.1011563361360452 -0.7373282073132684 -0.02033587287138757 -0.009272172659104367 -0.002514488402031352 
0.09294336588585903 -0.03087252068704571 -0.01198734860935317 -0.02917544577673592 -0.001376913432161833 -0.0009619292033086707 -0.0003094661178052859 
-0.001108457083365283 -0.01674198749896457 0.0005035670788436239 0.01398202504011202 0.0001388459212128371 1.983764387074197e-06 2.307260010327996e-07 
0.1876995187700153 -0.004040899035327942 -0.04389386974563319 -0.1190197888082181 0.1507637645072481 -0.001866922314292426 -0.006629466280505841 
-0.001254304722735307 -0.01551421129511869 9.833850567764552e-05 0.01410758457401828 2.5181411391973e-05 -9.954527200096468e-08 -2.102184183594965e-08 
-0.7898531956545395 -0.4492064540509981 0.5015833770526559 0.6728877081529008 -0.2379327442978956 -0.04664261364432078 -0.01446275490056392 
-0.4124932890428069 -0.2773169191499233 -0.02705116006953492 0.5215112908504753 0.007154394580490038 -0.0001603219063820478 -0.005947409388242587 
-0.1785406516667346 0.1714323075133895 0.03336142774066409 0.1022591527960055 -0.01059878985750665 -0.003986602752330194 -0.0002171981053871309 
-0.4070444487611946 0.6192418956668602 -0.02634607356075527 -0.151699693083916 -0.02794668080053884 -0.009841068270815042 -0.0137035488031293 
-0.2711607054588449 -0.8785968802055243 -0.2225457299366425 1.101879742878047 -0.04130213708283959 -0.006916497196383139 -0.05333188404963884 
-0.001254304722735307 -0.01551421129511869 9.833850567764552e-05 0.01410758457401828 2.5181411391973e-05 -9.954527200096468e-08 -2.102184183594965e-08 
-0.2298854168557814 0.1090869518514697 0.0931667812077626 -0.1317238456057882 2.833004678304209e-05 8.358501112569678e-05 -0.0001429012865392482 
-0.1709195581984695 -0.4340666753189357 -0.02903350750204567 0.5224012446441632 0.0004834807314067491 -0.0002046540808543055 -0.002573317464528673 
-0.02510482542994332 -0.01335451528886052 -0.0001255829655087187 0.01003919981569565 0.0002540708027234682 1.304296136286811e-05 3.70796023932715e-07 
-0.8081062215275558 -0.296559293071285 -0.4424698595274238 1.136585881995382 0.009359612094856027 -0.0007371381488052238 -0.008911925383011495 
-0.03318921159961375 -0.1531231850147214 -0.02096771419077742 0.1934214049983353 0.001221987095970757 -7.110754161115552e-05 -0.0006364929938991004 
0.2919606154158164 -0.1234960130578577 -0.07524884478703764 -0.05161567470138893 -0.01839926178924469 -0.0003806500690617885 -0.01446383811327601 
-0.285627516532429 0.2598432750436649 -0.1410974234059517 -0.02005513344542473 0.2420915978447811 -0.0473875165157247 -0.0006779648911933244 
0.08449776090176937 -0.06833502495912561 -0.5030416715905928 0.3808344129110505 -0.004086604415776024 -0.0004439080378464856 -0.0004551017822181763 
-0.003173952648347041 -0.09664936083214085 0.000967433632618139 0.169943955883527 0.0002986875270343591 1.785852884337171e-06 2.188782875311325e-08 
-0.001254304722735307 -0.01551421129511869 9.833850567764552e-05 0.01410758457401828 2.5181411391973e-05 -9.954527200096468e-08 -2.102184183594965e-08 
-0.01624876378636861 -0.05836143596128518 -0.04714758654548337 0.1711233767880857 0.001112049161147725 -3.231343580464325e-07 -0.0001495892221800047 
-0.313292997641138 -0.05611396410197631 0.5159927855102844 0.1064724958300619 -0.05122938678653869 -0.02502003111327268 -0.009307523130928742 
-0.01390017012697441 -0.04147672082917998 -0.003005548928100776 0.0305134618233885 -0.0001467818019566141 6.615212738933918e-07 -0.0001494770887461132 
-0.01539298775352929 -0.05725636279116365 -0.03873574877535323 0.123614653730653 -0.0001430594349265813 -8.037573805875476e-07 -0.0001496442382662125 
0.1842602878909834 -0.05050512693730787 -0.1866799033830956 0.01307319773887996 -0.007514628703937918 -0.0002961552493203129 -0.0006132935069148791 
-0.07259296310701227 -0.01718234368329147 -0.009087301945382145 0.3188788450891596 0.002271373597621631 -0.0001577623332446084 -7.635922213467677e-05 
-0.5728335015769421 -0.4614774856435288 0.06479756191505177 0.6678210666147933 -0.0271408652522953 -0.004414337460868409 -0.002708239510171578 
-0.001113109243161745 -0.04429922844186775 0.005779480402675602 0.09203702504618362 0.001368008175615021 1.000983144290936e-05 2.633936109141036e-06 
-0.1439143151260619 -0.2280124017473369 0.1274191561333241 0.2588329612167221 -0.02052312762961164 -0.009398856307252498 -0.003534476739488922 
0.1591544973718353 -0.217300716971667 -0.3197853081399109 0.1383553250517412 -0.1421712078555511 -0.08089646325935364 -0.05916225514653804 
-0.5483088590561487 -0.2281562757209934 -0.09737775434305174 0.8397672821485122 -0.01952090917060566 -0.0002569518861102241 -0.001017579142236843 
-0.08361221946872234 -0.1334231219866397 -0.2472449878579523 0.5277914729266197 0.003921492454291288 -0.0009055329066268834 -0.000181015913571166 
-0.4988266119166473 -0.09044343620801032 0.1772317935388207 -0.0237218842094036 0.5448725456664214 -0.007424750456100752 -0.007395573048785981 
-0.2162630637365905 -0.04442406030110291 0.2138191307942169 0.09797757319390829 -0.003427004253878076 -0.002288352128205993 -0.02385822718266875 
-0.04341273749552826 1.014066000656781 -0.3827127896995008 -0.1713143813691137 -0.03405745024251264 -0.002890027882170808 -0.004264801837109497 
-0.07970029630986324 -0.09037281324651268 -0.2235945324050951 0.2484046889431508 -0.000904981335130736 -0.0001046444808272464 -0.01175785675196891 
-0.087031436908885 0.1709103012021183 0.02903760113205254 -0.2685122968613026 -0.001669526956464057 -0.003355483933248677 -0.01347019747544019 
-0.1868467165592261 -0.121960161393275 -0.379646956460659 1.052745905429967 -0.00447156366797679 -0.008659275775703554 -0.02135496131315583 
-0.047498984558579 -0.2190968314759836 -0.1403120008584802 0.2344972827749071 -0.01746449525171933 -0.01055965994564755 -0.02964859461489939 
-0.001294731707265153 -0.0410112376509476 0.0006687652510083637 0.0002014671915629988 0.0002613185458049096 9.017007917579985e-06 9.75302124567636e-07 
-0.1710403463483579 -0.4456744734980332 -0.07102784651562011 0.7090543178596507 0.0003501067065713186 -3.682943010011454e-05 -0.006373096507666594 
0.1389220395216993 0.4684823583326652 -0.1711517789330594 -0.1741950341941118 -0.02500358394258616 -0.007076292213158456 -0.001454171985407392 
-0.1429303293142803 0.3220084312465838 -0.1439799560404639 -0.2434840653022082 -0.08218573249350709 -0.03481381426427987 -0.03720516607683984 
0.2521057871823517 0.08990018788381315 -0.195503288055628 -0.1842419028787565 -0.08874835121365253 -0.02033773973570644 -0.01148572519054603 
-0.0003555657662271078 -0.05411621087720093 6.285415035895415e-05 0.001324319704412342 0.0002196900442872428 1.041780489615622e-06 1.304365049532008e-07 
-0.06813762862240141 0.1121009004843337 0.3148783703215155 -0.1905629839116955 -0.08672668685375913 -0.001249431143697226 -0.002989515987109297 
-0.01796265863327313 -0.09535654673136655 0.0002746602328748842 -0.06784777144480608 -0.0005647792468608649 7.743388202132183e-06 -7.758404411696378e-05 
-0.0001804678155262497 -0.04132052048577721 4.723770944738888e-05 8.571040648944813e-05 4.671685203457192e-05 1.021302787611752e-06 1.202114816750901e-07 
-0.1108480426986324 0.0812790360352092 -0.1820494173633768 0.2122900067437283 -0.0006385453087327289 -0.0003450376128747625 -6.035509007029606e-06 
-0.0007847452745491101 -0.006817596280354886 -0.0001653141306710368 0.02495168184252471 4.923298883032314e-05 6.936548690074836e-07 3.864880185496502e-08 
-0.6173432442843104 -0.3707325027321519 0.7429121139557248 0.3535806159503512 -0.2831545695729276 -0.0360384040466153 -0.02185127270105862 
-0.001338832185094494 0.001010003407042684 -0.0004255682688497537 0.02045249908320389 5.137694984380311e-05 1.157307168425918e-06 -9.287253883650169e-09 
-1.161608141616779 -0.03425730896804583 0.8475803311401252 0.1203819308954197 -0.1300478755282973 -0.08008780693725141 -0.03251154682117888 
-0.1207760570316532 0.06731837319035222 -0.3814518562848924 0.5041934155555696 0.004932445211679137 -5.580566015104388e-05 -7.656605231067285e-05 
0.2695215629793594 0.1748331868622734 -0.2742164092108787 0.06664163128916827 -0.02542481163570913 -0.01666956640424581 -0.03900756932144281 
-0.2576128623506024 0.1193609423138045 0.005126997404471402 -0.279801892581127 0.5218944210820096 -0.0006788868563393601 -0.0001144991633293327 
-0.0007847452745491101 -0.006817596280354886 -0.0001653141306710368 0.02495168184252471 4.923298883032314e-05 6.936548690074836e-07 3.864880185496502e-08 
-0.2291246618762497 -0.400697777044528 -0.04565360504710943 0.4695138142714945 -0.006493176147000642 -0.01071173321228782 -0.01881585942566326 
-0.0686244456535372 0.1480554940026956 -0.3626889399521699 -0.03348371485713966 -0.04434747983866505 -0.02643838101322835 -0.04288184535405336 
-0.001252400125257705 -0.02680059041342571 -0.0004001147858400856 0.0254208842345248 0.0001173873978713041 8.386387863807589e-07 -2.14984556426271e-08 
0.3155937370028324 -0.2221664020151064 -0.1898241166251204 -0.2149883581997044 -0.06428806578550507 -0.02345676151054504 -0.009630608794741351 
0.3768119555483637 -0.1727747700250837 -0.06238831681324836 -0.1700682768128912 -0.09056021036648894 -0.01398638301205777 -0.008396749435668458 
-0.07581602118934452 0.1318621585462555 -0.0194302784625572 -0.1525192116820484 0.07324016073682225 -0.01355425524113583 -0.003575647905009694 
0.3355855678843467 -0.04275368672265974 -0.07414102213340545 -0.2306804806775952 -0.0307020343428782 -0.0009499706330322726 -0.004768813703410574 
0.4603754637226165 -0.06064881248058805 -0.08977803886546606 -0.6608215758027269 -0.175965598076751 -0.03493641118823688 -0.02316749453280554 
0.2078950411689547 -0.09249229779580724 -0.1889068990948342 -0.06679910922121962 -0.06418460014216923 -0.02344661862139027 -0.00955877895842914 
0.1480602631579684 -0.02899286486139173 -0.04171607181509591 -0.02206746564531928 -0.03232516959319423 -0.003304930611946747 -0.003096989640780287 
0.1996271741974777 0.07277971150104032 -0.1100797345753305 -0.1584305130945947 -0.03357346734208143 -0.01640506677157682 -0.009538677300868846 
0.06346396421680503 0.0009043015731141698 -0.09638636701156697 -0.01719151618858491 -0.03337254586095947 -0.01636687243230868 -0.004467880486169431 
0.1940032626005528 -0.03532410103813867 -0.1138916392279969 -0.0837926931167198 -0.03373991558615922 -0.0165178246044335 -0.008712846991594079 
0.1180504752891958 -0.01642075957618114 -0.09529682510692644 -0.01166734739000522 -0.0331852344084963 -0.01638985697084686 -0.004467017276079312 
0.4272656234478566 0.03572832129704766 -0.2817495798117298 -0.232554720450839 -0.1013087097140087 -0.02350607279941746 -0.03407900115171558 
0.5658808187429374 -0.3395399956094435 -0.08993399997287779 -0.2383952482160077 -0.01749207190159033 -0.004760566008042642 -0.01073091788633268 
0.08215648413377991 -0.188495294046004 0.01718992370883867 -0.02711199178572024 0.001628773547479223 8.149304487337778e-06 8.375981540892977e-07 
-0.05647385029189241 0.04844602745519505 -0.001500306363709648 0.0001123308120239522 0.001193652176394544 3.2652103611161e-07 -1.248096054482716e-08 
-0.2629047073059935 0.7263220228839545 -0.06533680506559 -0.002996248773098353 -0.03970618895221363 -0.0001696652887194094 -6.546174752774014e-06 
0.4913538268467489 0.414032734384417 -0.7061413010652043 -0.2516631453116629 0.1049919527019752 -0.02937616962097929 -0.0377473041322611 
-0.05647385029189241 0.04844602745519505 -0.001500306363709648 0.0001123308120239522 0.001193652176394544 3.2652103611161e-07 -1.248096054482716e-08 
-0.2394136645073786 0.2928688711893881 -0.04528176266234862 -0.1748721643481106 -0.004204414948173408 -0.0009740524269546541 -0.001403996038348477 
0.1419261775398024 0.07836373699775824 -0.05572669258809457 -0.01441454823512216 -0.01170044844706621 -0.001266614513169641 -0.0006803250261034499 
-0.05647385029189241 0.04844602745519505 -0.001500306363709648 0.0001123308120239522 0.001193652176394544 3.2652103611161e-07 -1.248096054482716e-08 
-0.05647385029189241 0.04844602745519505 -0.001500306363709648 0.0001123308120239522 0.001193652176394544 3.2652103611161e-07 -1.248096054482716e-08 
-0.05647385029189241 0.04844602745519505 -0.001500306363709648 0.0001123308120239522 0.001193652176394544 3.2652103611161e-07 -1.248096054482716e-08 
-0.05647385029189241 0.04844602745519505 -0.001500306363709648 0.0001123308120239522 0.001193652176394544 3.2652103611161e-07 -1.248096054482716e-08 
-0.05626578252884257 0.07827228917505138 -0.0005500616304219504 -0.02688166152636858 0.00133966621388591 4.462347990687599e-06 4.905060986144331e-07 
-0.05786547753290517 -0.1297369701789162 -0.04290592601635936 0.01647838093005992 -0.001910311941726799 0.4140558375816659 1.769137225960863e-06 
0.437622559851759 0.06305375788207454 -0.2220535540509567 -0.3839159842661644 -0.03940092219661562 0.3475769247299436 -0.01362487704879434 
-0.05647385029189241 0.04844602745519505 -0.001500306363709648 0.0001123308120239522 0.001193652176394544 3.2652103611161e-07 -1.248096054482716e-08 
0.1392577015817345 0.3661724802104981 -0.1592892213072211 -0.2163891611181061 -0.01288082549133254 -0.001413512289033762 -0.004258816290121963 
-0.8402011170460337 0.04265912149816201 -1.358151744935959 0.1303594211451884 1.823043443322154 -0.04008541193183943 -0.01187178682830637 
-0.3572740302007293 0.3880950085884103 -0.07021899855665353 -0.2766057521759732 0.2325563327214364 -0.02336984916576797 -0.01812212198631536 
-0.05647385029189241 0.04844602745519505 -0.001500306363709648 0.0001123308120239522 0.001193652176394544 3.2652103611161e-07 -1.248096054482716e-08 
-0.119580564385356 -0.291165859055601 0.08443159142772841 0.3964710577965371 0.5640157904787206 -0.03295035380124282 -0.01657772401386472 
0.5120023713460026 -0.1370335683153653 -0.2870109338947808 -0.119227095166137 -0.1008142665887431 -0.02285485384076925 -0.01459683659250024 
0.08606195714024412 -0.09700801820707408 -0.08262703478596563 -0.0128308257900906 -0.02149529936327545 -0.004816386689887003 -0.01071293378810434 
-0.00414308232275256 0.004991179743339002 -2.995950038351638e-05 -0.009398056050640029 5.929787449485346e-05 2.441757058843464e-07 -4.521088476827661e-09 
-0.008181524083812099 0.006126295178577304 -0.006037227927602942 -0.009232036114805615 8.118521546767051e-05 2.554581965528136e-06 5.277075821984868e-09 
0.07366582884153942 -0.393241029672894 -0.03237795058684695 0.07131083179624315 -0.0222149639478476 -0.009662829977489334 -0.002253959097336928 
-0.00908536790207792 -0.220442655583415 0.03738173818606393 0.0358917543420334 -0.02769568101248781 -0.004302126054387416 1.714110360512061e-07 
0.07130735931002563 -0.07980681449606968 0.01132904185920127 -0.03521049882347253 0.002796084723476988 1.769599595229473e-05 1.73678101705728e-06 
-0.01256832988356805 0.006336384093148627 -6.536616948777785e-05 0.009368852948853959 0.000249708189399529 2.478487781918646e-06 2.482142750196857e-07 
-0.00414308232275256 0.004991179743339002 -2.995950038351638e-05 -0.009398056050640029 5.929787449485346e-05 2.441757058843464e-07 -4.521088476827661e-09 
-0.004374887589489895 0.1210692177383013 0.0004363240021135305 -0.1455711449961243 0.000191221831449894 5.165940568867958e-06 5.108325918726434e-07 
-0.104069504933528 0.07391729497283221 0.3016959578267371 -0.1442232965725094 -0.001344242012244059 -4.206694573040535e-06 -3.402896880211626e-05 
-0.008670340167408457 0.07217643342463795 -0.01819991612027386 -0.01084874554978095 0.0002598170554638104 4.431905900490057e-07 3.431982693862816e-09 
-0.008670340167408457 0.07217643342463795 -0.01819991612027386 -0.01084874554978095 0.0002598170554638104 4.431905900490057e-07 3.431982693862816e-09 
0.07542355145922156 0.02565043961465641 -0.05938868476573807 -0.02943018997682034 -0.02884133704862094 -0.005858860583409784 -0.005809481982263251 
-0.02529982678676326 0.1462970710095367 0.02756306076440653 -0.07480142025911367 0.0002099928206507274 5.381352504464354e-06 1.818257371299317e-07 
-0.00414308232275256 0.004991179743339002 -2.995950038351638e-05 -0.009398056050640029 5.929787449485346e-05 2.441757058843464e-07 -4.521088476827661e-09 
-0.388281444830855 -0.03730228080077708 0.1015004785775415 0.1965754079308097 -0.02261399952237069 -0.006673951119104919 -0.002667233162568329 
0.1583270511017678 0.2622057287670704 -0.197065911040732 -0.4969812771944896 -0.3924243783377306 -0.2543598822718638 -0.03045644561720142 
-0.4613585412855828 0.4184390347202688 0.002296453706590607 -0.1876131537513533 -0.005905251777237486 -0.003396953689674111 -0.002675321658855353 
-0.00414308232275256 0.004991179743339002 -2.995950038351638e-05 -0.009398056050640029 5.929787449485346e-05 2.441757058843464e-07 -4.521088476827661e-09 
-0.1443401587711998 0.1073402185779019 0.01342535802964328 -0.04797977796049545 8.642741135359964e-05 5.37507278970434e-05 -1.182370354555417e-06 
-1.068460995766439 0.0007241308438788287 1.027719004509775 -0.1362860571311403 -0.4372964483461004 -0.2763263684821674 -0.09838733068342542 
-0.161402775577841 0.1278391472249184 0.001763991021287243 -0.008250284080489313 -0.002506321197688666 -0.001578326599066722 -0.0001931388613232155 
-0.161402775577841 0.1278391472249184 0.001763991021287243 -0.008250284080489313 -0.002506321197688666 -0.001578326599066722 -0.0001931388613232155 
0.633531169758728 -0.1414563763930796 -0.3815977771571886 -0.295408030229582 -0.1347568230362571 -0.02779867616889822 -0.013352080468486 
-0.1614250932934986 0.1355164503016857 -0.02551909172336717 0.02617137044630996 0.0003300619805205934 3.425727853410883e-05 3.831692904366626e-08 
-0.06356221696556409 0.1798394329657517 -0.0003981801623219596 -0.03522231419802427 0.0005927104062439048 4.381689048094903e-05 9.55484796671564e-07 
0.01691941062449051 0.2930047082692807 -0.007987561752048539 -0.0474513457746938 0.001584781876250644 9.170100394356457e-05 -0.0008234018362211599 
0.06632563450234125 0.2954207772458502 -0.07510187093267558 -0.2927377250019566 -0.0003581909097490586 1.397165938251391e-05 -0.0009042452854864781 
-0.2009268978611151 -0.03509216594374099 -0.007328626436786771 0.217809426325218 -0.003511522563151812 -0.0002136637943274734 -0.001840435371167067 
-0.05458651107239076 0.01732506114929531 -0.001089541904640527 -0.005524168798579693 -0.0001873114524631741 2.298453853817962e-05 -8.632100901181268e-07 
-0.261236489167619 0.4253864064663627 -0.2407066648911373 -0.1321075493615434 0.7055789015265098 -0.004383839550217235 -0.007052448743559014 
0.3346287822376485 0.2844090577607415 -0.1905911149510221 -0.1406758268632045 -0.1223332470337797 -0.02736639420830667 -0.01057188648380045 
-0.2064308570141011 0.6778759954287595 -0.06383649870188035 -0.003108579585122305 -0.04089984112860819 -0.000169991809755521 -6.533693792229188e-06 
-0.8302109082443453 -0.2394788935187279 -0.1174685474345248 1.177007245987271 0.4430953022159088 -0.01685763071635756 -0.02571714005733144 
0.2045992494782018 0.02681423843571005 -0.07359336349970814 -0.01719757955590176 -0.01899825160135131 -0.001590439560435094 -4.416048074429046e-05 
-0.009491260494303077 -0.01422145734269357 0.009668858920691369 -0.002674108678131588 -0.002377997716927125 -0.001601372259321309 -0.0001922433845808909 
-0.246723652348098 0.06857812239131356 0.3716040164871394 -0.1432665187494104 -0.1202426908179095 -0.03692759983317437 -0.00373412934678849 
-0.009491260494303077 -0.01422145734269357 0.009668858920691369 -0.002674108678131588 -0.002377997716927125 -0.001601372259321309 -0.0001922433845808909 
-0.01920002364970619 -0.03461379206843465 0.03643089197199357 -0.04517742071041706 -0.005630658761526327 -0.006635896397019984 -0.0001139402132734731 
-0.3034817880036489 -0.0501302160014085 0.3627958994645214 0.2904243504019655 -0.2236829356582574 -0.03876638297167771 -0.008750284549852433 
0.009843834398119242 0.08221638419521193 0.8102112833640722 -0.3059959120249657 -0.2556107977409428 -0.031142396605417 -0.005909338691566918 
-0.1248546501570733 -0.2306967083730885 0.04472011414290634 0.3097420149583439 -0.06911800216153617 -0.02634714617029712 -0.00302407568420984 
-1.052286023627043 -0.3999767428392406 1.906035714557575 -0.5500186268098384 -0.6516785737546124 -0.1043079569189677 -0.01667350232973827 
-0.5243487233613358 0.207533643630618 0.5058513665715334 -0.2008350436086144 -0.07254154276100497 -0.03390221530125517 -0.01625091188301349 
-0.5913025160983343 0.04147792718052521 0.4641933822627128 0.1731410784506671 -0.2195689413682266 -0.05223422294850825 -0.01794278992947899 
-0.5554437756194567 -0.07433737463107082 0.8090887641293319 -0.1617599189533669 -0.0886208918776621 -0.01970319916816149 -0.002862870302177733 
-0.4419070804156096 -0.1966575385360299 0.5839696777505177 -0.1668485008935374 -0.09786922731519664 -0.06106153005586519 -0.01007720545348355 
-0.8879570255521558 -0.2949522581036673 0.806852537922369 0.2193484025048596 -0.1853561902227429 -0.09571540709747633 -0.06489168185774755 
-0.5466620860385834 -0.09747411177999027 0.6570965800573771 -0.04492789979984516 -0.1005588684059374 -0.04931240828967946 -0.007511295218592877 
-0.1158057308741434 -0.02946893257833064 0.07352234586520701 0.02022708154575434 -0.007901051825846061 -0.00170058160666565 -0.000142052480663288 
-0.2557005936199293 -0.03691518169848663 0.4721986599177376 -0.08624075027253809 -0.01156380347837828 -0.0004243208892981416 -0.001516374235090396 
-0.2020776046613375 -0.008928604680449852 0.4442634947498116 -0.08510826545515141 -0.00987843611987007 -0.0002127048226751958 -0.001248712142467251 
-0.2388185709304779 -0.01168258329747232 0.3755658852047993 -0.07244427291611862 -0.008061308391949381 -0.0002048592170404674 -0.0007296337171199157 
-0.02738202131909023 -0.03964527137025192 0.00628341323422737 -0.1035317711602793 0.2680785034021088 -0.03791537576692517 -0.001616876246340879 
-1.122590156324146 -0.1683174762002618 0.7272200702992202 -0.04024191685842952 0.1293636160054817 -0.04173225089662055 -0.01440888537285299 
-0.09943492626943515 -0.03095534181791743 0.1742146217435573 -0.01802335564497679 -0.02562439150663471 -0.008475844823227019 -0.001373469221127377 
-1.095666978683107 -0.1255532297850884 1.43107452429307 -0.2433384107794308 -0.1443737400181323 -0.02951485934734592 -0.01063737198834577 
-0.2000696539557296 0.06949398688888694 0.07668767797776414 0.2077016832280105 -0.04430851271533665 -0.002907891296908795 -0.000196004344456655 
-1.18049518712833 -0.224745722064323 2.073194637828862 -0.5657846681608391 -0.8712368582134961 -0.09118677038459425 -0.008341558968419038 
-0.1129217286394163 -0.007177661606448148 0.1703904403622058 -0.009204184613248767 -0.0414155460308562 -0.002900468654418915 -0.0001959640157669049 
-0.1180115448135637 -0.006720045530878414 0.1620062304692269 -0.007559682886892951 -0.04160256357692631 -0.002900404117582879 -0.0001959652334989528 
-0.1180115448135637 -0.006720045530878414 0.1620062304692269 -0.007559682886892951 -0.04160256357692631 -0.002900404117582879 -0.0001959652334989528 
-0.1688315691668965 -0.04889611522644463 -0.3761469829294022 0.8681600637142954 -0.02903008367518643 -0.004900236486321197 -0.009422007091752808 
0.03470972649016107 -0.12152622284468 -0.035042189485344 0.2229308282967074 -0.02009063362519512 -0.01870620796770149 -0.002236602308554827 
0.03579444148507023 -0.2279366801487366 0.1379529818724958 -0.06513241395890118 -0.01277645483509142 -0.002664744856904277 0.4670254607183021 
0.07463014630115725 0.04930738143096808 0.06315289571374263 -0.09165719067718832 -0.006558509009848143 -0.000586453230186754 -0.0003122556339256295 
-0.2302360799698878 0.5503494447149483 -0.01404510687524038 -0.2612045594880101 -0.05565457983248739 -0.03045423614232173 -0.04715941211601232 
